
\data\
ngram 1=555
ngram 2=13398
ngram 3=82745

\1-grams:
-0.865418	</s>	0
-99	<s>	-0.8004465
-1.527424	A	-0.8651536
-2.706729	ABOUT	-0.295
-3.766574	ABOVE	-0.3138315
-4.1096	ABSOLUTELY	-0.2875739
-4.121783	ACCEPTABLE	-0.2985253
-4.159381	ACCURATE	-0.3002507
-4.450492	ACTUALLY	-0.299444
-2.686626	ADD	-0.7728655
-3.869089	AFFIRMATIVE	-0.3004122
-3.351904	AGAIN	-0.3005305
-2.790312	ALL	-0.3218101
-4.025294	ALMOST	-0.2966129
-3.503216	ALRIGHT	-0.3063585
-3.436324	ALTOGETHER	-0.2902179
-2.617201	AM	-0.2978885
-2.447798	AN	-0.7903069
-2.259638	AND	-0.6230033
-2.386578	ANOTHER	-0.8268782
-2.808341	ANY	-0.5988836
-3.299745	ANYTHING	-0.3007725
-2.756663	ANYWHERE	-0.5273321
-3.464327	APART	-0.2991316
-4.079961	APPEAR	-0.2980475
-4.079961	APPEARS	-0.2893771
-2.209688	ARE	-0.5844972
-4.597854	AREN'T	-0.2982841
-3.557106	ARRANGE	-0.3175068
-4.300776	ARRANGED	-0.3067093
-2.588337	AS	-0.3065794
-3.62354	ASKING	-0.3004856
-2.407648	AT	-0.7582246
-3.027976	AVAILABLE	-0.302742
-4.57487	AVERAGE	-0.2997199
-3.25226	AWARE	-0.3010304
-3.730519	AWAY	-0.3005744
-5.12495	AWESOME	-0.2878545
-4.842864	AWFUL	-0.2989853
-5.658553	AWFULLY	-0.2311377
-3.112207	B1	-0.5831711
-2.69825	B10	-0.7335168
-2.697983	B11	-0.7306085
-2.489536	B12	-0.6907039
-3.111539	B2	-0.5715567
-3.114993	B3	-0.5687475
-2.857769	B4	-0.5093739
-3.832072	B5	-0.2971196
-2.858987	B6	-0.5972078
-2.697794	B7	-0.7331456
-2.966588	B8	-0.5070215
-2.859203	B9	-0.5994897
-2.886088	BACK	-0.5395308
-3.856491	BAD	-0.2990794
-1.891487	BE	-0.6823913
-4.055814	BEAUTIFUL	-0.300321
-3.237772	BEGIN	-0.2996081
-3.786275	BELIEVE	-0.2998545
-2.934191	BESIDE	-0.6055171
-3.788587	BET	-0.300441
-2.669588	BETWEEN	-0.5190725
-3.884339	BIG	-0.2948539
-3.480655	BIGGER	-0.3017066
-3.719866	BIGGEST	-0.2995077
-3.590444	BIT	-0.2980371
-1.635488	BLOCK	-0.7998487
-1.677092	BLOCKS	-0.8225216
-2.342611	BLUE	-0.7069365
-4.008974	BOTH	-0.3010091
-3.731695	BOTHER	-0.298725
-2.543684	BOTTOM	-0.9448824
-5.264247	BRILLIANT	-0.2835516
-3.825644	BRING	-0.311298
-2.155009	BUILD	-1.024316
-4.123364	BUILDING	-0.3034323
-4.486095	BUILDS	-0.3015545
-3.761269	BUNCH	-0.2984044
-3.138524	BUT	-0.599179
-3.567252	BY	-0.3001078
-3.551201	BYE	-0.2992955
-3.015635	CABOT	-0.3000259
-2.093394	CAN	-0.8981363
-3.011979	CAN'T	-0.5948705
-3.078451	CANCEL	-0.5950317
-3.012714	CANNOT	-0.5956767
-2.803218	CASTLE	-0.5254499
-3.935987	CASTLES	-0.2967796
-3.967618	CATCH	-0.297629
-4.133507	CERTAIN	-0.3015854
-4.282508	CERTAINLY	-0.2954015
-5.175441	CLASS	-0.2864406
-4.281747	CLEARLY	-0.2954053
-3.63676	CLOSE	-0.3009833
-3.059192	CLOSER	-0.2989072
-2.585672	COLOR	-0.53554
-2.242386	COLUMN	-0.7606354
-4.173363	COLUMNS	-0.2891012
-5.138397	COMPARATIVELY	-0.2611686
-4.572637	COMPLETELY	-0.2776365
-3.013396	COMPUTER	-0.3000282
-3.512618	CONCERNED	-0.3011823
-3.763567	CONFUSED	-0.3004489
-4.075684	COOL	-0.3003088
-4.126807	CORRECT	-0.3002747
-2.641223	COULD	-0.3050602
-3.98243	COULDN'T	-0.2982003
-3.831533	COUPLE	-0.301807
-3.453472	COURSE	-0.2975144
-2.712544	CREATE	-0.8903899
-4.50347	CREATES	-0.30142
-4.11864	CREATING	-0.3034479
-3.20871	CURVED	-0.1245165
-3.565204	DAMN	-0.3004978
-3.568426	DARN	-0.3004971
-4.321509	DEFINITELY	-0.2951958
-3.652532	DEMONSTRATE	-0.3016413
-3.642913	DESCRIBE	-0.3016497
-2.86979	DIAMETER	-0.5336942
-2.849493	DID	-0.5868328
-3.479276	DIDN'T	-0.2987913
-2.844355	DIFFERENT	-0.5908126
-2.046242	DO	-0.6560478
-3.364591	DOES	-0.3022121
-3.059618	DOESN'T	-0.5984256
-3.399576	DOING	-0.3009135
-2.787353	DON'T	-0.5947981
-2.534385	DONE	-0.9305108
-4.618808	DOUBT	-0.2928582
-4.829249	DREADFUL	-0.2990345
-3.446309	DROP	-0.3185254
-4.50347	DROPPED	-0.3054631
-2.813325	EACH	-0.7769334
-2.756935	EIGHT	-0.5996895
-3.759325	EIGHTH	-0.311195
-2.91904	EITHER	-0.6023714
-3.189098	ELEVEN	-0.3135623
-3.299745	ELSE	-0.3005233
-2.689901	END	-0.5711401
-3.087224	ENDS	-0.5927762
-3.057504	ENOUGH	-0.5917524
-4.586211	ENTIRELY	-0.2768775
-4.197717	EQUAL	-0.2997618
-3.061376	EQUALLY	-0.6007632
-4.132968	EVER	-0.300375
-3.727115	EXACTLY	-0.3031059
-2.732875	EXAMPLE	-0.7110423
-5.279096	EXCELLENT	-0.2830133
-5.187506	EXCEPTIONAL	-0.2860793
-5.760012	EXCEPTIONALLY	-0.2237585
-3.787247	EXCUSE	-0.3002713
-3.687354	EXTENT	-0.3001138
-5.834646	EXTRAORDINARILY	-0.2131787
-5.667697	EXTREMELY	-0.2299763
-5.206255	FABULOUS	-0.2854993
-4.125214	FACT	-0.3004781
-4.558039	FAIR	-0.2997527
-5.187506	FAIRLY	-0.2570228
-4.27646	FALSE	-0.3001482
-5.203073	FANTASTIC	-0.2855994
-3.070724	FAR	-0.2995115
-4.335902	FARTHER	-0.300519
-4.009989	FEW	-0.3012101
-4.418107	FEWER	-0.300331
-3.755462	FIFTH	-0.3113291
-3.80985	FINALLY	-0.3027009
-3.042946	FINE	-0.5323225
-2.881322	FINISH	-0.6032459
-2.929247	FINISHED	-0.5743667
-2.547329	FIRST	-0.6033773
-2.687164	FIVE	-0.7081953
-2.643626	FOR	-0.5997999
-3.108571	FORGET	-0.5965721
-3.007921	FORM	-0.3079593
-4.13486	FORMING	-0.3033936
-4.491604	FORMS	-0.3015125
-2.626468	FOUR	-0.7245371
-3.757048	FOURTH	-0.3118941
-3.095368	FROM	-0.3177747
-4.332046	FUNNY	-0.300089
-3.408895	FURTHER	-0.3006983
-3.227054	GAP	-0.2984452
-3.487069	GET	-0.2986376
-3.891551	GO	-0.3010894
-2.699375	GOING	-0.8924242
-3.126462	GONNA	-0.3003311
-2.71988	GOOD	-0.8366145
-3.731267	GOODBYE	-0.2993515
-3.75085	GOT	-0.3018979
-3.572489	GOTCHA	-0.3004963
-3.004878	GREAT	-0.7097831
-2.726731	GREATER	-0.9920667
-2.117733	GREEN	-0.9753568
-3.556319	GREETINGS	-0.3004995
-4.618808	GUESS	-0.2982307
-4.617983	GUESSING	-0.2982343
-4.530234	HAD	-0.299804
-3.801094	HANG	-0.3069902
-2.528136	HAS	-0.6464205
-2.294825	HAVE	-0.5755054
-4.752083	HAVEN'T	-0.2992861
-2.430344	HEIGHT	-0.5064139
-2.970708	HELLO	-0.7122716
-3.882214	HERE	-0.2988325
-3.180698	HERE'S	-0.6004633
-3.834101	HEY	-0.2991386
-3.877395	HI	-0.2986238
-2.751324	HIGH	-0.5223188
-3.109498	HIGHER	-0.3014377
-3.433297	HIGHEST	-0.312921
-4.092557	HMM	-0.2918452
-3.250843	HORIZONTAL	-0.2981967
-4.833289	HORRIBLE	-0.2990201
-2.454325	HOW	-0.5888291
-4.109344	HUH	-0.2917182
-1.697314	I	-0.952175
-3.228834	I'D	-0.30053
-3.110957	I'LL	-0.2988417
-2.64287	I'M	-0.5973397
-3.823126	I'VE	-0.3001165
-3.802478	IGNORE	-0.2976876
-3.805133	IMPOSSIBLE	-0.3004355
-2.266253	IN	-0.6541294
-4.307578	INACCURATE	-0.300116
-4.270866	INCORRECT	-0.3001537
-5.623791	INCREDIBLY	-0.2354295
-3.576141	INDEED	-0.3004956
-2.93455	INSTEAD	-0.714247
-4.292129	INVALID	-0.3001323
-1.806092	IS	-0.6574659
-4.040286	ISN'T	-0.3071815
-1.921049	IT	-0.8835421
-3.001171	IT'S	-0.5899169
-2.665775	ITS	-0.6014086
-3.463345	JOB	-0.2994083
-2.929117	JUST	-0.3043163
-4.669547	KIND	-0.3001215
-4.62379	KINDA	-0.2864975
-2.695621	KNOW	-0.2935144
-3.340706	LAST	-0.3165436
-3.239561	LATER	-0.3005423
-2.812409	LEARN	-0.5772007
-2.891046	LEAST	-0.6817434
-3.335214	LEAVE	-0.3048548
-2.485751	LEFT	-0.7231885
-2.775858	LEFTMOST	-0.9733717
-3.134426	LENGTH	-0.2967311
-3.129092	LESS	-0.5334229
-2.741813	LET	-0.2996382
-2.227308	LET'S	-0.9262746
-3.118997	LEVEL	-0.5332366
-3.846196	LEVELS	-0.2957735
-2.533654	LIKE	-0.7703559
-4.167482	LIKELY	-0.29946
-2.846429	LINE	-0.5784223
-4.299983	LINED	-0.3003634
-4.405295	LINES	-0.2821589
-3.419722	LITTLE	-0.2983605
-4.383145	LOCATION	-0.2959171
-3.267433	LONG	-0.2947758
-3.207213	LONGER	-0.2992284
-3.550918	LONGEST	-0.3007592
-3.412834	LOOK	-0.3003219
-3.524947	LOOKING	-0.3005131
-3.2032	LOOKS	-0.2972748
-3.760124	LOT	-0.2984062
-4.826576	LOUSY	-0.299044
-4.126276	LOWEST	-0.3035674
-2.941466	MADE	-0.5921661
-5.169532	MAGNIFICENT	-0.2866141
-2.137344	MAKE	-1.04241
-4.487924	MAKES	-0.3015406
-4.1231	MAKING	-0.3034332
-2.729673	MANY	-0.5960312
-5.232584	MARVELOUS	-0.2846447
-4.353022	MATTER	-0.3006104
-4.412937	MAXIMUM	-0.299637
-2.855351	MAY	-0.3058648
-3.626387	MAYBE	-0.3000981
-2.568556	ME	-0.5379698
-3.516776	MEAN	-0.2996818
-3.733412	MEANS	-0.3004578
-4.548805	MEDIOCRE	-0.2997701
-2.624506	MIDDLE	-0.5895318
-2.993714	MIGHT	-0.3076655
-3.758869	MIND	-0.2965853
-3.009657	MINE	-0.529074
-3.839969	MINIMUM	-0.3051047
-4.018195	MINUTE	-0.3003427
-5.209461	MODERATELY	-0.2550583
-2.820294	MORE	-0.5352919
-4.208495	MOST	-0.2974663
-2.418749	MOVE	-0.6871107
-3.948505	MOVES	-0.3107983
-3.811134	MOVING	-0.3100507
-3.423234	MUCH	-0.2960019
-2.773521	MUST	-0.7807443
-2.729897	MY	-0.5956676
-3.646859	NAH	-0.2876349
-4.796968	NASTY	-0.2991452
-3.631457	NEAR	-0.3159563
-4.027193	NEARLY	-0.2966065
-2.558096	NEED	-0.6017251
-4.215615	NEEDED	-0.3002049
-3.836139	NEEDS	-0.3009319
-3.571748	NEGATIVE	-0.3004965
-3.758869	NEVER	-0.3008403
-2.296537	NEXT	-1.270134
-4.068184	NICE	-0.3003135
-3.093492	NINE	-0.3307261
-3.76001	NINTH	-0.3113602
-2.145663	NO	-0.622864
-3.645803	NOPE	-0.2876444
-2.234958	NOT	-0.3027081
-5.109345	NOTCH	-0.2882614
-2.294693	NOW	-0.7072188
-2.79416	NUMBER	-0.5396547
-3.403581	NUMBERS	-0.302676
-4.28518	OBVIOUSLY	-0.2953879
-4.307981	ODD	-0.3001156
-1.719226	OF	-0.7681018
-3.817741	OFF	-0.2995116
-2.892011	OH	-0.5839334
-2.907723	OK	-0.5346195
-2.56692	OKAY	-1.114963
-1.677806	ON	-1.033139
-3.592848	ONCE	-0.3011012
-1.853684	ONE	-0.7352473
-2.844624	ONES	-0.2910405
-2.47742	ONLY	-0.675441
-4.089618	OOH	-0.291867
-3.570416	OOPS	-0.3004968
-2.643297	OR	-0.6209475
-2.372332	ORANGE	-0.6278807
-2.589131	OTHER	-0.7934003
-3.014169	OUT	-0.5935761
-5.166608	OUTSTANDING	-0.2866991
-3.685232	OVER	-0.3123392
-3.438826	OWN	-0.3000521
-4.120209	PARTICULAR	-0.3017113
-4.105529	PERHAPS	-0.3002893
-2.880974	PICK	-0.3207791
-3.555461	PILE	-0.317115
-4.29174	PILED	-0.3060508
-2.303195	PLACE	-0.7086328
-4.089373	PLACED	-0.3062685
-3.675622	PLAN	-0.3007581
-2.476832	PLEASE	-0.6006032
-3.612334	POINT	-0.3001852
-4.424922	POSITION	-0.2955838
-3.306933	POSITIVE	-0.2990332
-4.282127	POSITIVELY	-0.2954033
-4.165152	POSSIBLY	-0.2994636
-4.029525	PRACTICALLY	-0.2965985
-3.73266	PRECISELY	-0.3030832
-3.98415	PRETTY	-0.2981212
-4.292129	PREVIOUS	-0.2993622
-4.192736	PROBABLY	-0.2994196
-4.160529	PROPER	-0.3002498
-3.009982	PUSH	-0.6155238
-4.532935	PUSHED	-0.3053713
-1.904011	PUT	-0.8332465
-4.558039	QUESTION	-0.293471
-3.675904	QUITE	-0.298001
-5.117078	RATE	-0.2880615
-5.215942	RATHER	-0.2568267
-3.379323	READY	-0.3007002
-4.153685	REAL	-0.2936083
-3.318894	REALLY	-0.2975236
-5.172477	REASONABLY	-0.2583276
-2.154658	RED	-0.8105464
-5.22585	RELATIVELY	-0.2535459
-5.686583	REMARKABLY	-0.2332382
-3.355131	REPEAT	-0.2955252
-3.62354	REST	-0.3070213
-3.20871	REUSE	-0.1230043
-2.323565	RIGHT	-0.775925
-3.20871	RIGHT-SIDED	-0.1248082
-2.776036	RIGHTMOST	-0.9740455
-4.035303	ROUGHLY	-0.2965788
-1.951889	ROW	-0.9427698
-3.746396	ROWS	-0.3004864
-3.600934	SAID	-0.3004905
-3.057715	SAME	-0.3000658
-4.48976	SAT	-0.3055037
-3.239044	SAY	-0.2967703
-3.777381	SCRATCH	-0.2976947
-2.921576	SECOND	-0.5990328
-3.500441	SEE	-0.2988179
-4.086213	SEEM	-0.2979964
-4.077342	SEEMS	-0.2897579
-5.808317	SERIOUSLY	-0.2104346
-2.815852	SET	-0.3010533
-3.788954	SETS	-0.3009421
-3.088253	SEVEN	-0.3329333
-3.763106	SEVENTH	-0.3113026
-3.250454	SEVERAL	-0.3093283
-5.599432	SHADE	-0.2537513
-2.805636	SHALL	-0.6055595
-2.69131	SHAPE	-0.62414
-4.174846	SHAPES	-0.2951966
-3.822862	SHELF	-0.2983281
-3.483125	SHORTER	-0.3006459
-2.845338	SHORTEST	-0.8289148
-2.742171	SHOULD	-0.6009183
-4.095516	SHOULDN'T	-0.2980857
-3.148538	SHOW	-0.2987124
-3.985877	SHOWED	-0.2987511
-2.543162	SIDE	-0.7044417
-2.727582	SINGLE	-0.5900642
-3.441452	SIT	-0.3185645
-2.914324	SITTING	-0.3033724
-2.75969	SIX	-0.553817
-3.76855	SIXTH	-0.31104
-3.29931	SIZE	-0.301101
-5.706327	SLIGHTLY	-0.2429385
-3.902519	SMALL	-0.2947778
-3.475995	SMALLER	-0.3006681
-3.730199	SMALLEST	-0.2994146
-2.673254	SO	-0.6148794
-2.703245	SOME	-0.3155829
-5.043128	SOMEWHAT	-0.2682819
-3.64677	SORRY	-0.3004803
-4.662186	SORT	-0.3001374
-2.922068	SPACE	-0.5977263
-2.584033	STACK	-0.7773898
-3.17451	STACKED	-0.59206
-4.157664	STACKS	-0.2910798
-2.39761	STAIRCASE	-1.122072
-3.814878	STAIRCASES	-0.299028
-2.732939	STAIRS	-0.2901877
-2.918332	START	-0.5995293
-2.431552	STEP	-0.8981265
-2.664709	STEPS	-0.5909897
-5.196779	STERLING	-0.2857954
-3.548033	STRAIGHT	-0.300791
-4.328223	STRANGE	-0.3000933
-2.150958	STRUCTURE	-0.5884229
-2.950769	STRUCTURES	-0.2990021
-3.204619	SUPER	-0.5117872
-5.196779	SUPERB	-0.2894984
-4.319018	SUPPOSE	-0.2991785
-3.51828	SUPPOSED	-0.3010044
-2.991352	SURE	-0.2927363
-4.298006	SURELY	-0.2953219
-3.20871	SURFACES	-0.1221064
-2.177391	TABLE	-1.542092
-2.678593	TAKE	-0.618961
-3.657739	TALK	-0.3009789
-2.753548	TALL	-0.8253552
-2.768959	TALLER	-0.7752445
-2.915991	TALLEST	-0.531469
-2.856882	TEACH	-0.8948349
-2.844499	TELL	-0.7781135
-3.186192	TEN	-0.3150755
-4.817349	TERRIBLE	-0.2990763
-5.649599	TERRIBLY	-0.232262
-5.209461	TERRIFIC	-0.2853978
-2.271473	THAN	-0.7976733
-3.307578	THANK	-0.2989047
-3.258518	THANKS	-0.3033285
-1.889347	THAT	-0.6756873
-2.700693	THAT'S	-0.632807
-1.292113	THE	-0.9562165
-3.212915	THEIR	-0.3008891
-2.787438	THEM	-0.5928831
-2.615059	THERE	-0.5973758
-4.332473	THERE'S	-0.3040568
-2.899971	THESE	-0.30373
-3.062888	THEY	-0.5800945
-3.786517	THING	-0.3004417
-3.13755	THINK	-0.3035457
-4.005541	THINKING	-0.2984463
-3.098987	THIRD	-0.6022837
-2.146688	THIS	-0.6522906
-4.566007	THOROUGHLY	-0.2786699
-2.894921	THOSE	-0.3039487
-2.262993	THREE	-0.6559274
-1.619326	TO	-0.7424595
-3.975055	TODAY	-0.3003653
-2.711044	TOGETHER	-0.537145
-4.614699	TOO	-0.2861091
-2.108828	TOP	-0.8402796
-4.111137	TOPMOST	-0.3020675
-3.060827	TOTAL	-0.5261639
-4.566739	TOTALLY	-0.2773076
-5.607401	TOUCH	-0.2530069
-2.486619	TOWER	-0.6201037
-4.172476	TOWERS	-0.2871898
-3.563892	TRUE	-0.300498
-4.146391	TRULY	-0.2957763
-4.138669	TRUTH	-0.3004488
-3.655307	TRY	-0.2972354
-3.186619	TWELVE	-0.3133368
-2.262906	TWO	-0.877131
-4.09035	UGH	-0.2918617
-5.591607	UNBELIEVABLY	-0.2392285
-3.376998	UNDERSTAND	-0.2967404
-3.076244	UNDO	-0.5950398
-4.307175	UNDOUBTEDLY	-0.2952734
-3.788221	UNLIKELY	-0.3004411
-4.284798	UNQUESTIONABLY	-0.2953898
-2.606388	UP	-0.5971084
-3.574125	UPRIGHT	-0.2981184
-3.20871	UPWARDS	-0.102953
-2.774252	US	-0.3102309
-2.74511	USE	-0.6078396
-4.563093	UTTERLY	-0.2781353
-5.623791	VAGUELY	-0.2514451
-4.135402	VALID	-0.3002685
-3.569973	VERTICAL	-0.2981198
-3.532935	VERY	-0.2987905
-3.630948	VICINITY	-0.3009801
-4.049759	VIRTUALLY	-0.296528
-3.723633	WAIT	-0.3048119
-4.113451	WAITING	-0.3003216
-2.661075	WALL	-0.7010227
-3.373558	WALLS	-0.301981
-3.719761	WANNA	-0.3101958
-2.092609	WANT	-1.29437
-4.22585	WANTED	-0.3001959
-3.347063	WAS	-0.2925962
-3.890006	WASN'T	-0.2999444
-3.786639	WAY	-0.3004416
-2.400965	WE	-0.7052231
-3.753431	WE'LL	-0.3020151
-2.72567	WE'RE	-0.6959596
-3.164794	WE'VE	-0.6009453
-4.336333	WEIRD	-0.3000841
-3.363948	WELL	-0.3000701
-2.129174	WHAT	-0.5733671
-3.73492	WHAT'S	-0.3031577
-2.936839	WHO	-0.6004518
-2.937888	WIDE	-0.5919456
-3.206574	WIDER	-0.3012921
-3.53702	WIDEST	-0.3008425
-2.644563	WIDTH	-0.5134083
-2.404913	WILL	-0.5489823
-2.247523	WITH	-0.561686
-4.286715	WITHOUT	-0.3002402
-3.788587	WON'T	-0.2983392
-5.239424	WONDERFUL	-0.2844147
-4.12894	WORK	-0.3068436
-3.553397	WORKING	-0.3070468
-2.811044	WOULD	-0.2983661
-4.286715	WRONG	-0.3001379
-3.157464	YEAH	-0.287442
-2.317061	YES	-0.648897
-3.807804	YET	-0.3004346
-1.799515	YOU	-0.6533446
-3.86616	YOU'RE	-0.3069692
-4.232584	YOU'VE	-0.2997319
-3.07834	YOUR	-0.3063903
-3.448423	YOURS	-0.2948482
-3.786275	YOURSELF	-0.3004417
-3.155272	YUP	-0.2874523

\2-grams:
-1.905687	<s> A	-0.2554179
-3.370769	<s> ABOUT	-0.2963602
-6.000179	<s> ABOVE	0
-3.651225	<s> ABSOLUTELY	-0.01910374
-4.456111	<s> ACCEPTABLE	0.01686475
-4.409114	<s> ACCURATE	0.003904849
-3.588559	<s> ACTUALLY	0
-2.68748	<s> ADD	0.03982443
-3.006742	<s> AFFIRMATIVE	0
-2.983981	<s> ALL	-0.2776051
-3.421158	<s> ALMOST	0.001185954
-2.766759	<s> ALRIGHT	0.001137257
-3.52354	<s> ALTOGETHER	-0.2261313
-2.887127	<s> AM	-0.2336577
-3.156461	<s> AN	-0.2117986
-1.875832	<s> AND	-0.2414146
-2.396668	<s> ANOTHER	-0.0450083
-2.424053	<s> ANY	-0.2174528
-2.882818	<s> ANYWHERE	-0.1788334
-2.132507	<s> ARE	-0.2449779
-4.052418	<s> ARRANGE	0.04116139
-2.442591	<s> AS	-0.2191296
-2.245062	<s> AT	-0.476919
-3.922206	<s> AVERAGE	0.0005308688
-6.17627	<s> AWAY	0.124832
-5.301209	<s> AWESOME	0.06177345
-4.651225	<s> AWFUL	0.005728185
-5.246851	<s> AWFULLY	0.004068598
-3.582688	<s> B1	-0.1137806
-3.163306	<s> B10	-0.1232427
-3.166267	<s> B11	-0.1285739
-2.953336	<s> B12	-0.1278668
-3.584908	<s> B2	-0.1250193
-3.586022	<s> B3	-0.1387416
-3.32316	<s> B4	-0.1481714
-4.309983	<s> B5	-0.1444571
-3.317712	<s> B6	-0.1150785
-3.161204	<s> B7	-0.1202793
-3.440751	<s> B8	-0.156812
-3.323769	<s> B9	-0.1276102
-3.485837	<s> BACK	-0.1036757
-4.14892	<s> BAD	-0.09767598
-3.740107	<s> BEAUTIFUL	0.0006562471
-3.62421	<s> BEGIN	0.0005749166
-3.493313	<s> BESIDE	0
-3.353753	<s> BETWEEN	-0.2381871
-2.22473	<s> BLOCK	-0.2979638
-2.25437	<s> BLOCKS	-0.2841086
-3.178811	<s> BLUE	-0.3131801
-5.4773	<s> BRILLIANT	0.06760958
-2.963284	<s> BRING	0
-2.687551	<s> BUILD	0.02967596
-2.624431	<s> BUT	-0.10789
-2.871026	<s> BY	-0.1198729
-2.863564	<s> BYE	0.0002031326
-2.531437	<s> CABOT	0.0006150305
-1.836622	<s> CAN	-0.6023314
-3.157251	<s> CAN'T	-0.2006154
-2.470989	<s> CANCEL	0
-3.149423	<s> CANNOT	-0.2025741
-3.638115	<s> CASTLE	-0.2876034
-4.106232	<s> CASTLES	-0.1885443
-3.692683	<s> CERTAINLY	0.001896828
-3.704978	<s> CLEARLY	0.002016902
-6.000179	<s> CLOSE	0.09896325
-3.561373	<s> CLOSER	-0.1096447
-2.740144	<s> COLUMN	-0.2724248
-3.53878	<s> COLUMNS	-0.1038005
-4.87524	<s> COMPARATIVELY	-0.03853598
-4.499576	<s> COMPLETELY	-0.007454291
-2.518258	<s> COMPUTER	0.000585705
-3.782695	<s> COOL	0.0007382333
-4.346966	<s> CORRECT	0.003370464
-2.057262	<s> COULD	-0.06108747
-2.693083	<s> CREATE	0.04500318
-2.702783	<s> DAMN	0
-2.706006	<s> DARN	0
-3.736148	<s> DEFINITELY	0.00211677
-2.135462	<s> DO	-0.1889594
-2.455888	<s> DON'T	-0.3865262
-3.035552	<s> DONE	-0.4406399
-4.619967	<s> DREADFUL	0.005279601
-3.820244	<s> DROP	0.03431138
-3.374935	<s> EIGHT	-0.1502619
-4.134877	<s> ELEVEN	-0.1089427
-3.335996	<s> END	-0.2768879
-4.460266	<s> ENTIRELY	-0.02089253
-4.52791	<s> EVER	0.004534811
-3.478169	<s> EXACTLY	0.005368531
-5.57421	<s> EXCELLENT	0.08963485
-5.301209	<s> EXCEPTIONAL	0.03805989
-5.363356	<s> EXCEPTIONALLY	-0.01025762
-2.924875	<s> EXCUSE	0
-5.363356	<s> EXTRAORDINARILY	0.01464583
-5.222027	<s> EXTREMELY	-0.01361477
-5.398119	<s> FABULOUS	0.06578687
-3.912634	<s> FAIR	0.000533402
-5.000179	<s> FAIRLY	-0.05607215
-4.295456	<s> FALSE	0.002836883
-5.523057	<s> FANTASTIC	0.07915962
-6.4773	<s> FARTHER	0
-5.246851	<s> FEWER	0.02307233
-2.947485	<s> FINALLY	0
-2.45684	<s> FINE	0.001553416
-2.325968	<s> FINISH	0.002312839
-2.331036	<s> FIRST	-0.1622993
-3.281105	<s> FIVE	-0.18918
-3.405589	<s> FOR	-0.2932587
-2.52677	<s> FORGET	0
-3.64543	<s> FORM	-0.1151643
-3.204453	<s> FOUR	-0.2629787
-3.807054	<s> FROM	-0.2326866
-3.97215	<s> FURTHER	-0.04520869
-2.357569	<s> GOOD	-0.2138892
-2.868881	<s> GOODBYE	0
-3.215799	<s> GOT	0.0001275837
-2.71007	<s> GOTCHA	0
-2.43726	<s> GREAT	0.03315973
-2.762635	<s> GREEN	-0.3005896
-2.693897	<s> GREETINGS	0
-2.938726	<s> HANG	0
-2.332982	<s> HELLO	0
-3.789771	<s> HERE	-0.01914036
-2.710784	<s> HERE'S	0.0005397499
-2.971743	<s> HEY	0
-3.015052	<s> HI	0
-3.341849	<s> HMM	0.0009412467
-4.495029	<s> HORIZONTAL	0.008719176
-4.596486	<s> HORRIBLE	0.004913181
-1.790598	<s> HOW	-0.1194712
-3.36436	<s> HUH	0.001034588
-1.085031	<s> I	-0.3161854
-2.432134	<s> I'D	5.51343e-06
-2.360128	<s> I'LL	9.256601e-05
-2.044976	<s> I'M	-0.161121
-2.960764	<s> I'VE	0
-2.940111	<s> IGNORE	0
-3.942006	<s> IMPOSSIBLE	0.001311183
-2.89039	<s> IN	-0.2333839
-4.412842	<s> INACCURATE	0.003806144
-4.304114	<s> INCORRECT	0.002907604
-5.27318	<s> INCREDIBLY	-0.02947785
-2.713722	<s> INDEED	0
-4.301209	<s> INVALID	0.002864093
-2.127599	<s> IS	-0.74454
-1.638483	<s> IT	-0.4049694
-2.640436	<s> IT'S	0.0007415414
-2.60488	<s> ITS	0.0004090071
-2.792185	<s> JUST	-0.2222902
-4.174104	<s> KIND	0.001241386
-3.985938	<s> KINDA	-0.03108346
-2.716049	<s> LEAVE	6.711483e-05
-3.104044	<s> LEFT	-0.3055755
-2.055203	<s> LET	1.090765e-05
-1.538527	<s> LET'S	0.0271045
-3.573125	<s> LIKELY	0.0005739629
-3.509035	<s> LINE	-0.213308
-4.833847	<s> LINES	-0.1285612
-4.67112	<s> LOUSY	0.006121993
-3.320589	<s> MADE	0.003042102
-5.331172	<s> MAGNIFICENT	0.0863488
-1.756789	<s> MAKE	0.1908755
-3.111712	<s> MANY	-0.2111595
-5.331172	<s> MARVELOUS	0.05462295
-5.398119	<s> MAXIMUM	-0.06720819
-2.555353	<s> MAY	-0.2400663
-2.816909	<s> MAYBE	2.515316e-05
-3.88735	<s> MEDIOCRE	0.0004740655
-3.15435	<s> MINE	-0.1590445
-4.100723	<s> MINIMUM	0.02399087
-4.897516	<s> MODERATELY	-0.07026069
-3.090123	<s> MORE	-0.2929512
-3.449543	<s> MOST	-0.08291595
-2.562725	<s> MOVE	0.02119291
-3.217101	<s> MY	-0.2142873
-2.83981	<s> NAH	0.0005212128
-4.619967	<s> NASTY	0.005390286
-5.87524	<s> NEAR	-0.1806764
-3.719904	<s> NEARLY	0.00376761
-2.709328	<s> NEGATIVE	0
-2.896489	<s> NEVER	0
-2.482437	<s> NEXT	-0.2453808
-3.787104	<s> NICE	0.0007531941
-4.028594	<s> NINE	-0.1388755
-1.376835	<s> NO	0.000284791
-2.843327	<s> NOPE	0.0005660951
-2.293802	<s> NOT	-0.2086179
-1.775541	<s> NOW	-0.4215337
-3.291606	<s> NUMBER	-0.1052444
-3.67727	<s> OBVIOUSLY	0.001742095
-2.225655	<s> OF	-0.2839768
-2.186255	<s> OH	0.000123322
-2.275254	<s> OK	0.002226174
-1.844218	<s> OKAY	0.0008473396
-2.206599	<s> ON	-0.3745803
-2.525119	<s> ONE	-0.2399799
-2.351436	<s> ONLY	-0.2739091
-3.329933	<s> OOH	0.0008510351
-2.707996	<s> OOPS	0
-3.25796	<s> ORANGE	-0.322504
-3.523766	<s> OUT	0.003227115
-5.331172	<s> OUTSTANDING	0.0260959
-5.398119	<s> OVER	-0.09525847
-3.428082	<s> PERHAPS	0.0001550615
-2.572909	<s> PICK	0.002549082
-4.044331	<s> PILE	0.03883722
-1.696851	<s> PLACE	0.07943225
-1.976414	<s> PLEASE	0.0004983544
-3.598778	<s> POSITIVE	-0.257843
-3.702054	<s> POSITIVELY	0.00198701
-3.556655	<s> POSSIBLY	0.000531286
-3.424991	<s> PRACTICALLY	0.001195014
-3.486517	<s> PRECISELY	0.005481154
-3.412842	<s> PRETTY	-0.007273674
-3.590246	<s> PROBABLY	0.0005835593
-4.464463	<s> PROPER	0.004471093
-3.453417	<s> PUSH	0.06950021
-1.310055	<s> PUT	-0.06327212
-3.495029	<s> QUITE	-0.1562558
-5.014902	<s> RATHER	-0.05338411
-4.729112	<s> REAL	-0.1184157
-4.495029	<s> REALLY	-0.2488963
-4.886235	<s> REASONABLY	-0.06209306
-2.821733	<s> RED	-0.3028268
-5.000179	<s> RELATIVELY	-0.03225337
-5.198546	<s> REMARKABLY	-0.02177857
-2.945055	<s> REPEAT	0.0001661777
-2.901311	<s> RIGHT	-0.2317291
-3.421922	<s> ROUGHLY	0.001156539
-2.43987	<s> ROW	-0.2637412
-4.608068	<s> ROWS	-0.1230095
-2.99357	<s> SAME	0.0007236302
-3.475566	<s> SAY	-0.2039002
-2.915007	<s> SCRATCH	0
-5.363356	<s> SERIOUSLY	-0.01464292
-5.222027	<s> SET	0.02268738
-4.568815	<s> SETS	0.00524199
-3.952255	<s> SEVEN	-0.1389154
-4.340579	<s> SEVERAL	-0.03408045
-2.592143	<s> SHALL	-0.4206182
-3.706448	<s> SHAPES	0.003902286
-3.029594	<s> SHOULD	-0.2290626
-3.440671	<s> SHOW	-0.08099037
-3.807983	<s> SIT	-0.01086307
-3.379765	<s> SIX	-0.1450586
-5.331172	<s> SLIGHTLY	0.02341075
-2.350507	<s> SO	-0.2270538
-3.69197	<s> SOME	-0.08062103
-4.805202	<s> SOMEWHAT	-0.04706918
-3.000758	<s> SORRY	6.574392e-05
-4.144861	<s> SORT	0.001115888
-3.130829	<s> STACK	-0.1700549
-3.524024	<s> STACKS	-0.1029717
-3.065657	<s> STAIRCASE	-0.2772326
-4.513512	<s> STAIRCASES	-0.1964839
-4.547881	<s> STAIRS	-0.2388255
-3.325767	<s> START	0.001047492
-5.4773	<s> STERLING	0.02397403
-4.77833	<s> STRAIGHT	0.01626986
-3.306159	<s> STRUCTURES	-0.2350061
-2.742949	<s> SUPER	0.1295058
-5.363356	<s> SUPERB	0.07468656
-2.838511	<s> SURE	-0.2472284
-3.719904	<s> SURELY	0.00207895
-2.290079	<s> TAKE	0.003814399
-3.107157	<s> TALK	9.712577e-05
-4.100723	<s> TEN	-0.1313227
-4.677959	<s> TERRIBLE	0.006272882
-5.301209	<s> TERRIBLY	-0.02332154
-5.4773	<s> TERRIFIC	0.006146759
-2.621115	<s> THANK	2.038479e-05
-2.770241	<s> THANKS	0.0002976954
-2.000912	<s> THAT	-0.3242133
-2.25835	<s> THAT'S	0.004261792
-1.072896	<s> THE	-0.3770153
-2.070549	<s> THERE	-0.1686919
-2.773321	<s> THESE	-0.2142348
-2.844283	<s> THEY	-0.1380138
-1.87651	<s> THIS	-0.7282472
-4.439874	<s> THOROUGHLY	0.01174222
-2.788702	<s> THOSE	-0.2012519
-2.721319	<s> THREE	-0.1831352
-2.274746	<s> TO	-0.2921426
-2.567405	<s> TOP	-0.2535616
-4.447916	<s> TOTALLY	-0.004437715
-3.016341	<s> TOWER	-0.2530071
-3.527422	<s> TOWERS	-0.1128788
-3.254583	<s> TRUE	0.0002163351
-4.558222	<s> TRULY	-0.1419081
-4.123191	<s> TWELVE	-0.1135817
-2.257606	<s> TWO	-0.5165718
-3.334598	<s> UGH	0.0008890629
-5.014902	<s> UNBELIEVABLY	0.01490641
-2.467026	<s> UNDO	0
-3.716124	<s> UNDOUBTEDLY	0.001993269
-3.884014	<s> UNLIKELY	0.00113529
-3.726021	<s> UNQUESTIONABLY	0.002207935
-2.581525	<s> UP	-0.324814
-3.820244	<s> UPRIGHT	0.00175494
-3.274939	<s> USE	-0.2207778
-4.4687	<s> UTTERLY	-0.003963009
-5.57421	<s> VAGUELY	-0.01108897
-4.4687	<s> VALID	0.004536152
-3.805202	<s> VERTICAL	0.001691937
-3.675211	<s> VERY	-0.2297732
-3.453225	<s> VIRTUALLY	0.001302958
-2.861245	<s> WAIT	0
-3.476085	<s> WALL	-0.2874305
-2.640723	<s> WALLS	-0.06952511
-1.963891	<s> WE	-0.2542243
-2.89105	<s> WE'LL	0
-2.100308	<s> WE'RE	3.236532e-05
-2.641268	<s> WE'VE	0
-2.609479	<s> WELL	0.0007178187
-1.45916	<s> WHAT	-0.09536433
-2.872534	<s> WHAT'S	0
-2.242191	<s> WHO	0
-3.295151	<s> WITH	-0.1838629
-3.767182	<s> WITHOUT	0.0009159744
-5.77833	<s> WONDERFUL	-0.06786516
-2.450522	<s> WOULD	-0.2021812
-4.27318	<s> WRONG	0.002664596
-2.447713	<s> YEAH	0.0008567572
-1.644726	<s> YES	0.033535
-1.638531	<s> YOU	-0.4831162
-3.003813	<s> YOU'RE	0
-3.402118	<s> YOUR	-0.1661432
-3.297461	<s> YOURS	-0.1623723
-2.444802	<s> YUP	0.0008477867
-2.224724	A BIT	0.001049697
-1.686467	A BLOCK	-0.5850662
-2.312819	A BLOCKS	-0.297069
-1.801512	A BLUE	-0.1900057
-2.084382	A BUNCH	0
-2.047345	A CASTLE	-0.2045605
-2.456776	A CERTAIN	0
-1.840306	A COLUMN	-0.09140325
-2.154666	A COUPLE	0
-2.209515	A CURVED	0
-2.753119	A DIAMETER	-0.2819752
-1.348761	A DIFFERENT	0
-3.039204	A EIGHT	-0.2674197
-2.333191	A FEW	0
-2.163968	A FIVE	-0.3141718
-2.943008	A FOUR	-0.2675035
-1.67777	A GAP	-0.1132638
-1.230756	A GREEN	-0.7376598
-1.963151	A HEIGHT	-0.2985708
-1.905092	A HORIZONTAL	-0.02822688
-2.77349	A LENGTH	-0.2836168
-1.903901	A LINE	-0.3341964
-1.742773	A LITTLE	0
-2.083237	A LOT	0
-2.676468	A MATTER	0
-3.030335	A MAXIMUM	0.004482567
-2.453009	A MINIMUM	0.001997709
-2.3414	A MINUTE	0
-3.212543	A NINE	-0.2711826
-2.568944	A NUMBER	-0.2599903
-2.13653	A ONE	-0.2698782
-2.012345	A ORANGE	-0.1635723
-2.443469	A PARTICULAR	0
-1.935413	A POINT	0
-1.331317	A RED	-0.7887392
-2.209515	A RIGHT-SIDED	0
-0.9786025	A ROW	-0.3726444
-2.329278	A SECOND	-0.2323151
-2.083123	A SET	0.0001032352
-3.172833	A SEVEN	-0.2706682
-3.930398	A SHADE	0
-1.616474	A SHAPE	-0.5210565
-1.242185	A SINGLE	0
-3.037143	A SIX	-0.267844
-2.31235	A SIZE	-0.2061037
-1.97703	A SPACE	-0.1088446
-1.358201	A STACK	-0.4194125
-1.691263	A STAIRCASE	0.04943657
-2.193706	A STRAIGHT	-0.02773038
-1.066729	A STRUCTURE	-0.1896413
-1.883235	A THREE	-0.2847227
-3.938516	A TOUCH	0
-1.298684	A TOWER	-0.1183866
-2.158358	A TWO	-0.2773988
-2.184658	A UPRIGHT	-0.05289264
-2.194888	A VERTICAL	-0.05489528
-1.534725	A WALL	-0.2173237
-2.688489	A WIDTH	-0.3078761
-1.032246	ABOUT </s>	0
-4.934529	ABOUT ABOVE	0
-2.055557	ABOUT ANYWHERE	-0.178175
-2.153512	ABOUT AT	-0.09215155
-4.089431	ABOUT AWAY	0.05104578
-1.971124	ABOUT BACK	-0.1144975
-2.967061	ABOUT BESIDE	-0.06743871
-4.235559	ABOUT CLOSE	0.0683893
-3.70408	ABOUT CLOSER	-0.2337542
-2.207979	ABOUT EIGHT	-0.1593503
-4.633499	ABOUT EVER	0.1248032
-4.332469	ABOUT FARTHER	0.07875103
-2.187601	ABOUT FIVE	-0.2044747
-2.176396	ABOUT FOUR	-0.2643162
-4.332469	ABOUT FURTHER	-0.1950199
-3.980286	ABOUT HERE	-0.1100641
-0.9697294	ABOUT I	-0.2920803
-1.992442	ABOUT IN	-0.2404774
-1.092252	ABOUT IT	-0.3158188
-4.934529	ABOUT JUST	0
-2.350016	ABOUT LEFT	-0.3204745
-3.934529	ABOUT NEAR	-0.005502179
-2.541219	ABOUT NEXT	-0.6570086
-2.305119	ABOUT NINE	-0.1516456
-3.61231	ABOUT NOT	-0.2729135
-1.424214	ABOUT ON	-0.3712938
-3.592106	ABOUT OVER	-0.03817275
-4.633499	ABOUT REAL	-0.1101171
-4.934529	ABOUT REALLY	0
-2.237703	ABOUT RIGHT	-0.2416719
-2.29009	ABOUT SEVEN	-0.1436328
-2.19592	ABOUT SIX	-0.1545402
-0.9431543	ABOUT THAT	-0.2816842
-2.991119	ABOUT THERE	-0.2588481
-1.39566	ABOUT THIS	-0.2827647
-2.007716	ABOUT THREE	-0.1712041
-1.577322	ABOUT TO	-0.2947206
-4.457407	ABOUT TRULY	-0.02854612
-2.01812	ABOUT TWO	-0.2902598
-2.198629	ABOUT WHAT	-0.2823725
-2.741404	ABOUT YEAH	-0.2428151
-2.294104	ABOUT YES	-0.273617
-1.469786	ABOUT YOU	-0.3133993
-2.741404	ABOUT YUP	-0.2424671
-1.442085	ABOVE ANOTHER	-0.03758812
-2.43576	ABOVE B1	-0.09490551
-2.372567	ABOVE B10	-0.1112688
-2.297934	ABOVE B11	-0.1357746
-2.175861	ABOVE B12	-0.09707408
-2.60665	ABOVE B2	-0.06873423
-2.522329	ABOVE B3	-0.1223412
-2.368066	ABOVE B4	-0.05806085
-2.598963	ABOVE B5	-0.1063501
-2.425419	ABOVE B6	-0.1366282
-2.359203	ABOVE B7	-0.1308728
-2.479777	ABOVE B8	-0.1763696
-2.342001	ABOVE B9	-0.1382754
-1.078606	ABOVE BLOCK	-0.2716778
-2.974627	ABOVE EIGHT	0
-2.400596	ABOVE ELEVEN	-0.08648039
-2.823359	ABOVE FIVE	0
-1.633027	ABOVE IT	-0.1878139
-1.688321	ABOVE MY	-0.1710056
-1.866288	ABOVE NUMBER	-0.07202899
-2.069281	ABOVE ONE	-0.1537109
-3.400596	ABOVE SEVEN	-0.07596745
-2.923475	ABOVE SIX	0
-2.430559	ABOVE TEN	-0.1725149
-1.218752	ABOVE THAT	-0.1909751
-0.6961591	ABOVE THE	-0.1609178
-1.25654	ABOVE THIS	-0.15763
-2.275657	ABOVE THREE	-0.05078195
-2.497506	ABOVE TWELVE	-0.1018763
-2.309515	ABOVE TWO	-0.1667049
-1.725428	ABOVE YOUR	-0.1724452
-0.6270658	ABSOLUTELY </s>	0
-2.541829	ABSOLUTELY ACCEPTABLE	0.1000592
-2.939769	ABSOLUTELY ALRIGHT	0.07305422
-2.587586	ABSOLUTELY AWESOME	0.06971188
-3.064708	ABSOLUTELY AWFUL	0.108711
-2.842859	ABSOLUTELY BAD	-0.0234583
-3.240799	ABSOLUTELY BRILLIANT	0.01103528
-3.064708	ABSOLUTELY DREADFUL	0.1087602
-2.763677	ABSOLUTELY EXCELLENT	0.0520974
-2.638739	ABSOLUTELY EXCEPTIONAL	0.09844947
-2.541829	ABSOLUTELY FABULOUS	0.1255821
-2.696731	ABSOLUTELY FANTASTIC	0.04802692
-2.580248	ABSOLUTELY FINE	0.001170158
-2.154734	ABSOLUTELY FIRST	-0.2591276
-2.939769	ABSOLUTELY FUNNY	0.08988145
-2.528707	ABSOLUTELY GOOD	-0.1769883
-2.194888	ABSOLUTELY GREAT	0.1171014
-3.064708	ABSOLUTELY HORRIBLE	0.1087458
-1.91858	ABSOLUTELY LIKELY	0.02160862
-2.939769	ABSOLUTELY LOUSY	0.08883646
-2.462648	ABSOLUTELY MAGNIFICENT	0.05218408
-2.587586	ABSOLUTELY MARVELOUS	0.05977935
-3.240799	ABSOLUTELY NASTY	0.1401855
-1.002753	ABSOLUTELY NOT	-0.3121955
-2.638739	ABSOLUTELY ODD	0.0520415
-2.491447	ABSOLUTELY OK	0.01051335
-2.541829	ABSOLUTELY OUTSTANDING	0.02461271
-1.462648	ABSOLUTELY POSITIVE	-0.04781607
-1.985526	ABSOLUTELY POSSIBLY	0.02502853
-1.851633	ABSOLUTELY PROBABLY	0.01857641
-2.696731	ABSOLUTELY STERLING	0.05563477
-2.842859	ABSOLUTELY STRANGE	0.07606983
-2.687318	ABSOLUTELY SUPER	0.1577
-2.763677	ABSOLUTELY SUPERB	0.05674878
-1.354308	ABSOLUTELY SURE	-0.2025923
-3.240799	ABSOLUTELY TERRIBLE	0.1401166
-2.696731	ABSOLUTELY TERRIFIC	0.0565743
-2.118031	ABSOLUTELY TOP	-0.2330364
-2.763677	ABSOLUTELY WEIRD	0.06591585
-2.763677	ABSOLUTELY WONDERFUL	0.1131724
-1.929045	ABSOLUTELY YEAH	-0.2342045
-1.772697	ABSOLUTELY YES	-0.2649032
-1.851633	ABSOLUTELY YUP	-0.2357228
-0.2986364	ACCEPTABLE </s>	0
-2.121072	ACCEPTABLE MANY	-0.2641846
-1.498639	ACCEPTABLE THANK	0.004082829
-1.60075	ACCEPTABLE THANKS	-0.1340775
-0.2461199	ACCURATE </s>	0
-0.4263536	ACTUALLY </s>	0
-1.046049	ACTUALLY NO	-0.3573081
-0.9666456	ACTUALLY YES	-0.273446
-0.8895524	ADD A	-0.3124137
-2.470712	ADD ABOUT	-0.2480327
-1.58437	ADD ALL	-0.2401311
-1.965738	ADD AN	-0.3205022
-0.5866401	ADD ANOTHER	-0.1241037
-2.809438	ADD B1	0.02267566
-2.754684	ADD B10	-0.06423378
-2.702949	ADD B11	-0.009067893
-2.677548	ADD B12	0.001717761
-2.8624	ADD B2	-0.0169161
-2.740432	ADD B3	-0.0005048215
-2.824134	ADD B4	0.007155836
-2.936552	ADD B5	-0.02221845
-2.824134	ADD B6	-0.0118791
-2.801024	ADD B7	-0.0593522
-2.900336	ADD B8	-0.002573252
-2.87904	ADD B9	-0.05663593
-1.597928	ADD BLOCK	-0.2695207
-1.616202	ADD BLOCKS	-0.2608157
-2.677022	ADD EIGHT	-0.1728892
-2.698313	ADD ELEVEN	-0.0452407
-2.742128	ADD FIVE	-0.1354049
-2.669363	ADD FOUR	-0.2313386
-2.121924	ADD IT	-0.1709127
-1.698467	ADD MANY	-0.2314839
-2.011398	ADD MINE	-0.1392307
-2.015385	ADD MY	-0.1943195
-2.771742	ADD NINE	-0.1009948
-2.181732	ADD NUMBER	-0.08120993
-1.395238	ADD ONE	-0.2721549
-2.771742	ADD SEVEN	-0.07653342
-1.725185	ADD SEVERAL	-0.05526602
-2.6958	ADD SIX	-0.1485765
-1.499656	ADD SOME	-0.1810183
-2.889128	ADD TEN	0.03296922
-1.863281	ADD THAT	-0.1985621
-1.159477	ADD THE	-0.2452372
-1.641543	ADD THEM	-0.07940847
-1.488203	ADD THESE	-0.1539327
-2.567331	ADD THEY	-0.1716507
-1.829364	ADD THIS	-0.189755
-1.497827	ADD THOSE	-0.1330247
-2.463314	ADD THREE	-0.1421865
-2.820047	ADD TWELVE	-0.0138467
-2.457732	ADD TWO	-0.176181
-2.041896	ADD YOUR	-0.1552273
-1.978614	ADD YOURS	-0.09341067
-0.2459968	AFFIRMATIVE </s>	0
-0.2459067	AGAIN </s>	0
-0.5927057	ALL </s>	0
-1.948558	ALL ANOTHER	-0.2703231
-2.285067	ALL BE	-0.2731031
-4.374382	ALL BIGGER	0.05973752
-1.754733	ALL BLOCKS	-0.14935
-2.265104	ALL BLUE	-0.1722509
-4.073352	ALL BY	-0.1678703
-2.261034	ALL CAN	-0.2798239
-3.180023	ALL CAN'T	-0.04527307
-3.189376	ALL CANNOT	-0.2356619
-3.013074	ALL CASTLE	-0.2796268
-2.830314	ALL CASTLES	-0.0188714
-2.274664	ALL COLUMN	-0.2195056
-3.489775	ALL COLUMNS	-0.08568547
-3.389105	ALL COULD	-0.139835
-4.550473	ALL COULDN'T	0.04046446
-4.249443	ALL DOES	-0.05250928
-3.161899	ALL DOESN'T	-0.07182074
-1.446356	ALL DONE	-0.4435462
-2.687448	ALL EIGHT	-0.182353
-2.718498	ALL FIRST	-0.2587041
-2.639672	ALL FIVE	-0.1992529
-2.611121	ALL FOR	-0.2807168
-2.596634	ALL FOUR	-0.1902285
-2.799067	ALL GREATER	-0.04968388
-2.10061	ALL GREEN	-0.1711059
-2.475414	ALL HAS	0.0968999
-3.851503	ALL HIGHER	-0.249921
-3.283301	ALL HORIZONTAL	0.02168775
-2.874238	ALL INSTEAD	0.04113925
-1.986361	ALL IS	-0.2104119
-3.180023	ALL LINE	-0.2023747
-3.73756	ALL LINES	-0.0443183
-3.897261	ALL LONGER	-0.2361813
-3.271719	ALL MAY	-0.07650653
-1.245229	ALL MEANS	0
-3.332989	ALL MIGHT	0.02858606
-2.912484	ALL MUST	0.12106
-1.143768	ALL MY	-0.1050824
-4.006405	ALL NEEDS	0.05220395
-2.90702	ALL NINE	-0.1965101
-3.675412	ALL OFF	0.02626142
-1.760494	ALL ON	-0.1816961
-3.019635	ALL OR	0
-2.333165	ALL ORANGE	-0.1801738
-3.013074	ALL PLEASE	-0.2461421
-2.105987	ALL RED	-0.1770381
-1.973634	ALL ROW	-0.2527364
-3.332989	ALL ROWS	-0.1107364
-3.772322	ALL SET	0.03277734
-2.172985	ALL SETS	0.0008008182
-2.869232	ALL SEVEN	-0.2142967
-3.032399	ALL SHALL	-0.0366237
-4.073352	ALL SHORTER	-0.09932983
-3.013074	ALL SHOULD	-0.2317991
-4.374382	ALL SHOULDN'T	0.1165768
-2.658658	ALL SIX	-0.1974214
-2.702902	ALL STACK	-0.2582099
-3.471292	ALL STACKS	-0.1180812
-2.577963	ALL STAIRCASE	-0.2673185
-2.209038	ALL STAIRCASES	-0.01082447
-2.222093	ALL STAIRS	-0.1604112
-3.621054	ALL STRAIGHT	0.04337651
-2.106428	ALL STRUCTURES	-0.1577049
-2.954427	ALL TALLER	-0.1904764
-1.812208	ALL THAT	-0.2766812
-1.113397	ALL THE	-0.2419682
-1.933106	ALL THIS	-0.2766553
-2.256559	ALL THREE	-0.1876975
-1.909148	ALL TO	-0.2546716
-2.54465	ALL TOWER	-0.2317808
-3.420139	ALL TOWERS	-0.1528769
-2.237134	ALL TWO	-0.2189373
-3.647383	ALL UPRIGHT	-0.2050553
-3.73756	ALL VERTICAL	0.05430484
-2.902602	ALL WALL	-0.2796734
-2.772322	ALL WALLS	-0.214151
-4.006405	ALL WIDER	-0.2259026
-2.728088	ALL WILL	-0.12333
-2.795107	ALL WITH	0.01524335
-4.374382	ALL WON'T	0.06361526
-4.374382	ALL YOURSELF	0.1101674
-0.692259	ALMOST </s>	0
-0.8236032	ALMOST ANYWHERE	-0.1780922
-0.967133	ALMOST WHAT	-0.2823793
-1.455213	ALMOST YEAH	-0.2425759
-1.397024	ALMOST YES	-0.2732074
-1.452228	ALMOST YUP	-0.2422511
-0.4778177	ALRIGHT </s>	0
-1.193957	ALRIGHT A	-0.2701624
-3.838597	ALRIGHT ALL	-0.1731653
-2.344975	ALRIGHT AN	-0.09902622
-2.252474	ALRIGHT ANOTHER	0.04017109
-3.236537	ALRIGHT CASTLES	-0.04235294
-3.838597	ALRIGHT COLUMNS	0
-1.377788	ALRIGHT I	-0.2965474
-2.143607	ALRIGHT IT	0
-2.699831	ALRIGHT MANY	-0.2607241
-1.975276	ALRIGHT ROW	0
-3.838597	ALRIGHT ROWS	0
-3.025684	ALRIGHT SHAPES	-0.06092121
-2.449431	ALRIGHT SOME	-0.09013402
-3.662506	ALRIGHT STACKS	-0.09141547
-2.594104	ALRIGHT STAIRCASE	0
-4.139627	ALRIGHT STAIRCASES	0
-3.838597	ALRIGHT STAIRS	0
-2.648265	ALRIGHT STRUCTURES	-0.1614131
-2.032417	ALRIGHT THANK	0.003350496
-2.313552	ALRIGHT THANKS	-0.1312979
-1.505773	ALRIGHT THAT	-0.246191
-1.614164	ALRIGHT THAT'S	-0.2790956
-1.327522	ALRIGHT THE	-0.06607443
-3.139627	ALRIGHT THESE	-0.03200733
-2.97738	ALRIGHT THEY	0
-1.900623	ALRIGHT THIS	-0.2024159
-2.963536	ALRIGHT THOSE	-0.05449922
-2.544327	ALRIGHT TOWER	0
-4.139627	ALRIGHT TOWERS	0
-3.294529	ALRIGHT WALLS	-0.07415395
-1.57371	ALRIGHT WE	-0.3490169
-1.674158	ALRIGHT WE'RE	-0.3214499
-0.4661244	ALTOGETHER </s>	0
-2.59512	ALTOGETHER ACCEPTABLE	0.04438928
-2.554691	ALTOGETHER ALRIGHT	-0.1307355
-3.362805	ALTOGETHER AWFUL	0.0570499
-3.09396	ALTOGETHER BAD	-0.06554171
-2.125618	ALTOGETHER BE	-0.2747815
-3.730782	ALTOGETHER BIGGER	0.05973752
-2.777287	ALTOGETHER BLUE	-0.1683932
-3.605844	ALTOGETHER BY	-0.146681
-2.167097	ALTOGETHER CAN	-0.3322561
-3.09458	ALTOGETHER CAN'T	-0.04527307
-3.129394	ALTOGETHER CANNOT	0
-2.68939	ALTOGETHER COULD	-0.14718
-3.605844	ALTOGETHER COULDN'T	-0.005631268
-3.605844	ALTOGETHER DOES	-0.05250928
-2.846526	ALTOGETHER DOESN'T	-0.1655769
-3.061776	ALTOGETHER DREADFUL	0.03071249
-2.52683	ALTOGETHER FINE	-0.2089755
-2.500728	ALTOGETHER FIRST	-0.2587041
-1.969904	ALTOGETHER FOR	-0.2820329
-2.730782	ALTOGETHER FUNNY	0.01541597
-2.518037	ALTOGETHER GOOD	-0.3962356
-2.595415	ALTOGETHER GREAT	0.1424312
-2.731454	ALTOGETHER GREATER	-0.08033824
-2.151282	ALTOGETHER HAS	0.05336562
-3.09396	ALTOGETHER HIGHER	-0.2306795
-3.304813	ALTOGETHER HORRIBLE	0.05094603
-2.574717	ALTOGETHER INSTEAD	0.04249853
-1.831801	ALTOGETHER IS	-0.1959867
-1.851878	ALTOGETHER LIKELY	0.003695726
-3.061776	ALTOGETHER LONGER	-0.2514551
-3.304813	ALTOGETHER LOUSY	0.05096993
-2.663836	ALTOGETHER MAY	-0.08185783
-2.68939	ALTOGETHER MIGHT	0.02858606
-2.475734	ALTOGETHER MUST	0.05734521
-3.061776	ALTOGETHER NASTY	0.03082317
-3.605844	ALTOGETHER NEEDS	0.08082695
-2.564451	ALTOGETHER ODD	0.01055521
-3.031812	ALTOGETHER OFF	0.02626142
-2.388542	ALTOGETHER OK	-0.1606035
-1.75538	ALTOGETHER ON	-0.1994248
-3.00454	ALTOGETHER OR	0
-2.866214	ALTOGETHER ORANGE	-0.1726739
-2.745784	ALTOGETHER PLEASE	-0.2410018
-1.368425	ALTOGETHER POSITIVE	-0.05452654
-1.894036	ALTOGETHER POSSIBLY	0.004138321
-1.917869	ALTOGETHER PROBABLY	0.004361272
-2.382612	ALTOGETHER RED	-0.164017
-2.554871	ALTOGETHER SHALL	-0.04930815
-3.429752	ALTOGETHER SHORTER	-0.09932983
-2.664066	ALTOGETHER SHOULD	-0.1871918
-3.605844	ALTOGETHER SMALLER	-0.07673378
-2.745506	ALTOGETHER STRANGE	0.0159407
-1.359099	ALTOGETHER SURE	-0.2075685
-2.88626	ALTOGETHER TALLER	-0.2125198
-3.128722	ALTOGETHER TERRIBLE	0.03551134
-1.813598	ALTOGETHER THAT	-0.2715936
-1.880262	ALTOGETHER TO	-0.2535653
-2.59512	ALTOGETHER WEIRD	0.01130038
-3.253661	ALTOGETHER WIDER	-0.1654748
-2.333057	ALTOGETHER WILL	-0.1287246
-2.606247	ALTOGETHER WITH	-0.0447752
-3.730782	ALTOGETHER WON'T	-0.1128472
-3.730782	ALTOGETHER YOURSELF	0.1101674
-1.130124	AM </s>	0
-1.714147	AM A	-0.2073835
-3.198247	AM ABSOLUTELY	-0.155172
-3.283959	AM ACCEPTABLE	0.03161785
-2.182337	AM ALL	-0.2859255
-3.401072	AM ALRIGHT	-0.1277558
-2.387833	AM ALTOGETHER	-0.2395967
-2.875102	AM AVERAGE	0.00266093
-1.488648	AM AWARE	9.274483e-05
-4.24617	AM AWESOME	0.08862489
-3.878193	AM AWFUL	0.03066328
-3.94514	AM AWFULLY	-0.02387337
-3.982929	AM BAD	-0.06005284
-4.723291	AM BRILLIANT	0
-3.577163	AM COMPARATIVELY	-0.09159143
-3.401072	AM COMPLETELY	-0.04537615
-1.500315	AM CONCERNED	0.0002297163
-1.719185	AM CONFUSED	0.0001153648
-1.751202	AM DONE	-0.3744088
-3.910378	AM DREADFUL	0.03292763
-3.371109	AM ENTIRELY	-0.04546336
-2.700039	AM EVER	0.001776278
-4.422262	AM EXCELLENT	0.1118044
-4.24617	AM EXCEPTIONAL	-0.0837649
-4.24617	AM EXCEPTIONALLY	-0.04702218
-4.179223	AM EXTRAORDINARILY	0.01101608
-4.422262	AM EXTREMELY	-0.08444747
-4.5472	AM FABULOUS	-0.03821485
-2.910378	AM FAIR	0.002988249
-3.769049	AM FAIRLY	-0.06316835
-4.422262	AM FANTASTIC	0.1113738
-2.981333	AM FINE	-0.2190296
-2.795119	AM FIRST	-0.201726
-1.42337	AM GOING	0.0003454685
-1.441576	AM GONNA	-0.1506599
-2.774365	AM GOOD	-0.4494679
-2.833689	AM GREAT	0.07422066
-2.558939	AM GUESSING	0.001507342
-3.820201	AM HORRIBLE	0.02702481
-0.8034223	AM I	-0.2878818
-3.910378	AM INCREDIBLY	-0.02860669
-2.679929	AM JUST	-0.2855309
-4.24617	AM KIND	0.05810663
-4.422262	AM KINDA	-0.06416085
-1.513375	AM LOOKING	6.741285e-05
-4.024321	AM LOUSY	0.04188314
-4.325352	AM MAGNIFICENT	0.1259815
-4.723291	AM MARVELOUS	0
-2.941536	AM MEDIOCRE	0.003285974
-3.723291	AM MODERATELY	-0.0541174
-3.910378	AM NASTY	0.03303832
-1.229764	AM NOT	-0.2430543
-2.842171	AM OK	-0.1625956
-4.179223	AM OUTSTANDING	-0.09527422
-2.034872	AM POSITIVE	-0.05494779
-3.723291	AM PRETTY	-0.1191145
-2.387833	AM QUITE	-0.1921573
-3.745568	AM RATHER	-0.07068522
-2.706258	AM REAL	-0.1752005
-2.702102	AM REALLY	-0.2717045
-3.723291	AM REASONABLY	-0.0447585
-3.681899	AM RELATIVELY	-0.06573271
-4.5472	AM REMARKABLY	-0.06731164
-4.325352	AM SERIOUSLY	-0.0251391
-4.422262	AM SLIGHTLY	0
-2.130335	AM SO	-0.2498541
-3.592958	AM SOMEWHAT	-0.05642753
-1.986895	AM SORRY	0.0003583431
-4.325352	AM SORT	0.06722856
-4.422262	AM STERLING	0.1752098
-3.195629	AM SUPER	0.02736625
-4.422262	AM SUPERB	0.06060649
-2.00396	AM SURE	-0.2080295
-3.84823	AM TERRIBLE	0.02880669
-4.179223	AM TERRIBLY	-0.0432498
-4.24617	AM TERRIFIC	0.1097334
-2.567955	AM THINKING	-0.2663515
-3.24617	AM THOROUGHLY	-0.06941344
-2.204087	AM TOP	-0.2488306
-3.334125	AM TOTALLY	-0.0592255
-2.723291	AM TRULY	-0.1838744
-4.24617	AM UNBELIEVABLY	0.00066958
-3.268447	AM UTTERLY	-0.06900024
-4.422262	AM VAGUELY	-0.1202334
-2.716825	AM VERY	-0.2645145
-4.723291	AM WONDERFUL	-0.002801374
-1.443974	AN BLOCK	-0.2254926
-1.972259	AN BLOCKS	-0.2970926
-1.624726	AN BLUE	-0.1862209
-2.129377	AN CASTLE	-0.2308762
-2.432492	AN COLUMN	-0.1385859
-2.401849	AN EIGHT	-0.2676257
-0.4324877	AN EXAMPLE	-0.06791312
-2.393076	AN FIVE	-0.3142469
-2.389265	AN FOUR	-0.2674273
-1.620499	AN GREEN	-0.2403569
-2.620146	AN HORIZONTAL	-0.02626494
-2.772411	AN LINE	-0.2821383
-2.47081	AN NINE	-0.2713601
-1.528124	AN ONE	-0.2698689
-0.7222509	AN ORANGE	-0.4109267
-1.596045	AN RED	-0.2002923
-2.198169	AN ROW	-0.3024794
-1.666359	AN SET	0.0002188385
-2.450937	AN SEVEN	-0.2707047
-2.404335	AN SIX	-0.2680144
-2.641322	AN STACK	-0.3358977
-1.627957	AN STAIRCASE	-0.4090011
-2.973354	AN STRAIGHT	-0.02332473
-1.429226	AN STRUCTURE	-0.1610904
-2.303744	AN THREE	-0.2843759
-2.558441	AN TOWER	-0.2068934
-2.311726	AN TWO	-0.2768666
-3.006962	AN UPRIGHT	-0.04812087
-3.017063	AN VERTICAL	-0.05001327
-2.068273	AN WALL	-0.3795942
-2.747591	AND ADD	0.05189455
-1.241965	AND ANOTHER	-0.3626058
-3.492416	AND ARRANGE	0.01455827
-2.539543	AND B1	-0.08831221
-2.473429	AND B10	-0.09676737
-2.432922	AND B11	-0.1263497
-2.370486	AND B12	-0.0749321
-2.514529	AND B2	-0.07366806
-2.520402	AND B3	-0.09004682
-2.474907	AND B4	-0.05161476
-2.605805	AND B5	-0.05632386
-2.51388	AND B6	-0.09325403
-2.433728	AND B7	-0.2374479
-2.482819	AND B8	-0.09048158
-2.467864	AND B9	-0.09291333
-1.881055	AND BLOCK	-0.2766079
-2.409775	AND BUILD	0.1052506
-2.429979	AND CASTLE	-0.1272954
-2.435206	AND COLUMN	0.02425024
-2.896555	AND CREATE	0.1513824
-2.461508	AND DIAMETER	-0.1628547
-2.013144	AND DROP	-0.07005504
-2.629851	AND EIGHT	-0.1787701
-2.259798	AND EIGHTH	-0.2296992
-1.64811	AND ELEVEN	-0.06343994
-3.051682	AND END	-0.2722627
-2.275212	AND FIFTH	-0.2312339
-3.039027	AND FINISH	-0.2020614
-2.216507	AND FIRST	-0.2952735
-1.360061	AND FIVE	-0.1409081
-3.307181	AND FORM	-0.05076687
-2.563356	AND FOUR	-0.216025
-2.301191	AND FOURTH	-0.2315594
-1.96889	AND HEIGHT	-0.163701
-1.99386	AND HIGH	-0.1838427
-3.018385	AND HORIZONTAL	-0.02522796
-1.338401	AND I	-0.4447651
-3.047242	AND I'D	0.003250062
-2.997196	AND I'LL	-0.1071907
-3.016832	AND I'M	-0.2839804
-1.36679	AND IT	-0.02043682
-2.486907	AND LENGTH	-0.1038242
-1.912389	AND LET	-0.02996072
-1.846101	AND LET'S	-0.4694837
-2.847145	AND LINE	0.02501965
-2.041643	AND LONG	-0.1849497
-2.233391	AND MAKE	-0.1683332
-1.308308	AND MOVE	-0.03228086
-2.732077	AND MY	-0.1754935
-1.522494	AND NEXT	-0.2443718
-2.756274	AND NINE	-0.09571797
-2.278023	AND NINTH	-0.2317823
-1.541625	AND NOW	-0.41813
-2.807212	AND NUMBER	-0.08575307
-1.178522	AND ONE	-0.2951927
-2.670359	AND PICK	0.04606345
-3.483272	AND PILE	0.003868297
-1.911739	AND PLACE	-0.01734322
-1.98765	AND PUSH	-0.1101977
-1.79074	AND PUT	-0.1229093
-2.164795	AND ROW	0.01869607
-2.236886	AND SECOND	-0.2481731
-2.739632	AND SET	0.001641929
-2.752894	AND SEVEN	-0.1085488
-2.296457	AND SEVENTH	-0.2300246
-2.013757	AND SIT	-0.07380465
-2.626064	AND SIX	-0.1636084
-2.267987	AND SIXTH	-0.2293003
-2.629216	AND STACK	-0.01868567
-2.524359	AND STAIRCASE	0.03404552
-3.160192	AND STRAIGHT	-0.02363569
-2.673617	AND TAKE	0.08748233
-1.999169	AND TALL	-0.4417175
-1.647978	AND TEN	-0.06707928
-2.354614	AND THAT	-0.1683226
-1.60911	AND THE	-0.2491927
-2.247708	AND THIRD	-0.2138601
-2.324718	AND THIS	-0.1911859
-2.344636	AND THREE	-0.1408977
-2.353826	AND TOP	-0.2437096
-2.634948	AND TOWER	-0.04203641
-1.650231	AND TWELVE	-0.06347817
-2.370369	AND TWO	-0.1647959
-3.44851	AND UPRIGHT	-0.04490443
-2.758539	AND USE	-0.1231377
-3.3516	AND VERTICAL	-0.04850045
-2.393292	AND WALL	-0.08734107
-1.291449	AND WIDE	-0.3120332
-2.399464	AND WIDTH	-0.1109559
-2.804678	AND YOUR	-0.1780846
-1.807007	ANOTHER AVAILABLE	-0.06618974
-1.669535	ANOTHER BLOCK	-0.231262
-1.869105	ANOTHER BLOCKS	-0.2184228
-1.508081	ANOTHER BLUE	-0.1090533
-2.383584	ANOTHER BOTTOM	0.01058322
-2.282936	ANOTHER CASTLE	-0.04827625
-3.511859	ANOTHER CASTLES	-0.01317863
-2.511176	ANOTHER COLUMN	-0.07325062
-4.07613	ANOTHER COLUMNS	-0.03811334
-2.389596	ANOTHER EIGHT	-0.1530625
-2.348622	ANOTHER FIVE	-0.2479245
-2.416183	ANOTHER FOUR	-0.1880681
-1.091618	ANOTHER GREEN	-0.1675594
-2.538311	ANOTHER HIGHEST	-0.007581621
-2.753911	ANOTHER HORIZONTAL	0.006674916
-1.98218	ANOTHER LEFT	-0.222449
-2.262973	ANOTHER LEFTMOST	0.09723985
-3.017402	ANOTHER LINE	-0.1194762
-4.37716	ANOTHER LINES	-0.08323678
-2.551086	ANOTHER LOWEST	0.02955785
-1.82077	ANOTHER MIDDLE	-0.2810474
-2.472265	ANOTHER NINE	-0.1227478
-0.4340124	ANOTHER ONE	-0.4265249
-1.488163	ANOTHER ORANGE	-0.09295282
-1.09042	ANOTHER RED	-0.1337792
-1.97046	ANOTHER RIGHT	-0.2459653
-2.267447	ANOTHER RIGHTMOST	0.115316
-2.315591	ANOTHER ROW	0.01167327
-3.775101	ANOTHER ROWS	-0.0946088
-1.844831	ANOTHER SET	0.0004193187
-4.37716	ANOTHER SETS	0.0984799
-2.446042	ANOTHER SEVEN	-0.1207812
-2.870315	ANOTHER SHAPE	-0.2024591
-3.164086	ANOTHER SHAPES	0.06111889
-2.415689	ANOTHER SIX	-0.1292691
-2.695728	ANOTHER STACK	-0.1975773
-4.553252	ANOTHER STACKS	0
-1.838607	ANOTHER STAIRCASE	-0.280086
-4.155312	ANOTHER STAIRCASES	0
-3.854282	ANOTHER STAIRS	-0.08496514
-1.36709	ANOTHER STEP	-0.1561178
-2.072033	ANOTHER STEPS	-0.06230533
-3.090854	ANOTHER STRAIGHT	0.01411739
-1.622167	ANOTHER STRUCTURE	-0.1071787
-2.767922	ANOTHER STRUCTURES	-0.1175418
-2.32069	ANOTHER THREE	-0.1801943
-2.32041	ANOTHER TOP	-0.2958288
-2.498256	ANOTHER TOPMOST	0.0335826
-2.645853	ANOTHER TOWER	-0.04152009
-3.900039	ANOTHER TOWERS	-0.04494412
-2.309397	ANOTHER TWO	-0.2421021
-3.210829	ANOTHER UPRIGHT	0.01836783
-3.191524	ANOTHER VERTICAL	0.01761323
-2.332448	ANOTHER WALL	-0.0459125
-3.456342	ANOTHER WALLS	-0.1709963
-1.671063	ANY BLUE	-0.3135998
-1.556194	ANY DIAMETER	-0.2338032
-1.675078	ANY GREEN	-0.3009285
-1.10408	ANY HEIGHT	-0.1660643
-1.545241	ANY LENGTH	-0.1477759
-0.5138838	ANY NUMBER	-0.391243
-1.695686	ANY ORANGE	-0.3229318
-1.673973	ANY RED	-0.3032549
-1.090337	ANY SIZE	-0.2829661
-0.8228655	ANY WIDTH	-0.1658463
-0.3010696	ANYTHING ELSE	0
-0.3628275	ANYWHERE </s>	0
-1.313306	ANYWHERE ABOVE	0.002698541
-0.6579216	ANYWHERE ON	-0.4478531
-1.320811	ANYWHERE OVER	-0.07549557
-0.2875797	APART </s>	0
-1.991398	APART FIRST	-0.2721483
-1.561525	APART FOR	-0.2851525
-2.009602	APART INSTEAD	0.00936228
-2.100124	APART PLEASE	-0.2595456
-1.694961	APPEAR ACCURATE	0.006315142
-1.672098	APPEAR BAD	-0.09370449
-1.725343	APPEAR CORRECT	0.00680995
-1.666565	APPEAR FALSE	0.005800188
-1.728284	APPEAR GOOD	-0.5489926
-0.9287087	APPEAR IMPOSSIBLE	0.001011938
-1.70087	APPEAR INACCURATE	0.006269544
-1.70087	APPEAR INCORRECT	0.006307304
-1.645114	APPEAR INVALID	0.005489409
-1.683379	APPEAR PROPER	0.006142914
-1.612518	APPEAR RIGHT	-0.2666701
-1.738118	APPEAR TRUE	0.007240862
-0.9368266	APPEAR UNLIKELY	0.001039296
-1.719094	APPEAR VALID	0.00670439
-1.666565	APPEAR WRONG	0.005789846
-3.569842	APPEARS ABSOLUTELY	0
-3.268812	APPEARS ACCEPTABLE	0.08082645
-1.79899	APPEARS ACCURATE	0.007961005
-3.569842	APPEARS ALRIGHT	0
-2.870872	APPEARS ALTOGETHER	-0.1455612
-1.756929	APPEARS BAD	-0.09247187
-2.013539	APPEARS BEAUTIFUL	0.01310739
-1.837448	APPEARS COOL	0.008765161
-1.791691	APPEARS CORRECT	0.007850289
-3.268812	APPEARS ENTIRELY	0
-3.569842	APPEARS EXTRAORDINARILY	0
-3.268812	APPEARS FAIRLY	0
-1.724744	APPEARS FALSE	0.006584078
-2.741046	APPEARS FIRST	0
-1.75298	APPEARS GOOD	-0.5477761
-2.760601	APPEARS GREAT	0.04392612
-1.003994	APPEARS IMPOSSIBLE	0.001212567
-1.756929	APPEARS INACCURATE	0.007078946
-1.661357	APPEARS INCORRECT	0.005654722
-3.569842	APPEARS INCREDIBLY	0
-1.689028	APPEARS INVALID	0.006025344
-3.569842	APPEARS MAGNIFICENT	0
-1.784512	APPEARS NICE	0.007758737
-2.528449	APPEARS NOT	-0.1514711
-2.833823	APPEARS OK	-0.05320954
-3.569842	APPEARS OUTSTANDING	0
-3.569842	APPEARS PRETTY	0
-1.770501	APPEARS PROPER	0.007446438
-2.967782	APPEARS QUITE	-0.06346527
-3.569842	APPEARS RATHER	0
-3.569842	APPEARS REALLY	0
-1.674239	APPEARS RIGHT	-0.2654147
-2.480048	APPEARS SO	-0.03710719
-3.268812	APPEARS SOMEWHAT	0
-3.569842	APPEARS TERRIBLY	0
-1.821654	APPEARS TRUE	0.008640349
-0.9634605	APPEARS UNLIKELY	0.00109753
-1.784512	APPEARS VALID	0.007713765
-1.806414	APPEARS WRONG	0.00798735
-1.815488	ARE A	-0.3109269
-2.772303	ARE ABOVE	0.0285781
-2.73833	ARE AN	-0.3316179
-2.532584	ARE ARRANGED	0.0003987849
-2.733269	ARE AWAY	0.001132309
-2.392788	ARE BESIDE	-0.1040283
-2.492905	ARE BIGGER	-0.1683483
-2.810776	ARE BLUE	-0.3106493
-2.744615	ARE CLOSE	0.001214951
-2.45262	ARE CLOSER	-0.2571332
-1.109871	ARE DONE	-0.3893489
-3.057628	ARE EIGHT	-0.2206092
-3.383999	ARE EVER	0.005199641
-3.048207	ARE FARTHER	0.002116978
-2.063219	ARE FINISHED	-0.2057624
-2.990166	ARE FIVE	-0.2536693
-2.903263	ARE FOUR	-0.2953518
-3.085762	ARE FURTHER	-0.2714261
-1.190482	ARE GOING	0.0005296469
-1.829868	ARE GONNA	-0.1794031
-2.379592	ARE GREATER	-0.1483097
-2.490858	ARE GREEN	-0.2982219
-1.743594	ARE HIGHER	-0.07232262
-2.326929	ARE IN	-0.2382892
-3.289322	ARE JUST	-0.2870485
-2.74777	ARE LEFT	-0.2862632
-2.522511	ARE LINED	0.0003685355
-1.751438	ARE LONGER	-0.08670554
-2.727091	ARE NEAR	-0.0741649
-2.464437	ARE NEXT	-0.9474022
-3.373004	ARE NINE	-0.1871182
-2.172975	ARE NOT	-0.3017852
-1.501627	ARE ON	-0.3778476
-2.890193	ARE ORANGE	-0.3193263
-2.742068	ARE OVER	-0.050246
-2.55346	ARE PILED	0.0008920133
-2.54774	ARE PLACED	-0.07900234
-2.024683	ARE PUT	-0.2824542
-1.821706	ARE READY	-0.1642394
-3.326704	ARE REAL	-0.1912569
-3.326704	ARE REALLY	-0.2785434
-2.542667	ARE RED	-0.3003651
-2.301258	ARE RIGHT	-0.2915384
-3.39528	ARE SEVEN	-0.1843161
-2.491477	ARE SHORTER	-0.164921
-1.371865	ARE SITTING	-0.06394425
-3.065578	ARE SIX	-0.179127
-2.488633	ARE SMALLER	-0.1662911
-2.979429	ARE SOME	-0.2295166
-2.48964	ARE STACKED	0.00079602
-1.446855	ARE STRUCTURES	-0.237717
-1.73785	ARE TALLER	-0.1858709
-1.268389	ARE THE	-0.293629
-1.12003	ARE THERE	-0.3326641
-2.538211	ARE THREE	-0.2228196
-2.017012	ARE TO	-0.2934474
-3.351815	ARE TRULY	-0.1876526
-1.297913	ARE TWO	-0.2860366
-3.443585	ARE VERY	-0.2682999
-1.67456	ARE WE	-0.2762544
-1.760353	ARE WIDER	-0.08581302
-0.9269478	ARE YOU	-0.2767145
-1.031448	AREN'T A	-0.3013288
-1.026536	AREN'T AN	-0.3191706
-1.459227	AREN'T EIGHT	-0.1946198
-1.478008	AREN'T FIVE	-0.2210683
-1.451563	AREN'T FOUR	-0.2538767
-1.728547	AREN'T NINE	-0.1301509
-1.573645	AREN'T SEVEN	-0.1508531
-1.518742	AREN'T SIX	-0.153926
-1.077639	AREN'T SOME	-0.2181505
-1.457332	AREN'T THREE	-0.1901255
-1.395499	AREN'T TWO	-0.2543001
-1.22772	ARRANGE A	-0.3089319
-2.78597	ARRANGE ABOUT	-0.1665784
-1.571126	ARRANGE ALL	-0.2364828
-1.953813	ARRANGE AN	-0.3078681
-1.962418	ARRANGE ANOTHER	-0.1425372
-2.795721	ARRANGE B1	-0.05855938
-2.488561	ARRANGE B10	-0.1200072
-2.559784	ARRANGE B11	-0.03922972
-2.303241	ARRANGE B12	-0.06014951
-2.631303	ARRANGE B2	-0.09344994
-2.733739	ARRANGE B3	-0.06073906
-2.580333	ARRANGE B4	-0.06278875
-2.973057	ARRANGE B5	-0.07647892
-2.594073	ARRANGE B6	-0.07109527
-2.572879	ARRANGE B7	-0.07972462
-2.757929	ARRANGE B8	-0.04697166
-2.65384	ARRANGE B9	-0.07642032
-1.493826	ARRANGE BLOCK	-0.2440532
-1.472446	ARRANGE BLOCKS	-0.2464176
-2.605071	ARRANGE EIGHT	-0.148046
-2.831728	ARRANGE ELEVEN	-0.0493556
-2.494691	ARRANGE FIVE	-0.1318968
-2.532027	ARRANGE FOUR	-0.1308396
-1.944318	ARRANGE IT	-0.230759
-1.674445	ARRANGE MANY	-0.2351013
-2.03179	ARRANGE MINE	-0.1385688
-1.995136	ARRANGE MY	-0.1759006
-2.831728	ARRANGE NINE	-0.07495652
-2.071825	ARRANGE NUMBER	-0.07779837
-1.344184	ARRANGE ONE	-0.2766589
-2.808246	ARRANGE SEVEN	-0.0880867
-1.68906	ARRANGE SEVERAL	-0.06884116
-2.492233	ARRANGE SIX	-0.1241401
-1.524707	ARRANGE SOME	-0.1767159
-2.706789	ARRANGE TEN	-0.002719775
-1.768933	ARRANGE THAT	-0.2041804
-1.034426	ARRANGE THE	-0.2301068
-1.585179	ARRANGE THEM	-0.2743462
-1.455556	ARRANGE THESE	-0.2129439
-2.500908	ARRANGE THEY	-0.1322182
-1.839022	ARRANGE THIS	-0.2021377
-1.474216	ARRANGE THOSE	-0.2176473
-2.213856	ARRANGE THREE	-0.06212324
-2.764781	ARRANGE TWELVE	-0.01394621
-2.231664	ARRANGE TWO	-0.1103582
-2.087	ARRANGE YOUR	-0.1425818
-2.018814	ARRANGE YOURS	-0.1421297
-0.2866279	ARRANGED ON	-0.2856198
-1.556644	AS A	-0.2996668
-1.71911	AS ANOTHER	-0.1220175
-1.994935	AS BIG	-0.2040435
-0.9234598	AS FAR	-0.105642
-1.976832	AS HIGH	-0.2807949
-1.011348	AS I	-0.2563181
-1.511184	AS I'M	-0.2753815
-1.649426	AS IN	-0.2244284
-1.905616	AS IT	-0.3145997
-1.981456	AS LONG	-0.2785587
-2.027296	AS SMALL	-0.2074901
-1.979759	AS TALL	-0.2806018
-1.595458	AS THAT	-0.2698671
-0.8549406	AS THE	-0.2261195
-1.59304	AS THIS	-0.2146034
-1.994249	AS WIDE	-0.2803331
-0.2459409	ASKING </s>	0
-1.879352	AT A	-0.2977743
-1.179044	AT ALL	-0.2360574
-2.007477	AT BOTH	0.0002239943
-1.950762	AT EITHER	-0.2611461
-0.5935805	AT LEAST	0.01536191
-2.844536	AT MOST	-0.2363234
-0.3155744	AT THE	-0.2946917
-0.8283702	AVAILABLE </s>	0
-0.6493697	AVAILABLE BLOCKS	-0.2422354
-1.273618	AVAILABLE BLUE	-0.2395457
-1.24518	AVAILABLE GREEN	-0.2374077
-1.272563	AVAILABLE ORANGE	-0.2399899
-1.253142	AVAILABLE RED	-0.2623519
-0.246525	AVERAGE </s>	0
-0.2928176	AWARE OF	-0.2819385
-0.3011368	AWAY FROM	-0.1334951
-0.3757062	AWESOME </s>	0
-2.4422	AWESOME MANY	0
-1.162019	AWESOME THANK	0.01788351
-1.201527	AWESOME THANKS	-0.1028137
-0.2470872	AWFUL </s>	0
-2.056905	AWFULLY AWFUL	0
-2.056905	AWFULLY BAD	0
-1.755875	AWFULLY DREADFUL	0.1400748
-1.012738	AWFULLY FINE	-0.09894276
-0.9726503	AWFULLY GOOD	-0.3155176
-1.271166	AWFULLY GREAT	0.1336777
-1.755875	AWFULLY HORRIBLE	0.1400604
-1.579784	AWFULLY LOUSY	0.1087697
-1.357935	AWFULLY NASTY	0.07512173
-1.454845	AWFULLY TERRIBLE	0.08886874
-0.8668226	B1 </s>	0
-1.891127	B1 A	-0.2556992
-3.136974	B1 ABOVE	-0.01027174
-1.13398	B1 AND	-0.2438388
-2.673832	B1 ANOTHER	-0.03877547
-2.179577	B1 AT	-0.0807257
-3.534914	B1 AWAY	0.124832
-3.34023	B1 B3	0
-3.114757	B1 B4	0
-3.114757	B1 B6	0
-2.315706	B1 BACK	-0.087095
-1.853745	B1 BE	-0.2788338
-2.715475	B1 BESIDE	-0.02841432
-2.077938	B1 BLOCK	0
-2.679757	B1 BLUE	-0.2653032
-2.154253	B1 CAN	-0.3558843
-3.219866	B1 CAN'T	-0.1247082
-3.125724	B1 CANNOT	-0.1496122
-2.990846	B1 CLOSE	0.05225533
-2.023031	B1 CLOSER	0.02767444
-2.420971	B1 COULD	-0.1602549
-3.534914	B1 ELEVEN	0
-3.534914	B1 FARTHER	0.1245085
-2.623009	B1 FIRST	-0.2383452
-2.329017	B1 FOR	-0.2601449
-2.267742	B1 FURTHER	0.02161744
-2.43828	B1 GREEN	-0.2552543
-1.622534	B1 IN	-0.1609174
-2.626514	B1 INSTEAD	0.0840674
-1.902269	B1 IS	-0.254986
-2.41255	B1 IT	-0.1754444
-3.835944	B1 JUST	0
-2.908611	B1 LEFT	0
-2.233884	B1 MAY	-0.1154273
-2.291876	B1 MIGHT	-0.03099282
-2.328131	B1 MUST	-0.07065737
-3.125724	B1 MY	0
-2.990846	B1 NEAR	-0.03414035
-0.6002895	B1 NEXT	-0.6306796
-2.835944	B1 NOT	-0.2544301
-3.34023	B1 NUMBER	0
-1.803833	B1 ON	-0.1782412
-2.447782	B1 ONE	0
-1.190328	B1 OR	-0.2032638
-2.784312	B1 ORANGE	-0.1130882
-2.659853	B1 OVER	0.01357883
-2.75204	B1 PLEASE	-0.2232524
-2.423435	B1 RED	-0.2676019
-2.587438	B1 RIGHT	-0.1755573
-2.342748	B1 SHALL	-0.0872415
-2.577517	B1 SHOULD	-0.2017877
-3.534914	B1 SHOULDN'T	0.03688879
-1.629118	B1 SITTING	0.03728577
-3.835944	B1 TEN	0
-1.314035	B1 THAT	-0.2690898
-1.725729	B1 THE	-0.09431593
-2.671874	B1 THIS	0
-1.633023	B1 TO	-0.2321277
-1.708414	B1 TOGETHER	0.03070152
-3.835944	B1 VERY	0
-2.400379	B1 WILL	-0.09718408
-3.534914	B1 WON'T	0
-3.233884	B1 YOUR	-0.05127149
-0.505026	B10 </s>	0
-2.023289	B10 A	-0.2509528
-3.041524	B10 ABOVE	-0.02990513
-1.126899	B10 AND	-0.2286902
-2.884052	B10 ANOTHER	-0.06027298
-2.181047	B10 AT	-0.0807257
-3.120705	B10 AWAY	0.06684002
-3.238619	B10 B4	0
-3.238619	B10 B6	0
-3.026114	B10 B7	-0.1465627
-3.327143	B10 B8	0
-2.631998	B10 BACK	-0.02896488
-1.862827	B10 BE	-0.2788338
-2.670199	B10 BESIDE	-0.05204667
-2.174849	B10 BLOCK	-0.05092818
-2.758452	B10 BLUE	-0.2601635
-2.193904	B10 CAN	-0.3558843
-3.175672	B10 CAN'T	-0.1528385
-3.013117	B10 CANNOT	-0.1796913
-2.974578	B10 CLOSE	0.05225533
-1.922048	B10 CLOSER	0.01989847
-2.301162	B10 COULD	-0.1695389
-3.518646	B10 COULDN'T	0.04046446
-3.819676	B10 EVER	0
-3.342554	B10 FARTHER	0.09647979
-2.65789	B10 FIRST	-0.2383452
-2.450356	B10 FOR	-0.251085
-2.251474	B10 FURTHER	0.02161747
-2.628173	B10 GREEN	-0.2267383
-1.638062	B10 IN	-0.1593898
-2.814995	B10 INSTEAD	0.1246853
-1.929377	B10 IS	-0.2413381
-3.047389	B10 LEFT	0
-2.357277	B10 MAY	-0.105676
-2.196426	B10 MIGHT	-0.03602825
-2.455906	B10 MUST	-0.03988725
-3.175672	B10 MY	-0.0671982
-3.041524	B10 NEAR	-0.02369932
-2.805781	B10 NEXT	-0.5108806
-2.865433	B10 NOT	-0.250826
-3.438456	B10 NUMBER	0
-0.8283861	B10 ON	-0.194032
-1.192199	B10 OR	-0.2073591
-2.594078	B10 ORANGE	-0.2324945
-2.778283	B10 OVER	-0.04449597
-2.661145	B10 PLEASE	-0.2316141
-3.342554	B10 REAL	-0.1381459
-3.342554	B10 REALLY	-0.09251478
-2.494648	B10 RED	-0.209062
-2.57095	B10 RIGHT	-0.1559324
-2.489149	B10 SHALL	-0.07282564
-2.578988	B10 SHOULD	-0.2017877
-3.518646	B10 SHOULDN'T	0.03688879
-1.602192	B10 SITTING	0.04060146
-3.819676	B10 TEN	0
-1.332078	B10 THAT	-0.2578976
-1.891316	B10 THE	-0.01589257
-3.206007	B10 THERE	-0.1749697
-2.850021	B10 THIS	-0.09193456
-1.765029	B10 TO	-0.2316003
-1.651162	B10 TOGETHER	0.02793145
-3.819676	B10 TRULY	0
-2.140146	B10 WILL	-0.12333
-3.518646	B10 WON'T	-0.0157342
-3.217615	B10 YOUR	-0.08018833
-0.7598728	B11 </s>	0
-2.031393	B11 A	-0.2490685
-3.221414	B11 ABOVE	-0.1262715
-1.131542	B11 AND	-0.2432798
-2.88537	B11 ANOTHER	0
-2.272698	B11 AT	-0.07774213
-3.346353	B11 AWAY	0.09680323
-3.440031	B11 B3	0
-3.103003	B11 B7	0
-2.635448	B11 BACK	0.0004148409
-1.816434	B11 BE	-0.2795073
-2.643725	B11 BESIDE	-0.04276526
-2.156506	B11 BLOCK	-0.06989745
-2.891772	B11 BLUE	-0.1343134
-2.25126	B11 CAN	-0.3467755
-3.089641	B11 CAN'T	-0.170635
-3.440031	B11 CANNOT	0
-3.124504	B11 CLOSE	0.0683893
-1.990965	B11 CLOSER	0.02948439
-2.221414	B11 COULD	-0.1750818
-3.522444	B11 COULDN'T	0.04046446
-3.823474	B11 ELEVEN	0
-3.221414	B11 FARTHER	0.07875103
-2.579325	B11 FIRST	-0.245565
-2.435765	B11 FOR	-0.252535
-3.165958	B11 FOUR	0
-2.346353	B11 FURTHER	0.02622715
-2.530456	B11 GREEN	-0.2552543
-3.823474	B11 HERE	0
-1.644604	B11 IN	-0.1678469
-2.673428	B11 INSTEAD	0.08992314
-1.991918	B11 IS	-0.262771
-2.560877	B11 IT	-0.1757183
-3.823474	B11 JUST	0
-2.980694	B11 LEFT	-0.1642683
-2.30496	B11 MAY	-0.1098845
-2.221414	B11 MIGHT	-0.03475137
-2.498639	B11 MUST	-0.02921724
-3.089641	B11 MY	-0.1935899
-3.124504	B11 NEAR	-0.04255442
-2.73073	B11 NEXT	-0.5990167
-2.782081	B11 NOT	-0.2574565
-3.089641	B11 NUMBER	-0.02634195
-0.5357044	B11 ON	-0.2565406
-1.177927	B11 OR	-0.2082139
-2.715049	B11 ORANGE	-0.2058423
-3.346353	B11 OVER	0
-2.805693	B11 PLEASE	-0.2194047
-3.522444	B11 REAL	-0.1101171
-3.823474	B11 REALLY	0
-2.5398	B11 RED	-0.2612675
-2.429047	B11 RIGHT	-0.2239002
-2.608156	B11 SHALL	-0.0590425
-2.695789	B11 SHOULD	-0.1747591
-3.124504	B11 SHOULDN'T	-0.02153809
-1.677346	B11 SITTING	0.03855351
-1.31376	B11 THAT	-0.2664876
-1.867109	B11 THE	-0.1008715
-3.328362	B11 THERE	0
-2.665695	B11 THIS	-0.04882016
-1.717455	B11 TO	-0.2269031
-1.634777	B11 TOGETHER	0.02672499
-3.823474	B11 TWELVE	0
-3.522444	B11 VERY	0
-2.320558	B11 WILL	-0.1075832
-3.124504	B11 WON'T	0.1101044
-3.346353	B11 YOUR	-0.05158868
-0.6623234	B12 </s>	0
-2.022087	B12 A	-0.2393088
-3.039017	B12 ABOVE	0.01235058
-1.124795	B12 AND	-0.2447955
-2.806731	B12 ANOTHER	0
-2.174684	B12 AT	-0.0807257
-3.215108	B12 AWAY	0.07907447
-3.062634	B12 B11	0
-2.872485	B12 B12	0
-3.408791	B12 B3	0
-2.684882	B12 BACK	-0.002035812
-1.836229	B12 BE	-0.2790987
-2.846766	B12 BESIDE	-0.09985356
-2.076646	B12 BLOCK	-0.1063037
-2.674091	B12 BLUE	-0.2005779
-2.178814	B12 CAN	-0.3558844
-3.07203	B12 CAN'T	-0.170635
-3.215108	B12 CLOSE	0.08087833
-1.98466	B12 CLOSER	0.02336153
-2.436957	B12 COULD	-0.1584055
-3.817169	B12 COULDN'T	0
-3.817169	B12 ELEVEN	0
-3.516139	B12 EVER	0.1248032
-2.674091	B12 FIRST	-0.2351027
-2.242434	B12 FOR	-0.2644342
-2.248967	B12 FURTHER	0.02161747
-2.522568	B12 GREEN	-0.2503697
-1.609096	B12 IN	-0.1613323
-2.691973	B12 INSTEAD	0.09665656
-1.914886	B12 IS	-0.2570701
-2.495998	B12 IT	-0.09650999
-3.817169	B12 JUST	0
-2.841146	B12 LEFT	-0.2102962
-2.237385	B12 MAY	-0.1140301
-2.312019	B12 MIGHT	-0.02824302
-2.430826	B12 MUST	-0.04466623
-3.07203	B12 MY	-0.04699982
-3.215108	B12 NEAR	0
-1.409843	B12 NEXT	-0.4461553
-2.972071	B12 NOT	-0.2410661
-0.7927461	B12 ON	-0.354702
-2.557839	B12 ONE	0
-1.202966	B12 OR	-0.217441
-2.964589	B12 ORANGE	-0.1130882
-3.118198	B12 OVER	-0.04323418
-3.000211	B12 PLEASE	-0.192184
-3.817169	B12 REAL	0
-2.535107	B12 RED	-0.1863651
-2.653278	B12 RIGHT	-0.1231438
-2.754181	B12 SHALL	-0.03567971
-2.376876	B12 SHOULD	-0.2394347
-3.340047	B12 SHOULDN'T	0.008657113
-1.626837	B12 SITTING	0.03051791
-3.817169	B12 TEN	0
-1.324375	B12 THAT	-0.2563527
-1.783976	B12 THE	-0.1126527
-2.861786	B12 THIS	-0.1757698
-1.260309	B12 TO	-0.23787
-1.735963	B12 TOGETHER	0.02233499
-3.817169	B12 TWELVE	0
-2.134828	B12 WILL	-0.12333
-3.516139	B12 WON'T	-0.08461554
-3.516139	B12 YOUR	0
-0.8755207	B2 </s>	0
-1.91204	B2 A	-0.2447038
-3.362357	B2 ABOVE	-0.1771575
-1.125361	B2 AND	-0.2329798
-2.765639	B2 ANOTHER	0
-2.231666	B2 AT	-0.07901385
-3.140508	B2 AWAY	0.06684002
-3.332524	B2 B1	0
-3.332524	B2 B2	0
-3.839478	B2 B5	0
-3.104946	B2 B9	0
-2.455423	B2 BACK	0.004290462
-1.815814	B2 BE	-0.279397
-2.683535	B2 BESIDE	-0.005989991
-1.998537	B2 BLOCK	-0.04029252
-2.595614	B2 BLUE	-0.2761762
-2.189106	B2 CAN	-0.3488317
-3.122363	B2 CAN'T	-0.1528385
-3.122363	B2 CANNOT	-0.1496122
-3.362357	B2 CLOSE	0.09896325
-1.894995	B2 CLOSER	0.006034285
-2.320964	B2 COULD	-0.169539
-3.538448	B2 COULDN'T	0.04046446
-3.538448	B2 ELEVEN	0
-3.538448	B2 EVER	0.1248032
-3.140508	B2 FARTHER	0.06651658
-2.595614	B2 FIRST	-0.2411078
-2.492864	B2 FOR	-0.2477886
-2.248413	B2 FURTHER	-0.01856735
-2.39857	B2 GREEN	-0.2626858
-1.687965	B2 IN	-0.1515994
-2.683535	B2 INSTEAD	0.09665656
-1.875754	B2 IS	-0.25999
-2.416999	B2 IT	0
-2.808206	B2 LEFT	-0.1924593
-2.196025	B2 MAY	-0.1178758
-2.248413	B2 MIGHT	-0.03406881
-2.436014	B2 MUST	-0.04466629
-3.122363	B2 MY	-0.0671982
-3.538448	B2 NEAR	0
-2.610053	B2 NEXT	-0.6306796
-2.936388	B2 NOT	-0.2464612
-3.214853	B2 NUMBER	-0.1573529
-0.5889361	B2 ON	-0.1906965
-1.205687	B2 OR	-0.1977441
-2.745124	B2 ORANGE	-0.2674602
-2.936388	B2 OVER	-0.01827191
-2.789744	B2 PLEASE	-0.2194047
-3.538448	B2 REAL	-0.1101171
-2.418095	B2 RED	-0.209062
-2.534701	B2 RIGHT	-0.1738731
-2.603613	B2 SHALL	-0.05904251
-2.492864	B2 SHOULD	-0.2203671
-3.538448	B2 SHOULDN'T	0.03688879
-1.614169	B2 SITTING	0.04850367
-1.277233	B2 THAT	-0.2661119
-1.738421	B2 THE	-0.04292219
-3.113568	B2 THERE	-0.1749697
-2.610053	B2 THIS	-0.07813157
-1.665826	B2 TO	-0.2288498
-1.689602	B2 TOGETHER	0.01700711
-3.061327	B2 TRULY	-0.1746742
-2.254845	B2 WILL	-0.1417983
-2.99438	B2 WON'T	0.08789092
-3.362357	B2 YOUR	-0.05158868
-0.8506764	B3 </s>	0
-1.858775	B3 A	-0.2604981
-3.345308	B3 ABOVE	0
-1.115329	B3 AND	-0.2165103
-2.691694	B3 ANOTHER	0
-2.206266	B3 AT	-0.07939267
-3.5214	B3 AWAY	0.124832
-3.327146	B3 B3	0
-3.101754	B3 B4	0
-3.101754	B3 B6	0
-2.42227	B3 BACK	-0.03699587
-1.844885	B3 BE	-0.2787635
-2.67038	B3 BESIDE	-0.05721349
-2.035656	B3 BLOCK	-0.06507652
-2.536416	B3 BLUE	-0.2810975
-2.140963	B3 CAN	-0.3558843
-3.206677	B3 CAN'T	-0.1247082
-3.035102	B3 CANNOT	-0.1674086
-2.82243	B3 CLOSE	0.03859392
-2.009516	B3 CLOSER	0.03987557
-2.303916	B3 COULD	-0.1695389
-3.22037	B3 COULDN'T	-0.005631268
-3.82243	B3 ELEVEN	0
-3.5214	B3 EVER	0.1248032
-3.345308	B3 FARTHER	0.09647979
-2.583874	B3 FIRST	-0.2411078
-2.439906	B3 FOR	-0.251085
-2.375272	B3 FURTHER	0.02792695
-2.40811	B3 GREEN	-0.1716818
-1.630843	B3 IN	-0.1682006
-2.814162	B3 INSTEAD	0.1380492
-1.888974	B3 IS	-0.2361246
-2.39962	B3 IT	-0.1754444
-3.82243	B3 JUST	0
-2.895654	B3 LEFT	0
-2.303916	B3 MAY	-0.1098845
-2.360032	B3 MIGHT	-0.02499996
-2.562545	B3 MUST	-0.001983225
-3.112471	B3 MY	-0.0671982
-2.91934	B3 NEAR	-0.09280404
-2.68964	B3 NEXT	-0.5108806
-2.91934	B3 NOT	-0.2464612
-3.035102	B3 NUMBER	-0.08412426
-0.5899418	B3 ON	-0.2027915
-1.168068	B3 OR	-0.2246478
-2.734072	B3 ORANGE	-0.2674602
-2.91934	B3 OVER	-0.03818136
-2.776008	B3 PLEASE	-0.2194047
-3.5214	B3 REALLY	-0.1675294
-2.463871	B3 RED	-0.1863651
-2.42965	B3 RIGHT	-0.2079939
-2.518626	B3 SHALL	-0.06805059
-2.738636	B3 SHOULD	-0.1399652
-3.82243	B3 SHOULDN'T	0
-1.661062	B3 SITTING	0.0515916
-3.5214	B3 TEN	-0.1553278
-1.369759	B3 THAT	-0.2619432
-1.729967	B3 THE	-0.06233454
-2.68964	B3 THIS	0
-1.662566	B3 TO	-0.2350301
-1.708059	B3 TOGETHER	0.03159618
-3.12346	B3 TRULY	-0.08849236
-3.82243	B3 TWELVE	0
-2.157259	B3 WILL	-0.1211783
-3.5214	B3 WON'T	0
-3.345308	B3 YOUR	-0.1612017
-0.7194337	B4 </s>	0
-1.814007	B4 A	-0.2604981
-2.827886	B4 ABOVE	-0.05147044
-1.134404	B4 AND	-0.2406825
-2.624651	B4 ANOTHER	-0.03500964
-2.202269	B4 AT	-0.07939267
-3.128916	B4 AWAY	0.06684002
-3.28483	B4 B1	0
-2.899718	B4 B11	0
-3.175461	B4 B3	0
-3.152311	B4 B8	0
-3.050916	B4 B9	0
-2.538033	B4 BACK	0.003810674
-1.851587	B4 BE	-0.2785416
-2.68997	B4 BESIDE	-0.06648706
-1.993489	B4 BLOCK	-0.0339109
-2.617577	B4 BLUE	-0.2695541
-2.104145	B4 CAN	-0.35884
-3.088167	B4 CAN'T	-0.1528385
-3.175461	B4 CANNOT	-0.1214821
-3.049735	B4 CLOSE	0.05924341
-1.989037	B4 CLOSER	0.03439423
-2.412913	B4 COULD	-0.1614484
-3.225826	B4 COULDN'T	-0.005631268
-3.526856	B4 EVER	0.1248032
-3.526856	B4 FARTHER	0.1245085
-2.500944	B4 FIRST	-0.2473888
-2.388682	B4 FOR	-0.2551124
-2.204637	B4 FURTHER	0.01920339
-2.472073	B4 GREEN	-0.213153
-3.827886	B4 HERE	0
-1.652602	B4 IN	-0.1436691
-2.7583	B4 INSTEAD	0.1246853
-1.904197	B4 IS	-0.2611394
-2.313919	B4 IT	-0.1750704
-2.758904	B4 LEFT	-0.1924593
-2.259684	B4 MAY	-0.113281
-2.336524	B4 MIGHT	-0.08810939
-2.511124	B4 MUST	-0.01675028
-3.088167	B4 MY	0
-3.225826	B4 NEAR	-0.04040242
-1.076094	B4 NEXT	-0.5108806
-2.786493	B4 NOT	-0.2574565
-3.28483	B4 NUMBER	0
-1.820258	B4 ON	-0.1401716
-2.374409	B4 ONE	0
-1.220712	B4 OR	-0.2171915
-2.828594	B4 ORANGE	-0.07321671
-2.873643	B4 OVER	-0.01837731
-2.666762	B4 PLEASE	-0.2292393
-3.350765	B4 REAL	-0.03093587
-3.350765	B4 REALLY	-0.08834821
-2.444124	B4 RED	-0.1761659
-2.511806	B4 RIGHT	-0.1060112
-2.475861	B4 SHALL	-0.07282564
-2.538033	B4 SHOULD	-0.2070483
-3.350765	B4 SHOULDN'T	0.008657113
-1.640365	B4 SITTING	0.03704628
-3.827886	B4 TEN	0
-1.332046	B4 THAT	-0.2625906
-1.661094	B4 THE	-0.07846953
-3.152311	B4 THERE	0
-2.67519	B4 THIS	-0.09653831
-0.9823745	B4 TO	-0.2363394
-1.665047	B4 TOGETHER	0.02848232
-3.827886	B4 TRULY	0
-3.827886	B4 TWELVE	0
-3.350765	B4 VERY	-0.08404918
-2.204805	B4 WILL	-0.1169241
-3.225826	B4 WON'T	0.03553046
-3.350765	B4 YOUR	0
-0.7620617	B5 </s>	0
-1.650342	B5 A	-0.2542491
-3.215241	B5 ABOVE	0
-1.126917	B5 AND	-0.242112
-2.511038	B5 ANOTHER	-0.05279336
-2.05274	B5 AT	-0.08274668
-3.118331	B5 AWAY	0.06684002
-3.034785	B5 B1	0
-3.817301	B5 B5	0
-2.812068	B5 B9	-0.1458079
-2.473683	B5 BACK	-0.02186276
-1.774117	B5 BE	-0.2788338
-2.668362	B5 BESIDE	-0.0573564
-1.754662	B5 BLOCK	-0.1333176
-2.471898	B5 BLUE	-0.1936244
-2.007843	B5 CAN	-0.357403
-2.968459	B5 CAN'T	-0.1528385
-3.034785	B5 CANNOT	-0.1214821
-3.03915	B5 CLOSE	0.05924341
-1.978452	B5 CLOSER	0.03845897
-2.298787	B5 COULD	-0.169539
-3.215241	B5 COULDN'T	-0.005631268
-3.34018	B5 EVER	0.09674756
-3.215241	B5 FARTHER	0.07875103
-2.491959	B5 FIRST	-0.2383452
-2.435994	B5 FOR	-0.2477886
-2.226236	B5 FURTHER	0.02058285
-2.267629	B5 GREEN	-0.1299442
-1.667429	B5 IN	-0.1502907
-2.734842	B5 INSTEAD	0.1546485
-1.813631	B5 IS	-0.2328018
-2.120971	B5 IT	-0.09619983
-3.817301	B5 JUST	0
-2.607461	B5 LEFT	-0.1642683
-2.419361	B5 MAY	-0.1307001
-2.260998	B5 MIGHT	-0.03181888
-2.353544	B5 MUST	-0.04912478
-2.814677	B5 MY	-0.01115898
-2.914211	B5 NEAR	-0.02421008
-2.414649	B5 NEXT	-0.6306796
-2.775908	B5 NOT	-0.2574565
-3.034785	B5 NUMBER	0
-1.65088	B5 ON	-0.2020271
-2.157701	B5 ONE	0
-1.170808	B5 OR	-0.1940063
-2.535785	B5 ORANGE	-0.2138701
-3.215241	B5 OVER	0
-2.814677	B5 PLEASE	-0.201711
-3.817301	B5 REALLY	0
-2.268372	B5 RED	-0.2571992
-2.211636	B5 RIGHT	-0.2269972
-2.325091	B5 SHALL	-0.0847514
-2.585307	B5 SHOULD	-0.1560287
-3.516271	B5 SHOULDN'T	0.03688879
-1.632609	B5 SITTING	0.022035
-1.325557	B5 THAT	-0.2716048
-1.45902	B5 THE	-0.06354172
-2.397795	B5 THIS	-0.06587476
-1.564007	B5 TO	-0.2258633
-1.696528	B5 TOGETHER	0.03159642
-3.817301	B5 TWELVE	0
-3.516271	B5 VERY	0
-2.213927	B5 WILL	-0.1115479
-3.516271	B5 WON'T	0
-3.118331	B5 YOUR	-0.06198853
-0.7093061	B6 </s>	0
-1.904934	B6 A	-0.2542491
-3.338987	B6 ABOVE	0
-1.135926	B6 AND	-0.2460448
-2.824579	B6 ANOTHER	0
-2.101115	B6 AT	-0.08253044
-3.214049	B6 AWAY	0.07907447
-3.346035	B6 B2	0
-3.346035	B6 B3	0
-3.816109	B6 B5	0
-3.125609	B6 B6	0
-2.516128	B6 BACK	-0.07541095
-1.788197	B6 BE	-0.2795606
-2.819266	B6 BESIDE	-0.0158551
-2.085384	B6 BLOCK	-0.04997098
-2.588754	B6 BLUE	-0.2761762
-2.218263	B6 CAN	-0.342223
-3.041467	B6 CAN'T	-0.170635
-3.346035	B6 CANNOT	0
-3.214049	B6 CLOSE	0.08087833
-1.907624	B6 CLOSER	0.01707825
-2.324747	B6 COULD	-0.1675534
-3.214049	B6 COULDN'T	-0.005631268
-3.816109	B6 ELEVEN	0
-3.816109	B6 EVER	0
-3.214049	B6 FARTHER	0.07875103
-2.779509	B6 FIRST	-0.2134979
-2.260389	B6 FOR	-0.2631634
-2.247907	B6 FURTHER	0.02161744
-2.501445	B6 GREEN	-0.236709
-1.617917	B6 IN	-0.1765426
-2.739557	B6 INSTEAD	0.1136899
-1.927795	B6 IS	-0.2308783
-2.427924	B6 IT	-0.1757183
-3.816109	B6 JUST	0
-2.870099	B6 LEFT	-0.1642683
-2.236325	B6 MAY	-0.1140302
-2.324747	B6 MIGHT	-0.02722295
-2.385911	B6 MUST	-0.05329436
-3.117139	B6 NEAR	0
-2.709485	B6 NEXT	-0.5108806
-2.736927	B6 NOT	-0.260034
-2.974017	B6 NUMBER	-0.1062518
-0.6842976	B6 ON	-0.2009065
-1.183725	B6 OR	-0.2078863
-2.778546	B6 ORANGE	-0.2608898
-3.117139	B6 OVER	0
-2.586895	B6 PLEASE	-0.2355011
-3.214049	B6 REAL	-0.05896459
-3.816109	B6 REALLY	0
-2.521949	B6 RED	-0.2462038
-2.520884	B6 RIGHT	-0.182713
-2.3697	B6 SHALL	-0.08338365
-2.641418	B6 SHOULD	-0.1722405
-1.645847	B6 SITTING	0.03720871
-3.816109	B6 TEN	0
-1.305855	B6 THAT	-0.2644616
-1.757436	B6 THE	-0.06842393
-2.54235	B6 THIS	-0.1044408
-1.651582	B6 TO	-0.2296992
-1.676382	B6 TOGETHER	0.02985573
-3.515079	B6 TRULY	0
-3.816109	B6 TWELVE	0
-3.816109	B6 VERY	0
-2.260973	B6 WILL	-0.111548
-3.816109	B6 YOUR	0
-0.775712	B7 </s>	0
-1.949636	B7 A	-0.2649072
-2.980718	B7 ABOVE	0.0108529
-1.108986	B7 AND	-0.2114349
-2.999588	B7 ANOTHER	0
-2.148537	B7 AT	-0.08182484
-3.524785	B7 AWAY	0.124832
-3.028079	B7 B11	-0.146467
-3.440998	B7 B2	0
-3.440998	B7 B3	0
-3.103447	B7 B7	0
-2.515641	B7 BACK	-0.01607788
-1.868247	B7 BE	-0.2788338
-2.617955	B7 BESIDE	-0.0437149
-2.196001	B7 BLOCK	-0.07967979
-2.606651	B7 BLUE	-0.2788057
-2.252889	B7 CAN	-0.3467753
-3.440998	B7 CAN'T	0
-2.900216	B7 CANNOT	-0.19555
-3.223755	B7 CLOSE	0.08087833
-1.993306	B7 CLOSER	0.02000746
-2.348694	B7 COULD	-0.1667615
-3.825816	B7 COULDN'T	0
-3.825816	B7 EVER	0
-3.524785	B7 FARTHER	0.1245085
-2.726688	B7 FIRST	-0.2312434
-2.40379	B7 FOR	-0.2551124
-2.246032	B7 FURTHER	0.02108756
-2.510015	B7 GREEN	-0.2592921
-1.649755	B7 IN	-0.1676667
-2.741655	B7 INSTEAD	0.1044819
-1.928418	B7 IS	-0.2459943
-2.495517	B7 IT	-0.1908848
-3.825816	B7 JUST	0
-3.04842	B7 LEFT	0
-2.234751	B7 MAY	-0.1147448
-2.246032	B7 MIGHT	-0.03335415
-2.675416	B7 MUST	0.02612478
-3.091368	B7 MY	-0.09551711
-3.126845	B7 NEAR	-0.04255442
-2.768333	B7 NEXT	-0.5600986
-2.922726	B7 NOT	-0.2464612
-3.29108	B7 NUMBER	0
-0.5324213	B7 ON	-0.1379408
-2.60358	B7 ONE	0
-1.179276	B7 OR	-0.2050054
-2.625754	B7 ORANGE	-0.2270316
-3.126845	B7 OVER	-0.02749297
-2.584627	B7 PLEASE	-0.2371117
-3.524785	B7 REALLY	0
-2.614526	B7 RED	-0.164017
-2.62604	B7 RIGHT	-0.1738731
-2.560395	B7 SHALL	-0.06532848
-2.560395	B7 SHOULD	-0.2022943
-3.524785	B7 SHOULDN'T	0.03688879
-1.624418	B7 SITTING	0.04062882
-1.329695	B7 THAT	-0.2640016
-1.892108	B7 THE	-0.0613675
-2.666996	B7 THIS	-0.02923643
-1.743752	B7 TO	-0.2225238
-1.666171	B7 TOGETHER	0.01609784
-3.825816	B7 TRULY	0
-3.524785	B7 VERY	0
-2.283597	B7 WILL	-0.111548
-3.223755	B7 WON'T	-0.0331251
-3.524785	B7 YOUR	-0.132485
-0.6430116	B8 </s>	0
-1.880415	B8 A	-0.2283134
-3.354749	B8 ABOVE	0
-1.122723	B8 AND	-0.2099959
-2.713962	B8 ANOTHER	0
-2.259876	B8 AT	-0.07726619
-3.1329	B8 AWAY	0.06684002
-2.983089	B8 B6	0
-2.460252	B8 BACK	-0.08612577
-1.790581	B8 BE	-0.2795073
-2.887649	B8 BESIDE	-0.0433296
-1.961202	B8 BLOCK	-0.04333553
-2.7411	B8 BLUE	-0.2458054
-2.130834	B8 CAN	-0.3542764
-3.08916	B8 CAN'T	-0.1528385
-3.01697	B8 CANNOT	-0.1674086
-3.354749	B8 CLOSE	0.09896325
-1.980611	B8 CLOSER	0.02577755
-2.300391	B8 COULD	-0.1704544
-3.53084	B8 COULDN'T	0.04046446
-3.83187	B8 EVER	0
-3.22981	B8 FARTHER	0.07875103
-2.646483	B8 FIRST	-0.2312434
-2.234945	B8 FOR	-0.2650208
-2.275567	B8 FURTHER	0.02217457
-2.400932	B8 GREEN	-0.2503697
-1.653312	B8 IN	-0.167112
-2.724839	B8 INSTEAD	0.1136899
-1.890272	B8 IS	-0.2569269
-2.33921	B8 IT	-0.1757183
-3.53084	B8 JUST	0
-2.838243	B8 LEFT	0
-2.287802	B8 MAY	-0.1116688
-2.313356	B8 MIGHT	-0.0292085
-2.316066	B8 MUST	-0.07065725
-3.01697	B8 MY	-0.04716618
-3.1329	B8 NEAR	-0.09269087
-2.544423	B8 NEXT	-0.6570086
-2.83187	B8 NOT	-0.2544301
-3.08916	B8 NUMBER	-0.1633055
-0.8860321	B8 ON	-0.2688736
-1.168362	B8 OR	-0.1958013
-2.5999	B8 ORANGE	-0.2840701
-2.62775	B8 OVER	-0.03949726
-2.66961	B8 PLEASE	-0.2292393
-3.53084	B8 REAL	0
-3.53084	B8 REALLY	-0.1675294
-2.307555	B8 RED	-0.2321477
-2.603625	B8 RIGHT	0
-2.541172	B8 SHALL	-0.06532848
-2.519485	B8 SHOULD	-0.2082624
-3.83187	B8 SHOULDN'T	0
-1.664552	B8 SITTING	0.05049542
-3.83187	B8 TEN	0
-1.327556	B8 THAT	-0.2570913
-1.659224	B8 THE	-0.05959003
-3.151108	B8 THERE	0
-2.644797	B8 THIS	-0.05616833
-1.583085	B8 TO	-0.2342073
-1.712846	B8 TOGETHER	0.03136778
-3.83187	B8 TRULY	0
-3.83187	B8 TWELVE	0
-2.274849	B8 WILL	-0.110298
-3.354749	B8 WON'T	-0.004927509
-3.22981	B8 YOUR	-0.02105527
-0.5150043	B9 </s>	0
-1.943609	B9 A	-0.2393088
-3.513351	B9 ABOVE	0
-1.162324	B9 AND	-0.2147533
-2.871091	B9 ANOTHER	0
-2.224879	B9 AT	-0.07861376
-2.7352	B9 AWAY	0.03207791
-3.345448	B9 B1	0
-2.97984	B9 B11	0
-2.784193	B9 B12	0
-3.345448	B9 B3	0
-3.044418	B9 B4	-0.1438367
-2.323805	B9 BACK	-0.04814689
-1.825021	B9 BE	-0.2790349
-2.612548	B9 BESIDE	-0.02886418
-2.069313	B9 BLOCK	-0.03349618
-2.587526	B9 BLUE	-0.1938186
-2.185464	B9 CAN	-0.3488318
-3.120306	B9 CAN'T	-0.1528385
-2.972773	B9 CANNOT	-0.1796913
-3.814381	B9 CLOSE	0
-1.975532	B9 CLOSER	0.02895987
-2.309231	B9 COULD	-0.1685734
-3.513351	B9 COULDN'T	0.04046446
-3.33726	B9 EVER	0.09674756
-3.212321	B9 FARTHER	0.07875103
-2.562501	B9 FIRST	-0.2434898
-2.417415	B9 FOR	-0.252535
-2.309231	B9 FURTHER	0.0247218
-2.545341	B9 GREEN	-0.213153
-3.814381	B9 HERE	0
-1.638858	B9 IN	-0.1764524
-2.64073	B9 INSTEAD	0.08992314
-2.027519	B9 IS	-0.2098902
-2.427782	B9 IT	0
-3.513351	B9 JUST	-0.1725625
-2.869707	B9 LEFT	-0.1642683
-2.282902	B9 MAY	-0.1107999
-2.246179	B9 MIGHT	-0.03260498
-2.454243	B9 MUST	-0.03475153
-3.120306	B9 MY	-0.07721581
-3.814381	B9 NEAR	0
-2.676146	B9 NEXT	-0.5600986
-2.668253	B9 NOT	-0.2641899
-3.120306	B9 NUMBER	0
-0.9728962	B9 ON	-0.3159499
-2.46445	B9 ONE	0
-1.210246	B9 OR	-0.2113401
-2.777436	B9 ORANGE	-0.1726739
-3.212321	B9 OVER	-0.003322646
-2.639915	B9 PLEASE	-0.2316141
-3.513351	B9 REAL	0
-2.388916	B9 RED	-0.2198749
-2.498582	B9 RIGHT	-0.1903362
-2.383919	B9 SHALL	-0.08192298
-2.585366	B9 SHOULD	-0.1960163
-1.665162	B9 SITTING	0.03925505
-1.293572	B9 THAT	-0.2531529
-1.742285	B9 THE	-0.04656
-3.221544	B9 THERE	0
-2.590422	B9 THIS	-0.1193068
-1.629953	B9 TO	-0.2303597
-1.653181	B9 TOGETHER	0.01604712
-3.212321	B9 TRULY	-0.05657484
-3.814381	B9 VERY	0
-2.297344	B9 WILL	-0.1075832
-3.33726	B9 WON'T	-0.1128472
-3.33726	B9 YOUR	-0.05158868
-0.3869551	BACK </s>	0
-2.445619	BACK ABOVE	0.05816227
-1.188166	BACK AT	-0.09298155
-2.43361	BACK AWAY	0.003788263
-2.165338	BACK BESIDE	-0.08092642
-2.497279	BACK CLOSE	0.004522979
-2.152783	BACK CLOSER	-0.2556958
-2.930935	BACK EVER	0.0116438
-2.719128	BACK FARTHER	0.0069938
-2.767432	BACK FURTHER	-0.2659286
-2.242006	BACK HERE	-0.1233961
-1.429926	BACK IN	-0.2415935
-3.152783	BACK JUST	-0.2595224
-2.68002	BACK LEFT	-0.2735081
-2.421924	BACK NEAR	-0.05383646
-2.219614	BACK NEXT	-0.9296019
-2.142564	BACK NOT	-0.2902127
-0.8049453	BACK ON	-0.3191966
-1.745838	BACK OVER	-0.02995157
-2.883938	BACK REAL	-0.1800138
-3.077062	BACK REALLY	-0.2569508
-2.089887	BACK RIGHT	-0.2860115
-2.140517	BACK THERE	-0.2965025
-1.890435	BACK TO	-0.288158
-2.969853	BACK TRULY	-0.1728132
-2.930935	BACK VERY	-0.2576715
-0.3412563	BAD </s>	0
-1.836506	BAD MANY	-0.2768925
-1.253281	BAD THANK	0.00124523
-1.381639	BAD THANKS	-0.1421694
-1.023192	BE </s>	0
-1.496176	BE A	-0.2572019
-2.680975	BE ABOUT	-0.2800978
-4.350756	BE ABOVE	0.03945252
-2.9007	BE ACCEPTABLE	-0.05968609
-2.980845	BE ALMOST	-0.2300458
-2.870031	BE ALRIGHT	-0.1874549
-2.316717	BE AN	-0.3309292
-1.370173	BE ANY	-0.1735504
-1.158401	BE ANYWHERE	0.0001554489
-2.201923	BE AS	-0.2751836
-2.05609	BE AT	-0.1480637
-4.378785	BE AWAY	0.02622217
-2.347301	BE BACK	-0.1194928
-1.616886	BE BESIDE	-0.09668988
-1.480155	BE BETWEEN	-0.1060436
-2.035968	BE BIGGER	-0.008325905
-2.103789	BE BLUE	-0.3143194
-2.644786	BE BUILDING	0.001472086
-2.804368	BE CLOSE	0.0007001758
-4.036363	BE CLOSER	-0.2449042
-2.63267	BE CREATING	0.001407921
-2.333984	BE DOING	0.0007402301
-2.719186	BE DROPPED	0
-2.709982	BE EIGHT	-0.1686746
-1.567191	BE EITHER	-0.2430905
-2.113844	BE EQUALLY	0.0006679296
-3.348051	BE EVER	0.002405912
-3.189389	BE EXACTLY	-0.1362195
-4.513484	BE FARTHER	0.03433189
-4.600634	BE FEWER	0.04106656
-2.681229	BE FIVE	-0.1982298
-2.633711	BE FORMING	0.001360357
-1.64895	BE FOUR	-0.2963702
-3.10617	BE FROM	-0.227314
-4.378785	BE FURTHER	-0.2478722
-2.003249	BE GREATER	-0.03734493
-2.019031	BE GREEN	-0.3016974
-4.156937	BE HERE	-0.1141191
-1.802828	BE HIGHER	-0.007270962
-1.325671	BE IN	-0.2405327
-2.183255	BE JUST	-0.2406629
-2.643061	BE LEFT	-0.2853697
-1.681239	BE LESS	0
-2.163765	BE LONGER	-0.008206278
-2.637371	BE MAKING	0.001423836
-3.330132	BE MANY	-0.3617421
-4.651787	BE MAXIMUM	-0.027285
-3.662782	BE MINIMUM	-0.1183829
-1.653177	BE MORE	-0.2914253
-2.026346	BE MOVING	0
-2.820877	BE NEAR	-0.1240388
-3.319348	BE NEARLY	-0.2283604
-2.545418	BE NEXT	-0.9513854
-2.787721	BE NINE	-0.1465046
-2.75644	BE NO	-0.2713558
-2.462507	BE NOT	-0.2902547
-2.21431	BE OF	-0.298938
-2.770493	BE OK	-0.2116615
-1.004885	BE ON	-0.264396
-1.912748	BE ONE	-0.2725884
-2.182474	BE ONLY	-0.2788486
-2.103311	BE ORANGE	-0.3237355
-3.630597	BE OVER	-0.06252606
-2.718552	BE PLACED	0.0008035004
-2.984334	BE PRACTICALLY	-0.2304147
-3.191265	BE PRECISELY	-0.1447646
-2.924449	BE PRETTY	-0.02926639
-2.748697	BE PUSHED	0
-2.156094	BE PUT	-0.2773954
-3.434303	BE REAL	-0.1942643
-3.447667	BE REALLY	-0.2813545
-2.038132	BE RED	-0.3040086
-2.279611	BE RIGHT	-0.2388318
-2.98785	BE ROUGHLY	-0.232671
-2.192017	BE SAME	0.0009988248
-2.705457	BE SAT	0
-2.776725	BE SEVEN	-0.1461775
-3.537843	BE SEVERAL	-0.2307412
-2.027247	BE SHORTER	-0.008308291
-2.721938	BE SIX	-0.1565869
-2.024037	BE SMALLER	-0.009185493
-2.363705	BE SOME	-0.2551437
-2.587899	BE SPACE	-0.1801771
-1.776821	BE TALLER	-0.02032274
-1.359156	BE THE	-0.2790496
-3.307708	BE THERE	-0.2793064
-2.441815	BE THREE	-0.210124
-1.906444	BE TO	-0.2952915
-3.399541	BE TRULY	-0.1916875
-2.438148	BE TWO	-0.2858877
-3.354375	BE UP	-0.2826464
-3.03113	BE VERY	-0.2380223
-3.008334	BE VIRTUALLY	-0.2344285
-2.158852	BE WIDER	-0.008560896
-2.344558	BE WORKING	0.000203371
-0.2460663	BEAUTIFUL </s>	0
-0.2999913	BEGIN WITH	-0.01226085
-0.8780499	BELIEVE </s>	0
-0.3608743	BELIEVE SO	-0.2250161
-1.643433	BESIDE ANOTHER	-0.2388562
-2.550115	BESIDE B1	-0.1407932
-2.557178	BESIDE B10	-0.08701362
-2.514132	BESIDE B11	-0.07241585
-2.389904	BESIDE B12	-0.1393747
-2.521404	BESIDE B2	-0.07692841
-2.613947	BESIDE B3	-0.095453
-2.465878	BESIDE B4	-0.09182304
-2.511298	BESIDE B5	-0.09566216
-2.576674	BESIDE B6	-0.06024143
-2.474969	BESIDE B7	-0.1131761
-2.555611	BESIDE B8	-0.09432173
-2.453823	BESIDE B9	-0.1363964
-1.180378	BESIDE BLOCK	-0.2800191
-0.6263525	BESIDE EACH	0.001025915
-3.119043	BESIDE EIGHT	-0.18464
-2.35369	BESIDE ELEVEN	-0.1382028
-3.139771	BESIDE FIVE	0
-2.865386	BESIDE FOUR	-0.04619209
-0.8505366	BESIDE IT	-0.1934341
-1.663756	BESIDE MY	-0.1754513
-3.539327	BESIDE NINE	0
-1.866417	BESIDE NUMBER	-0.09045997
-2.231803	BESIDE ONE	-0.1262122
-3.317478	BESIDE SEVEN	-0.05073764
-3.119043	BESIDE SIX	0
-2.414388	BESIDE TEN	-0.05098344
-1.359691	BESIDE THAT	-0.2095166
-0.9190664	BESIDE THE	-0.1760503
-1.355879	BESIDE THIS	-0.2050749
-2.593532	BESIDE THREE	0
-2.525087	BESIDE TWELVE	-0.06098792
-2.593532	BESIDE TWO	0
-1.68401	BESIDE YOUR	-0.1774747
-0.2459749	BET </s>	0
-0.8370281	BETWEEN </s>	0
-1.918957	BETWEEN ALL	-0.2571576
-1.880687	BETWEEN ANOTHER	-0.1912053
-2.788017	BETWEEN B1	-0.2211474
-2.599848	BETWEEN B10	-0.1807802
-2.586941	BETWEEN B11	-0.150245
-2.488824	BETWEEN B12	-0.1697069
-2.837921	BETWEEN B2	-0.1788889
-2.788017	BETWEEN B3	-0.1878808
-2.728418	BETWEEN B4	-0.1880291
-2.805084	BETWEEN B5	-0.187865
-2.722587	BETWEEN B6	-0.1547092
-2.676021	BETWEEN B7	-0.1750044
-2.693151	BETWEEN B8	-0.1713018
-2.7464	BETWEEN B9	-0.1662218
-1.868207	BETWEEN BLOCK	-0.2330091
-1.22123	BETWEEN BLOCKS	-0.2812788
-2.783044	BETWEEN EIGHT	-0.2696927
-2.771401	BETWEEN ELEVEN	-0.1995157
-2.765157	BETWEEN FIVE	-0.2668765
-2.70143	BETWEEN FOUR	-0.2682326
-2.247074	BETWEEN IT	-0.180747
-1.605592	BETWEEN MINE	-0.2191686
-1.949618	BETWEEN MY	-0.2064143
-3.078962	BETWEEN NINE	-0.2648194
-2.106836	BETWEEN NUMBER	-0.09399684
-1.895618	BETWEEN ONE	-0.2786251
-2.8732	BETWEEN SEVEN	-0.273516
-2.750968	BETWEEN SIX	-0.2893757
-2.683662	BETWEEN TEN	-0.1894314
-1.835035	BETWEEN THAT	-0.2642718
-0.7014275	BETWEEN THE	-0.2241154
-1.666789	BETWEEN THEM	-0.1589097
-1.423416	BETWEEN THESE	-0.1846624
-2.166941	BETWEEN THEY	-0.2339892
-1.856574	BETWEEN THIS	-0.2496143
-1.426335	BETWEEN THOSE	-0.1939922
-1.074206	BETWEEN THREE	-0.2611868
-2.746217	BETWEEN TWELVE	-0.1967394
-2.390277	BETWEEN TWO	-0.2710605
-1.999781	BETWEEN YOUR	-0.1615189
-1.63558	BETWEEN YOURS	-0.1340559
-0.7834533	BIG </s>	0
-0.7001852	BIG AS	-0.2333405
-1.531692	BIG CAN	-0.2414529
-1.584665	BIG COULD	-0.2842887
-1.535135	BIG MAY	-0.2794031
-1.584665	BIG MIGHT	-0.2890836
-1.652983	BIG MUST	-0.2381921
-1.710417	BIG SHALL	-0.2539201
-1.734429	BIG SHOULD	-0.225451
-1.403585	BIG WILL	-0.1979658
-0.4415033	BIGGER </s>	0
-2.97237	BIGGER EIGHT	0
-2.565517	BIGGER FIRST	-0.2504457
-2.884096	BIGGER FIVE	0
-2.791802	BIGGER FOUR	0
-2.636746	BIGGER INSTEAD	0.05773848
-2.839621	BIGGER MADE	0.1463717
-2.009096	BIGGER OF	0
-2.098209	BIGGER ONE	-0.1900106
-3.016129	BIGGER OUT	0.1248251
-2.684469	BIGGER PLEASE	-0.2430196
-0.6995341	BIGGER THAN	-0.2464627
-2.320912	BIGGER THREE	-0.1460374
-2.308538	BIGGER TWO	-0.1120269
-2.800801	BIGGER WITH	-0.04391595
-0.8058945	BIGGEST </s>	0
-1.276608	BIGGEST BLUE	-0.2261205
-1.687959	BIGGEST CASTLE	-0.1054005
-2.581546	BIGGEST CASTLES	-0.03474624
-2.014818	BIGGEST COLUMN	0.00656122
-3.078871	BIGGEST COLUMNS	-0.1613351
-1.239184	BIGGEST GREEN	-0.2251636
-2.344185	BIGGEST HORIZONTAL	0.02115682
-2.416233	BIGGEST LINE	-0.05088709
-3.446848	BIGGEST LINES	-0.09014956
-1.271353	BIGGEST ORANGE	-0.225982
-1.25211	BIGGEST RED	-0.228069
-1.786461	BIGGEST ROW	-0.134468
-3.020879	BIGGEST ROWS	-0.01626339
-2.066637	BIGGEST SET	0.006010294
-2.969726	BIGGEST SETS	0.04203916
-2.148917	BIGGEST STACK	-0.07074374
-3.224999	BIGGEST STACKS	-0.02229947
-1.942765	BIGGEST STAIRCASE	0.06812286
-2.969726	BIGGEST STAIRCASES	0.0365735
-3.078871	BIGGEST STAIRS	0.02858888
-2.526029	BIGGEST STRAIGHT	0.03093091
-1.086515	BIGGEST STRUCTURE	-0.1618411
-1.816759	BIGGEST STRUCTURES	-0.1112732
-2.046829	BIGGEST TOWER	-0.02530202
-3.078871	BIGGEST TOWERS	-0.1320463
-2.446848	BIGGEST UPRIGHT	0.02622715
-2.60175	BIGGEST VERTICAL	0.03612891
-1.784762	BIGGEST WALL	-0.1044276
-2.622939	BIGGEST WALLS	-0.0930616
-0.809417	BIT ABOUT	-0.2326596
-3.57434	BIT AWFUL	0.108711
-3.449401	BIT BAD	-0.009642363
-1.080185	BIT CLOSER	-0.1097898
-3.449401	BIT DREADFUL	0.08882698
-2.218952	BIT FUNNY	0.006726593
-1.379363	BIT FURTHER	-0.04831511
-3.206363	BIT HORRIBLE	0.05708468
-0.7170075	BIT LATER	0.0001924932
-3.57434	BIT LOUSY	0.1087697
-3.27331	BIT NASTY	0.06497696
-2.170648	BIT ODD	0.006008655
-2.238548	BIT STRANGE	0.007056266
-3.352491	BIT TERRIBLE	0.0750528
-2.266131	BIT WEIRD	0.007529348
-0.6033064	BLOCK </s>	0
-2.132811	BLOCK A	-0.2869305
-3.903643	BLOCK ABOVE	0.05078667
-1.865238	BLOCK AND	-0.231571
-2.973772	BLOCK ANOTHER	-0.2210576
-1.445808	BLOCK AT	-0.09319946
-3.893424	BLOCK AWAY	0.009653062
-2.502779	BLOCK B1	0.02980912
-2.466089	BLOCK B10	0.04644483
-2.482243	BLOCK B11	0.04879248
-2.406824	BLOCK B12	0.02786565
-2.506079	BLOCK B2	0.03275061
-2.533415	BLOCK B3	0.02999151
-2.479545	BLOCK B4	0.0198527
-2.540568	BLOCK B5	0.02071327
-1.98635	BLOCK B6	0.02461827
-2.463829	BLOCK B7	0.03115731
-2.496236	BLOCK B8	0.02982783
-2.514398	BLOCK B9	0.04270399
-2.532095	BLOCK BACK	-0.1157477
-2.168254	BLOCK BE	-0.2842339
-2.105338	BLOCK BESIDE	-0.06240132
-2.228842	BLOCK BLOCK	-0.227808
-3.018723	BLOCK BLUE	-0.3000581
-2.588	BLOCK CAN	-0.4042415
-3.497131	BLOCK CAN'T	-0.2382009
-3.562666	BLOCK CANNOT	-0.2266324
-2.241313	BLOCK CASTLE	-0.1996582
-3.66956	BLOCK CASTLES	-0.2102414
-3.778704	BLOCK CLOSE	0.007649988
-2.116959	BLOCK CLOSER	0.001224458
-2.497188	BLOCK COLUMN	-0.2232681
-4.296443	BLOCK COLUMNS	-0.2301089
-2.999262	BLOCK COULD	-0.2008941
-4.049771	BLOCK COULDN'T	-0.07157439
-2.104516	BLOCK EIGHT	-0.1553408
-2.387643	BLOCK ELEVEN	0.02264208
-4.322772	BLOCK EVER	0.02458349
-4.225862	BLOCK FARTHER	0.01977316
-2.613485	BLOCK FIRST	-0.2749768
-3.15919	BLOCK FIVE	-0.1432571
-2.428909	BLOCK FOR	-0.2865629
-3.113203	BLOCK FOUR	-0.1589052
-2.443031	BLOCK FURTHER	0.0006125271
-2.695857	BLOCK GREEN	-0.2946901
-4.296443	BLOCK HERE	-0.03291324
-2.004555	BLOCK HIGH	-0.1046878
-2.738724	BLOCK HORIZONTAL	0.001339495
-1.731964	BLOCK IN	-0.191311
-2.020834	BLOCK INSTEAD	0.001719117
-1.401135	BLOCK IS	-0.6071661
-2.582375	BLOCK IT	-0.284077
-4.412949	BLOCK JUST	-0.2413769
-2.612377	BLOCK LEFT	-0.30287
-2.964489	BLOCK LINE	-0.1799431
-4.485499	BLOCK LINES	-0.185784
-2.033295	BLOCK LONG	-0.1151259
-3.054136	BLOCK MAY	-0.1407266
-2.996692	BLOCK MIGHT	-0.06058605
-3.062791	BLOCK MUST	-0.1580996
-3.406013	BLOCK MY	-0.1521143
-3.864134	BLOCK NEAR	-0.008854076
-1.640848	BLOCK NEXT	-0.5703839
-3.518292	BLOCK NINE	-0.1823085
-3.577502	BLOCK NOT	-0.2874197
-1.761664	BLOCK NUMBER	-0.1101793
-0.8747285	BLOCK ON	-0.3032975
-1.608752	BLOCK ONE	-0.2412245
-2.429934	BLOCK OR	-0.1196851
-2.098644	BLOCK ORANGE	-0.3118839
-3.592394	BLOCK OVER	0.02731368
-2.682979	BLOCK PLEASE	-0.2629858
-4.526892	BLOCK REAL	-0.1337516
-4.447711	BLOCK REALLY	-0.2299931
-2.101897	BLOCK RED	-0.2829474
-2.512156	BLOCK RIGHT	-0.2513012
-2.272687	BLOCK ROW	-0.1816495
-4.146681	BLOCK ROWS	-0.2630038
-2.590881	BLOCK SET	0.0004988909
-4.18447	BLOCK SETS	0.01871243
-3.66956	BLOCK SEVEN	-0.1346136
-3.174531	BLOCK SHALL	-0.1180863
-3.146513	BLOCK SHOULD	-0.3063897
-4.225862	BLOCK SHOULDN'T	-0.06867723
-2.347628	BLOCK SITTING	0.006647408
-1.811525	BLOCK SIX	-0.1670675
-2.685358	BLOCK STACK	-0.183109
-4.27162	BLOCK STACKS	-0.2505959
-2.453038	BLOCK STAIRCASE	-0.1277369
-4.128952	BLOCK STAIRCASES	-0.1225582
-4.296443	BLOCK STAIRS	-0.2156221
-3.076643	BLOCK STRAIGHT	0.002911031
-1.567176	BLOCK STRUCTURE	-0.218906
-2.944829	BLOCK STRUCTURES	-0.2687891
-1.776253	BLOCK TALL	-0.2728552
-2.373077	BLOCK TEN	0.0201208
-1.990029	BLOCK THAT	-0.2635529
-1.919987	BLOCK THE	-0.2022878
-3.432983	BLOCK THERE	-0.1864801
-2.893001	BLOCK THIS	-0.2247973
-2.106987	BLOCK THREE	-0.1476258
-1.647291	BLOCK TO	-0.2604717
-2.28782	BLOCK TOGETHER	0.002468884
-2.04621	BLOCK TOWER	-0.159942
-4.526892	BLOCK TOWERS	-0.2194449
-4.412949	BLOCK TRULY	-0.1432791
-2.388274	BLOCK TWELVE	0.01628244
-2.106491	BLOCK TWO	-0.1455986
-3.18447	BLOCK UPRIGHT	0.003753036
-3.128952	BLOCK VERTICAL	0.003291726
-4.748741	BLOCK VERY	-0.1836244
-2.246054	BLOCK WALL	-0.2132968
-3.651831	BLOCK WALLS	-0.2849674
-2.021187	BLOCK WIDE	-0.1885294
-2.84009	BLOCK WILL	-0.1526903
-3.982824	BLOCK WON'T	0.02289471
-3.763464	BLOCK YOUR	-0.1528027
-0.3946399	BLOCKS </s>	0
-2.207548	BLOCKS A	-0.2828419
-3.775844	BLOCKS ABOVE	0.08112384
-1.803892	BLOCKS ALTOGETHER	-0.1528983
-1.925521	BLOCKS AND	-0.2593678
-2.815107	BLOCKS ARRANGED	0.0004212856
-1.93411	BLOCKS AT	-0.0931218
-2.319838	BLOCKS AVAILABLE	-0.2941367
-3.790821	BLOCKS AWAY	0.007317245
-2.89266	BLOCKS B1	-0.2356528
-2.786604	BLOCKS B10	-0.2347057
-2.804315	BLOCKS B11	-0.2338739
-2.702672	BLOCKS B12	-0.2353544
-2.90636	BLOCKS B2	-0.2359963
-2.891698	BLOCKS B3	-0.2323529
-2.87765	BLOCKS B4	-0.2377952
-2.969204	BLOCKS B5	-0.2348457
-2.865719	BLOCKS B6	-0.2350192
-2.788874	BLOCKS B7	-0.2321155
-2.863396	BLOCKS B8	-0.2332421
-2.873945	BLOCKS B9	-0.2390644
-2.511324	BLOCKS BACK	-0.1162837
-2.747767	BLOCKS BE	-0.2809331
-3.215713	BLOCKS BESIDE	-0.03356385
-4.370604	BLOCKS BIGGER	-0.08850564
-2.022247	BLOCKS BLUE	-0.2858976
-4.768545	BLOCKS BY	-0.1678703
-1.698087	BLOCKS CAN	-0.4151958
-3.556118	BLOCKS CAN'T	-0.2091713
-3.543003	BLOCKS CANNOT	-0.3349475
-3.830692	BLOCKS CLOSE	0.008228451
-2.086098	BLOCKS CLOSER	0.001069188
-2.817531	BLOCKS COULD	-0.18706
-4.015217	BLOCKS COULDN'T	0.02338135
-2.254348	BLOCKS DO	-0.2310793
-4.099538	BLOCKS DOES	-0.1169673
-3.560579	BLOCKS DOESN'T	-0.2171673
-3.421928	BLOCKS EIGHT	-0.2648491
-2.820784	BLOCKS ELEVEN	-0.2186879
-4.316247	BLOCKS EVER	0.02323943
-4.084298	BLOCKS FARTHER	0.01381022
-2.700275	BLOCKS FIRST	-0.2748351
-3.327353	BLOCKS FIVE	-0.2637646
-1.840285	BLOCKS FOR	-0.2868219
-3.247549	BLOCKS FOUR	-0.2640527
-2.393186	BLOCKS FURTHER	0.0005069077
-3.286303	BLOCKS GREATER	-0.1219745
-1.727625	BLOCKS GREEN	-0.6905323
-2.898906	BLOCKS HAS	0.07419765
-4.148756	BLOCKS HERE	-0.0742662
-1.565566	BLOCKS HIGH	-0.1014848
-4.069574	BLOCKS HIGHER	-0.2123776
-1.213857	BLOCKS IN	-0.1221115
-2.723691	BLOCKS INSTEAD	0.002042353
-2.346679	BLOCKS IS	-0.3053373
-4.432752	BLOCKS JUST	-0.2413769
-2.643612	BLOCKS LEFT	-0.3028554
-2.824062	BLOCKS LINED	0.0004249215
-2.048109	BLOCKS LONG	-0.1123894
-4.084298	BLOCKS LONGER	-0.2246657
-2.790059	BLOCKS MAY	-0.1135941
-2.767099	BLOCKS MIGHT	-0.01380932
-2.817303	BLOCKS MUST	-0.03849059
-3.707846	BLOCKS NEAR	-0.05021125
-4.204273	BLOCKS NEEDS	0.01879084
-3.001583	BLOCKS NEXT	-0.8874575
-3.923446	BLOCKS NINE	-0.2696764
-3.47851	BLOCKS NOT	-0.2885537
-2.203907	BLOCKS NUMBER	-0.1086249
-3.775844	BLOCKS OFF	0.007065386
-1.37678	BLOCKS ON	-0.4534554
-2.546525	BLOCKS ONE	-0.2880325
-3.512145	BLOCKS OR	-0.03322563
-3.235561	BLOCKS ORANGE	-0.3091599
-3.55547	BLOCKS OVER	0.04743916
-2.777318	BLOCKS PILED	0.0007196665
-2.800062	BLOCKS PLACED	-0.07903682
-2.762182	BLOCKS PLEASE	-0.2628709
-2.291128	BLOCKS PUT	-0.28239
-4.267942	BLOCKS REAL	-0.1611899
-4.342576	BLOCKS REALLY	-0.2422275
-2.024199	BLOCKS RED	-0.2777259
-2.528121	BLOCKS RIGHT	-0.2515638
-3.933912	BLOCKS SEVEN	-0.2692588
-2.825006	BLOCKS SHALL	-0.08829358
-4.291423	BLOCKS SHORTER	-0.09626144
-2.857517	BLOCKS SHOULD	-0.2787275
-4.204273	BLOCKS SHOULDN'T	-0.0374613
-2.437455	BLOCKS SITTING	-0.05735394
-3.462904	BLOCKS SIX	-0.2523314
-4.291423	BLOCKS SMALLER	-0.1189738
-1.9647	BLOCKS STACKED	0.0007650852
-1.56484	BLOCKS TALL	-0.1591743
-3.431815	BLOCKS TALLER	-0.2324005
-2.775844	BLOCKS TEN	-0.2169488
-1.727689	BLOCKS THAT	-0.260242
-3.452292	BLOCKS THERE	-0.2590033
-2.817204	BLOCKS THREE	-0.283821
-1.687879	BLOCKS TO	-0.2604461
-2.590118	BLOCKS TOGETHER	0.005014598
-1.763621	BLOCKS TOTAL	0.005698442
-4.291423	BLOCKS TRULY	-0.1562441
-2.802403	BLOCKS TWELVE	-0.2181746
-2.814782	BLOCKS TWO	-0.2667236
-4.467514	BLOCKS VERY	-0.2225424
-2.045931	BLOCKS WIDE	-0.1988781
-4.166484	BLOCKS WIDER	-0.2301432
-2.599405	BLOCKS WILL	-0.1554167
-1.468986	BLOCKS WITH	-0.2860579
-3.798508	BLOCKS WON'T	0.0146575
-2.319581	BLOCKS WOULD	-0.2845394
-4.701598	BLOCKS YOURSELF	0.05850634
-0.852716	BLUE </s>	0
-0.4226546	BLUE BLOCK	-0.3483509
-0.8519719	BLUE BLOCKS	-0.09449571
-1.959289	BLUE CASTLE	-0.09298086
-2.971654	BLUE CASTLES	0.01824868
-2.343506	BLUE COLUMN	0.03085649
-3.484313	BLUE COLUMNS	-0.07103755
-2.913446	BLUE FIRST	-0.2698942
-2.406818	BLUE HORIZONTAL	0.001612246
-2.98218	BLUE INSTEAD	0.01414436
-2.724326	BLUE LINE	-0.1665256
-3.702808	BLUE LINES	-0.04787719
-1.335901	BLUE ONE	-0.2606371
-1.778927	BLUE ONES	-0.02533969
-2.98928	BLUE PLEASE	-0.2592223
-2.098109	BLUE ROW	-0.01446706
-3.474329	BLUE ROWS	-0.08360935
-2.313642	BLUE SET	0.0006801784
-3.401778	BLUE SETS	0.008150548
-2.450053	BLUE STACK	-0.2470031
-3.526717	BLUE STACKS	-0.1019425
-2.211055	BLUE STAIRCASE	0.05015814
-3.34693	BLUE STAIRCASES	0.06508808
-3.537998	BLUE STAIRS	-0.02578744
-2.675302	BLUE STRAIGHT	0.00296551
-1.284848	BLUE STRUCTURE	-0.09242219
-2.150702	BLUE STRUCTURES	-0.1455694
-2.417993	BLUE TOWER	0.02521461
-3.504998	BLUE TOWERS	-0.1314138
-2.823315	BLUE UPRIGHT	0.0042018
-2.867362	BLUE VERTICAL	0.004659951
-1.954725	BLUE WALL	-0.09566408
-2.884785	BLUE WALLS	-0.2124236
-0.3006957	BOTH ENDS	0.0004780889
-0.5384512	BOTHER </s>	0
-0.5539683	BOTHER WITH	-0.2909534
-1.070491	BOTTOM BLOCK	-0.1155155
-1.689474	BOTTOM BLOCKS	-0.03950819
-1.632195	BOTTOM BLUE	-0.2724172
-1.681871	BOTTOM CASTLE	-0.05654207
-2.581558	BOTTOM CASTLES	-0.03527328
-2.367801	BOTTOM COLUMN	-0.005389355
-3.23477	BOTTOM COLUMNS	0
-2.220732	BOTTOM EIGHT	-0.08111796
-2.17642	BOTTOM FIVE	-0.07710072
-2.102911	BOTTOM FOUR	-0.1096794
-1.65336	BOTTOM GREEN	-0.3394685
-2.03065	BOTTOM HORIZONTAL	0.02479753
-2.441049	BOTTOM LINE	-0.1498595
-3.5358	BOTTOM LINES	0
-2.280528	BOTTOM NINE	-0.02972028
-1.617371	BOTTOM ORANGE	-0.2398121
-1.628136	BOTTOM RED	-0.2924571
-0.4487647	BOTTOM ROW	0.02350625
-3.23477	BOTTOM ROWS	0
-1.902332	BOTTOM SET	0.00993517
-2.757649	BOTTOM SETS	0.05892721
-2.257047	BOTTOM SEVEN	-0.04545012
-2.17642	BOTTOM SHAPE	-0.1544903
-2.280528	BOTTOM SHAPES	-0.02003893
-2.264958	BOTTOM SIX	-0.1274458
-2.187222	BOTTOM STACK	-0.05594636
-3.5358	BOTTOM STACKS	0
-1.936441	BOTTOM STAIRCASE	-0.07907689
-2.93374	BOTTOM STAIRCASES	0
-2.93374	BOTTOM STAIRS	-0.06603218
-2.389672	BOTTOM STRAIGHT	0.05107182
-0.9787059	BOTTOM STRUCTURE	-0.1096852
-1.795438	BOTTOM STRUCTURES	-0.09902079
-2.298129	BOTTOM THREE	-0.03806135
-2.257709	BOTTOM TOWER	-0.082524
-1.257733	BOTTOM TWO	-0.1118226
-2.93374	BOTTOM UPRIGHT	0.1249913
-2.5358	BOTTOM VERTICAL	0.06691431
-1.603037	BOTTOM WALL	-0.009700894
-2.757649	BOTTOM WALLS	-0.03753311
-0.3808246	BRILLIANT </s>	0
-2.05477	BRILLIANT MANY	-0.1569746
-1.18327	BRILLIANT THANK	0.02505434
-1.211298	BRILLIANT THANKS	-0.0884576
-2.372912	BRING ALL	-0.2393047
-1.736044	BRING ANOTHER	-0.08554733
-2.562714	BRING B1	-0.1458758
-2.384548	BRING B10	-0.1496898
-2.384548	BRING B11	-0.1490073
-2.295896	BRING B12	-0.1832474
-2.403652	BRING B2	-0.203463
-2.539342	BRING B3	-0.1350418
-2.419132	BRING B4	-0.1609396
-2.61595	BRING B5	-0.1536957
-2.340449	BRING B6	-0.2026535
-2.3538	BRING B7	-0.1908827
-2.437515	BRING B8	-0.08376148
-2.494285	BRING B9	-0.1871163
-1.594336	BRING BLOCK	-0.1784508
-0.9399324	BRING BLOCKS	-0.2727726
-2.909987	BRING EIGHT	0
-2.42213	BRING ELEVEN	-0.1891009
-2.857551	BRING FIVE	0
-2.698955	BRING FOUR	-0.1948242
-2.064228	BRING IT	-0.145071
-1.347187	BRING MINE	-0.1597394
-1.692685	BRING MY	-0.1801369
-1.740575	BRING NUMBER	-0.07866918
-2.064558	BRING ONE	-0.2331561
-3.82007	BRING SEVEN	0
-2.859606	BRING SIX	-0.09380813
-2.51904	BRING TEN	-0.1483865
-1.67584	BRING THAT	-0.2058604
-0.9022782	BRING THE	-0.2237529
-1.748188	BRING THESE	-0.1584414
-1.86541	BRING THEY	-0.1827544
-1.691704	BRING THIS	-0.1851864
-1.790686	BRING THOSE	-0.1576511
-2.293094	BRING THREE	-0.09611064
-2.564797	BRING TWELVE	-0.1144267
-1.755612	BRING YOUR	-0.1458949
-1.368284	BRING YOURS	-0.1778107
-0.459735	BUILD A	-0.4397038
-2.096812	BUILD ABOUT	-0.2697203
-1.908622	BUILD ALL	-0.2400247
-1.50187	BUILD AN	-0.2212199
-1.384394	BUILD ANOTHER	-0.02179044
-2.376796	BUILD EIGHT	-0.1359796
-2.348306	BUILD FIVE	-0.1484882
-2.293669	BUILD FOUR	-0.135869
-2.277131	BUILD IT	-0.2930353
-1.771222	BUILD MANY	-0.221765
-2.331948	BUILD NINE	-0.1281661
-1.602977	BUILD ONE	-0.2916967
-2.420506	BUILD SEVEN	-0.1354918
-1.700347	BUILD SEVERAL	-0.2138352
-2.295976	BUILD SIX	-0.1456359
-1.290939	BUILD SOME	-0.1410935
-1.59375	BUILD THAT	-0.2084038
-0.5750018	BUILD THE	-0.2032403
-2.552394	BUILD THESE	-0.1530393
-1.554019	BUILD THIS	-0.1688412
-2.499687	BUILD THOSE	-0.1817497
-2.325786	BUILD THREE	-0.1368371
-2.274852	BUILD TWO	-0.1398258
-1.239387	BUILDING ANOTHER	-0.03257102
-1.629384	BUILDING IT	-0.3014515
-1.169852	BUILDING THAT	-0.1785955
-0.481828	BUILDING THE	-0.183575
-1.169852	BUILDING THIS	-0.1517456
-1.256502	BUILDS ANOTHER	0.01687747
-1.706709	BUILDS IT	-0.2752471
-1.115776	BUILDS THAT	-0.1209901
-0.484481	BUILDS THE	-0.1155403
-1.188689	BUILDS THIS	-0.08816013
-0.5949714	BUNCH </s>	0
-1.410191	BUNCH CABOT	-0.140758
-1.357569	BUNCH COMPUTER	-0.14574
-1.092771	BUNCH FOR	-0.2678971
-0.7969703	BUNCH OF	-0.3296667
-1.490978	BUT A	-0.2966586
-1.435354	BUT AT	-0.07893285
-1.743108	BUT FEWER	0.00446558
-0.7503447	BUT MAKE	-0.2722453
-1.733124	BUT MAXIMUM	-0.100687
-1.83349	BUT NO	-0.2938371
-1.953331	BUT NOT	-0.2931716
-0.734868	BUT PLEASE	-0.2706865
-0.6020583	BUT THEY	0
-1.689893	BUT UP	-0.31906
-0.4673712	BY ALL	-0.2755008
-0.7987947	BY YOURSELF	0.0001261532
-0.7901949	BYE </s>	0
-0.7811274	BYE BYE	-0.1408812
-1.091646	BYE CABOT	-0.1419482
-1.097352	BYE COMPUTER	-0.1467312
-1.088505	BYE NOW	-0.1730386
-0.3980415	CABOT </s>	0
-1.776476	CABOT AND	-0.2500281
-2.072661	CABOT BUILD	-0.2188068
-2.494477	CABOT CREATE	-0.2297099
-1.970918	CABOT DO	-0.3020176
-1.804552	CABOT FINISH	-0.2898859
-2.071302	CABOT FIRST	-0.239943
-2.657035	CABOT FORM	-0.26105
-1.340765	CABOT I	-0.4520708
-2.065612	CABOT I'D	0.001159996
-2.044593	CABOT I'LL	-0.120435
-2.250467	CABOT I'M	-0.2942407
-1.708538	CABOT LET	-0.0296787
-1.612356	CABOT LET'S	-0.4237578
-2.154402	CABOT MAKE	-0.3347777
-1.977651	CABOT NEXT	-0.2546549
-1.990542	CABOT NOW	-0.3707678
-2.495061	CAN ANOTHER	-0.01322675
-3.618554	CAN B1	-0.2620169
-3.251203	CAN B10	-0.2615528
-3.262708	CAN B11	-0.2542214
-3.058708	CAN B12	-0.2582849
-3.592875	CAN B2	-0.2663305
-3.674972	CAN B3	-0.2454842
-3.413329	CAN B4	-0.2556807
-4.356733	CAN B5	-0.2392096
-3.405161	CAN B6	-0.257894
-3.262708	CAN B7	-0.2549776
-3.429434	CAN B8	-0.2739739
-3.438799	CAN B9	-0.2381935
-0.5469283	CAN BE	-0.2250799
-2.162745	CAN BLOCK	-0.2716606
-3.593908	CAN EIGHT	-0.1763519
-3.879612	CAN ELEVEN	-0.2763708
-3.389917	CAN FOUR	0
-1.285308	CAN HAVE	-0.2235633
-0.8893446	CAN I	-0.2734485
-2.594434	CAN IT	-0.2963665
-2.069425	CAN MAKE	-0.2916046
-2.998689	CAN MY	-0.1669573
-4.833855	CAN NINE	-0.1768949
-3.148854	CAN NUMBER	-0.06769088
-2.738372	CAN ONE	-0.2577671
-0.8638751	CAN ONLY	-0.3456794
-1.60206	CAN REUSE	0
-4.657763	CAN SEVEN	-0.2051778
-3.958793	CAN TEN	-0.2721252
-2.398284	CAN THAT	-0.2454819
