
\data\
ngram 1=492
ngram 2=9771
ngram 3=59319

\1-grams:
-0.8465208	</s>	0
-99	<s>	-0.7859011
-1.466957	A	-0.8975893
-2.654166	ABOUT	-0.2876306
-3.780125	ABOVE	-0.3131086
-4.034503	ABSOLUTELY	-0.2897567
-4.01007	ACCEPTABLE	-0.3004559
-4.138827	ACCURATE	-0.3024948
-4.405168	ACTUALLY	-0.3011687
-2.494106	ADD	-0.7716112
-3.865336	AFFIRMATIVE	-0.3026695
-3.252431	AGAIN	-0.3028202
-2.7761	ALL	-0.3045684
-4.113382	ALMOST	-0.2973681
-3.421829	ALRIGHT	-0.3094639
-3.820567	ALTOGETHER	-0.2980689
-2.469354	AM	-0.301517
-2.477551	AN	-0.7880263
-2.241674	AND	-0.6364784
-2.229507	ANOTHER	-0.8188537
-2.899927	ANY	-0.6009203
-3.16657	ANYTHING	-0.3006999
-4.744416	APPEARS	-0.255024
-2.183163	ARE	-0.5819913
-3.454018	ARRANGE	-0.3199359
-2.7111	AS	-0.3036857
-3.50489	ASKING	-0.3027819
-2.422436	AT	-0.5906529
-2.792773	AVAILABLE	-0.3051095
-4.530894	AVERAGE	-0.3019468
-3.090174	AWARE	-0.3007737
-3.491297	AWAY	-0.3005759
-5.132167	AWESOME	-0.287373
-4.837477	AWFUL	-0.3010032
-5.669986	AWFULLY	-0.2208365
-2.934628	B1	-0.5867936
-2.511369	B10	-0.741649
-2.511075	B11	-0.7419302
-2.300943	B12	-0.6922682
-2.935407	B2	-0.5740661
-2.935527	B3	-0.5762749
-2.674572	B4	-0.5076145
-3.69192	B5	-0.3079984
-2.673126	B6	-0.6025289
-2.511113	B7	-0.7388141
-2.783961	B8	-0.5062099
-2.673771	B9	-0.6053903
-2.610017	BACK	-0.5389732
-3.719256	BAD	-0.3009968
-2.59792	BE	-0.3044495
-4.060926	BEAUTIFUL	-0.3025562
-3.194497	BEGIN	-0.2990739
-3.659156	BELIEVE	-0.3019555
-2.892107	BESIDE	-0.6080135
-3.752218	BET	-0.3027152
-4.143647	BETWEEN	-0.3000964
-3.60506	BIT	-0.2983525
-1.542632	BLOCK	-0.7730365
-1.673724	BLOCKS	-0.8665839
-2.235981	BLUE	-0.6984307
-3.679204	BOTHER	-0.300373
-2.604734	BOTTOM	-0.7476739
-5.207588	BRILLIANT	-0.2847993
-2.032535	BUILD	-0.9716734
-3.93699	BUILDING	-0.3011484
-4.341097	BUILDS	-0.2994931
-3.663841	BUNCH	-0.3000586
-4.12685	BUT	-0.3008164
-3.477489	BY	-0.3000552
-3.528615	BYE	-0.3016368
-2.93353	CABOT	-0.3053905
-2.32476	CAN	-0.6992748
-2.887873	CAN'T	-0.5959677
-2.926438	CANCEL	-0.5966589
-3.469341	CANNOT	-0.2984281
-3.865506	CATCH	-0.2968569
-3.927457	CERTAIN	-0.3008386
-4.243475	CERTAINLY	-0.2967942
-5.070649	CLASS	-0.2891869
-4.28662	CLEARLY	-0.2965475
-3.484869	CLOSE	-0.3019217
-2.78806	CLOSER	-0.3020487
-2.566611	COLOR	-0.5316541
-3.170437	COLUMN	-0.3007123
-3.918322	COLUMNS	-0.2958284
-5.175136	COMPARATIVELY	-0.2522906
-4.467907	COMPLETELY	-0.2800471
-2.926771	COMPUTER	-0.3053975
-3.330137	CONCERNED	-0.3030913
-3.716589	CONFUSED	-0.3027273
-4.034	COOL	-0.302575
-3.978242	CORRECT	-0.3026104
-2.752205	COULD	-0.2966127
-3.742231	COUPLE	-0.3038948
-3.437498	COURSE	-0.2997891
-2.555509	CREATE	-0.8873821
-4.361955	CREATES	-0.2993593
-3.953565	CREATING	-0.3011063
-3.55646	DAMN	-0.3027709
-3.555542	DARN	-0.3027712
-4.280377	DEFINITELY	-0.2965847
-3.465595	DEMONSTRATE	-0.3047039
-3.462217	DESCRIBE	-0.3047061
-2.722982	DIAMETER	-0.5353
-2.715925	DID	-0.5884302
-3.412308	DIDN'T	-0.3007972
-2.691669	DIFFERENT	-0.5913171
-1.911887	DO	-0.6481748
-3.718284	DOES	-0.2983963
-3.877069	DOESN'T	-0.3005397
-3.282507	DOING	-0.3043879
-2.661439	DON'T	-0.5950763
-2.380487	DONE	-0.9265742
-4.551886	DOUBT	-0.2943659
-4.773735	DREADFUL	-0.3012574
-3.244411	DROP	-0.3214841
-2.80475	EIGHT	-0.5972878
-4.12685	EIGHTH	-0.2987491
-3.059033	ELEVEN	-0.3144958
-3.16657	ELSE	-0.3039783
-2.552202	END	-0.5554917
-2.884017	ENOUGH	-0.5939717
-4.445324	ENTIRELY	-0.2799904
-3.997427	EVER	-0.3002286
-3.593164	EXACTLY	-0.3054628
-3.436165	EXAMPLE	-0.3024975
-5.151472	EXCELLENT	-0.2867529
-5.113684	EXCEPTIONAL	-0.2879434
-5.599948	EXCEPTIONALLY	-0.2301969
-3.763517	EXCUSE	-0.3004786
-3.598749	EXTENT	-0.3016921
-5.780684	EXTRAORDINARILY	-0.2112619
-5.628593	EXTREMELY	-0.2264638
-5.110678	FABULOUS	-0.288034
-4.022603	FACT	-0.302396
-4.503408	FAIR	-0.3020034
-5.101785	FAIRLY	-0.2589572
-4.441458	FALSE	-0.3021183
-5.11671	FANTASTIC	-0.2878515
-2.897646	FAR	-0.2997649
-4.101198	FARTHER	-0.3005969
-3.914492	FEW	-0.3037887
-4.163481	FEWER	-0.3006101
-4.104433	FIFTH	-0.299536
-3.630771	FINALLY	-0.3026316
-2.882102	FINE	-0.5378484
-2.686868	FINISH	-0.5929238
-2.752665	FINISHED	-0.5790039
-2.441638	FIRST	-0.6256436
-2.687252	FIVE	-0.6010661
-2.479935	FOR	-0.6024243
-2.945896	FORGET	-0.5969542
-2.915848	FORM	-0.3068948
-3.958812	FORMING	-0.3010927
-4.36733	FORMS	-0.2993238
-2.802519	FOUR	-0.6039814
-4.120064	FOURTH	-0.2993674
-3.055695	FROM	-0.3187599
-4.277729	FUNNY	-0.3023539
-4.106802	FURTHER	-0.3005931
-3.392263	GET	-0.2983405
-3.723288	GO	-0.3013908
-2.729919	GOING	-0.590703
-3.0646	GONNA	-0.3023832
-2.656201	GOOD	-0.7081209
-3.715382	GOODBYE	-0.3016822
-3.720962	GOT	-0.3023735
-3.555959	GOTCHA	-0.3027711
-2.819325	GREAT	-0.7064469
-1.97588	GREEN	-0.9669863
-3.546788	GREETINGS	-0.3027731
-4.57569	GUESS	-0.3001658
-4.532473	GUESSING	-0.300358
-4.494619	HAD	-0.3020207
-3.769346	HANG	-0.3078648
-3.337447	HAS	-0.3006384
-2.698328	HAVE	-0.3059404
-4.719378	HAVEN'T	-0.3014467
-3.835248	HELLO	-0.3011204
-3.790604	HERE	-0.3008117
-3.017451	HERE'S	-0.1245907
-3.816592	HEY	-0.3011438
-3.87812	HI	-0.3010026
-3.689528	HIGH	-0.3045723
-4.102666	HIGHEST	-0.3006021
-4.0792	HMM	-0.2917854
-3.104079	HORIZONTAL	-0.298884
-4.776501	HORRIBLE	-0.3012471
-2.556051	HOW	-0.5878508
-4.077532	HUH	-0.2917996
-1.590935	I	-0.9014218
-3.105616	I'D	-0.3001118
-2.971603	I'LL	-0.2986393
-2.484976	I'M	-0.5989836
-3.758828	I'VE	-0.3004062
-3.75803	IGNORE	-0.2968944
-3.726368	IMPOSSIBLE	-0.3027241
-2.533123	IN	-0.5843894
-4.409319	INACCURATE	-0.3021718
-4.133428	INCORRECT	-0.3024994
-5.766896	INCREDIBLY	-0.2066168
-3.554959	INDEED	-0.3027713
-2.747638	INSTEAD	-0.7112404
-4.412907	INVALID	-0.302166
-2.081634	IS	-0.6370748
-1.955711	IT	-1.129006
-4.459133	IT'S	-0.2884423
-2.845048	ITS	-0.6011382
-3.436102	JOB	-0.3014552
-3.018224	JUST	-0.3038713
-4.638577	KIND	-0.2997723
-4.593528	KINDA	-0.2899432
-2.628613	KNOW	-0.291486
-3.297765	LAST	-0.3129671
-3.1859	LATER	-0.3028271
-4.12037	LEAST	-0.3059344
-2.774758	LEFT	-0.6102315
-3.847818	LEFTMOST	-0.3062929
-3.894012	LESS	-0.2977524
-2.569848	LET	-0.2995069
-2.043129	LET'S	-0.9438467
-2.689528	LIKE	-0.3007408
-4.144941	LIKELY	-0.3014456
-2.682957	LINE	-0.5912511
-5.059859	LINES	-0.2830898
-3.433701	LITTLE	-0.2985753
-4.016291	LOCATION	-0.3002362
-3.684223	LONG	-0.304611
-3.792903	LOOK	-0.2986835
-3.361422	LOOKING	-0.3003711
-3.099035	LOOKS	-0.2960088
-3.681316	LOT	-0.3000323
-4.770987	LOUSY	-0.3012676
-4.08509	LOWEST	-0.3010858
-5.138507	MAGNIFICENT	-0.2871722
-2.030037	MAKE	-1.024915
-4.333526	MAKES	-0.2995401
-3.951069	MAKING	-0.3011128
-2.881535	MANY	-0.30196
-5.070649	MARVELOUS	-0.2891869
-4.192503	MATTER	-0.3004336
-3.980233	MAXIMUM	-0.3013064
-3.110289	MAY	-0.2973219
-3.610233	MAYBE	-0.3023172
-2.540909	ME	-0.5365027
-4.106505	MEAN	-0.2978028
-3.707025	MEANS	-0.3027304
-4.557716	MEDIOCRE	-0.3018882
-2.860663	MIDDLE	-0.5921069
-3.737259	MIND	-0.297907
-2.841311	MINE	-0.5268227
-3.6749	MINIMUM	-0.3078433
-3.998813	MINUTE	-0.3025979
-5.113684	MODERATELY	-0.2579289
-2.771344	MORE	-0.5345996
-4.045446	MOST	-0.2977541
-2.233605	MOVE	-0.6979402
-3.808601	MOVES	-0.3099251
-3.641313	MOVING	-0.3117225
-3.346786	MUCH	-0.296711
-3.765947	MUST	-0.299607
-2.529597	MY	-0.5989074
-3.550318	NAH	-0.286604
-4.741846	NASTY	-0.3013713
-3.480145	NEAR	-0.3162346
-4.099735	NEARLY	-0.2974229
-2.422056	NEED	-0.6060736
-4.097986	NEEDED	-0.3025284
-3.555876	NEGATIVE	-0.3027711
-3.737259	NEVER	-0.3008237
-2.182304	NEXT	-1.298931
-4.051154	NICE	-0.3025632
-3.215522	NINE	-0.3170873
-4.12129	NINTH	-0.2983812
-1.998451	NO	-0.7063311
-3.54777	NOPE	-0.2866248
-2.238952	NOT	-0.2901775
-4.995584	NOTCH	-0.2910979
-2.122707	NOW	-0.7321066
-2.645172	NUMBER	-0.5347444
-3.260518	NUMBERS	-0.3013809
-4.266437	OBVIOUSLY	-0.2966659
-4.269017	ODD	-0.3023641
-1.664635	OF	-0.7225423
-3.639488	OFF	-0.2990089
-2.740478	OH	-0.5855186
-2.739675	OK	-0.5318474
-2.384261	OKAY	-1.121106
-1.641064	ON	-0.9954275
-3.45382	ONCE	-0.3010632
-1.836201	ONE	-0.7176744
-3.044365	ONES	-0.2945219
-3.189333	ONLY	-0.3054275
-4.075317	OOH	-0.2918186
-3.558556	OOPS	-0.3027705
-3.034402	OR	-0.3179798
-2.271387	ORANGE	-0.619332
-2.982769	OTHER	-0.3143766
-2.904356	OUT	-0.5923938
-5.041597	OUTSTANDING	-0.2899636
-3.587829	OVER	-0.3149371
-3.284559	OWN	-0.3023185
-3.949207	PARTICULAR	-0.3007041
-4.107396	PERHAPS	-0.3025209
-2.699082	PICK	-0.3226674
-3.457532	PILE	-0.3192017
-2.116696	PLACE	-0.7014725
-3.605434	PLAN	-0.3042122
-2.371602	PLEASE	-0.6308356
-3.489717	POINT	-0.3017882
-4.009121	POSITION	-0.3002594
-3.171572	POSITIVE	-0.3006777
-4.254178	POSITIVELY	-0.2967352
-4.177226	POSSIBLY	-0.3013872
-4.09192	PRACTICALLY	-0.2974534
-3.583716	PRECISELY	-0.3054864
-4.087639	PRETTY	-0.2969498
-4.136596	PROBABLY	-0.3014599
-4.112178	PROPER	-0.3025171
-2.815286	PUSH	-0.6191772
-1.7177	PUT	-0.8114774
-4.543692	QUESTION	-0.2944545
-3.607028	QUITE	-0.3008351
-5.070649	RATE	-0.2891869
-5.122827	RATHER	-0.2571249
-3.300353	READY	-0.3045061
-4.001135	REAL	-0.2956692
-3.221319	REALLY	-0.2991795
-5.168242	REASONABLY	-0.252951
-2.015697	RED	-0.8043962
-5.207588	RELATIVELY	-0.2490862
-5.609289	REMARKABLY	-0.2289943
-3.240194	REPEAT	-0.2943538
-3.527362	REST	-0.3104483
-3.017451	REUSE	-0.1231332
-2.535571	RIGHT	-0.7035967
-3.84456	RIGHTMOST	-0.3061514
-4.108885	ROUGHLY	-0.2973864
-2.00515	ROW	-0.9513222
-5.129031	ROWS	-0.2805918
-3.459601	SAID	-0.3027905
-3.102401	SAY	-0.2981362
-3.765135	SCRATCH	-0.2968922
-2.945548	SECOND	-0.5950939
-4.070103	SEE	-0.2967426
-3.788031	SEEM	-0.2987059
-3.885191	SEEMS	-0.2914014
-5.648797	SERIOUSLY	-0.2296747
-2.722406	SET	-0.3007903
-5.054562	SETS	-0.2981222
-3.221241	SEVEN	-0.3097057
-4.127161	SEVENTH	-0.298783
-3.086334	SEVERAL	-0.3047924
-5.508618	SHADE	-0.2558261
-2.909207	SHALL	-0.5944613
-3.162974	SHAPE	-0.3003565
-3.929229	SHAPES	-0.2972039
-3.395597	SHELF	-0.3013176
-2.808482	SHOULD	-0.3092445
-3.641008	SHOW	-0.3010669
-2.888501	SIDE	-0.5924165
-2.977073	SINGLE	-0.3105748
-3.245064	SIT	-0.3214803
-2.684953	SITTING	-0.3043225
-2.687534	SIX	-0.5206445
-4.117014	SIXTH	-0.2990863
-5.54777	SLIGHTLY	-0.2522125
-2.881694	SO	-0.2991018
-2.587246	SOME	-0.3188963
-5.024073	SOMEWHAT	-0.2651902
-3.628692	SORRY	-0.3027532
-4.628594	SORT	-0.2997957
-2.406919	STACK	-0.7914087
-3.91297	STACKS	-0.2958448
-2.247508	STAIRCASE	-1.132048
-5.125918	STAIRCASES	-0.280712
-2.720401	STAIRS	-0.3020523
-2.800154	START	-0.5992307
-2.405222	STEP	-0.9052005
-2.655393	STEPS	-0.6028868
-5.138507	STERLING	-0.2871722
-3.414051	STRAIGHT	-0.3008386
-4.261322	STRANGE	-0.302373
-2.220115	STRUCTURE	-0.6024402
-3.1664	STRUCTURES	-0.3005033
-3.014201	SUPER	-0.5095727
-5.104729	SUPERB	-0.2882116
-4.289323	SUPPOSE	-0.3011474
-3.327958	SUPPOSED	-0.3019438
-3.045446	SURE	-0.2967308
-4.285722	SURELY	-0.2965529
-3.017451	SURFACES	-0.1218981
-1.979383	TABLE	-1.549202
-2.496341	TAKE	-0.6216574
-3.57325	TALK	-0.3019053
-3.660961	TALL	-0.3047751
-2.722982	TALLER	-0.6010938
-2.924502	TEACH	-0.5957968
-2.657951	TELL	-0.7771709
-3.058794	TEN	-0.3149728
-4.824888	TERRIBLE	-0.3010564
-5.727978	TERRIBLY	-0.2189529
-5.107693	TERRIFIC	-0.2881234
-2.676198	THAN	-0.6089326
-3.206765	THANK	-0.2986688
-3.197266	THANKS	-0.307671
-1.855997	THAT	-0.7498811
-2.621536	THAT'S	-0.5649449
-1.420913	THE	-0.8892742
-3.333727	THEIR	-0.3009924
-2.756478	THEM	-0.5926344
-2.786027	THERE	-0.6021897
-3.354541	THESE	-0.2918009
-3.754454	THING	-0.3027144
-2.978949	THINK	-0.3077591
-3.885012	THINKING	-0.3004525
-4.109482	THIRD	-0.2988039
-2.132441	THIS	-0.5987005
-4.506378	THOROUGHLY	-0.2767799
-3.357597	THOSE	-0.2917759
-2.400924	THREE	-0.6122182
-1.590133	TO	-0.7138644
-3.902459	TODAY	-0.3026518
-2.499578	TOGETHER	-0.5340338
-4.511624	TOO	-0.2874023
-2.126251	TOP	-0.6283737
-4.099735	TOPMOST	-0.3010156
-4.476861	TOTALLY	-0.2789878
-5.472706	TOUCH	-0.2589399
-2.393738	TOWER	-0.7016987
-3.910129	TOWERS	-0.2958535
-3.533107	TRUE	-0.3027761
-4.028264	TRULY	-0.2960144
-4.066571	TRUTH	-0.3023031
-3.544993	TRY	-0.2963813
-3.05829	TWELVE	-0.3195947
-2.523208	TWO	-0.6505316
-4.081714	UGH	-0.2917637
-5.669986	UNBELIEVABLY	-0.2208365
-3.30277	UNDERSTAND	-0.2980956
-2.926948	UNDO	-0.5966558
-4.272481	UNDOUBTEDLY	-0.296631
-3.7195	UNLIKELY	-0.3027264
-4.26302	UNQUESTIONABLY	-0.2966854
-2.512409	UP	-0.6044549
-3.386741	UPRIGHT	-0.2988298
-3.017451	UPWARDS	-0.1003872
-2.602413	US	-0.3342925
-2.610092	USE	-0.614634
-4.482465	UTTERLY	-0.2793171
-5.609289	VAGUELY	-0.2460559
-4.133744	VALID	-0.3024991
-3.387987	VERTICAL	-0.2988295
-3.416467	VERY	-0.3003882
-3.48693	VICINITY	-0.3007301
-4.089346	VIRTUALLY	-0.2974634
-3.701153	WAIT	-0.3067686
-4.006521	WAITING	-0.3001885
-3.54078	WANNA	-0.3174211
-2.027834	WANT	-1.175871
-4.073939	WANTED	-0.3025467
-3.206019	WAS	-0.2929098
-3.77567	WASN'T	-0.3021331
-3.765271	WAY	-0.3027105
-2.30462	WE	-0.6375935
-3.622419	WE'LL	-0.3022284
-2.681851	WE'RE	-0.7752903
-2.979304	WE'VE	-0.6007656
-4.28082	WEIRD	-0.3023502
-3.823804	WELL	-0.2986856
-2.015293	WHAT	-0.5641178
-3.689528	WHAT'S	-0.3003157
-2.761167	WHO	-0.5987464
-3.650974	WIDE	-0.3048429
-2.424647	WILL	-0.533768
-2.199062	WITH	-0.6053578
-4.24715	WITHOUT	-0.3001867
-5.104729	WONDERFUL	-0.2882116
-3.921023	WORK	-0.3078055
-3.389351	WORKING	-0.3079475
-2.76027	WOULD	-0.2940287
-4.160112	WRONG	-0.302476
-3.082219	YEAH	-0.2854053
-2.335046	YES	-0.7042417
-3.74519	YET	-0.3027177
-1.727876	YOU	-0.6601727
-3.751562	YOU'RE	-0.3078705
-4.094221	YOU'VE	-0.2998864
-2.94962	YOUR	-0.3076874
-3.322754	YOURS	-0.2962249
-3.60684	YOURSELF	-0.3027589
-3.080595	YUP	-0.2854105

\2-grams:
-1.927849	<s> A	-0.3104357
-3.792219	<s> ABOUT	-0.3135218
-4.999459	<s> ABOVE	0.03619932
-3.596207	<s> ABSOLUTELY	-0.03332195
-4.385049	<s> ACCEPTABLE	0.01684037
-4.314062	<s> ACCURATE	0.003611922
-3.548145	<s> ACTUALLY	0
-2.529027	<s> ADD	0.04212487
-3.007892	<s> AFFIRMATIVE	0
-3.398235	<s> ALL	-0.2830538
-3.50221	<s> ALMOST	0.001339674
-2.681717	<s> ALRIGHT	0.001141131
-3.485525	<s> ALTOGETHER	-0.01539493
-2.752241	<s> AM	-0.2323191
-3.1047	<s> AN	-0.2401318
-1.783513	<s> AND	-0.242299
-2.609231	<s> ANOTHER	-0.07485485
-2.328972	<s> ANY	0
-2.023837	<s> ARE	-0.2437987
-3.847406	<s> ARRANGE	0.04102564
-2.412958	<s> AS	-0.1781529
-3.044169	<s> AT	-0.1061946
-3.881678	<s> AVERAGE	0.0005624294
-5.183984	<s> AWAY	0.02340916
-5.812373	<s> AWESOME	0.100581
-4.690157	<s> AWFUL	0.007451266
-5.335251	<s> AWFULLY	-0.05629919
-3.457951	<s> B1	0
-2.98115	<s> B10	0
-2.98083	<s> B11	-0.09353338
-2.759173	<s> B12	-0.06682707
-3.457471	<s> B2	0
-3.456992	<s> B3	0
-3.157161	<s> B4	0
-6.414432	<s> B5	0
-3.157161	<s> B6	0
-3.281699	<s> B8	0
-3.156441	<s> B9	-0.09102455
-2.849926	<s> BACK	-0.06954044
-4.224101	<s> BAD	-0.1107345
-3.818936	<s> BEAUTIFUL	0.0009728968
-3.469457	<s> BEGIN	0.000456661
-3.432319	<s> BESIDE	0.01280449
-3.831234	<s> BETWEEN	0.007223099
-2.146022	<s> BLOCK	-0.1309828
-2.415033	<s> BLOCKS	-0.1528531
-5.511342	<s> BRILLIANT	-0.08484307
-2.551361	<s> BUILD	0.01920837
-2.84953	<s> BY	-0.149342
-2.843423	<s> BYE	0.0002251565
-2.344506	<s> CABOT	0.0003869236
-1.682348	<s> CAN	-0.348289
-2.98603	<s> CAN'T	-0.1348435
-2.381823	<s> CANCEL	0
-3.143754	<s> CANNOT	-0.1323497
-3.637731	<s> CERTAINLY	0.001841336
-3.698429	<s> CLEARLY	0.002218127
-4.923071	<s> CLOSE	0.01366797
-2.784005	<s> CLOSER	-0.023294
-4.346247	<s> COLUMN	-0.2709228
-3.074187	<s> COLUMNS	4.175305e-05
-4.937311	<s> COMPARATIVELY	-0.05737343
-4.427661	<s> COMPLETELY	0.02163166
-2.336592	<s> COMPUTER	0.0003786981
-3.760256	<s> COOL	0.0008298159
-4.353735	<s> CORRECT	0.004103601
-1.92025	<s> COULD	2.413988e-06
-2.552494	<s> CREATE	0.002216399
-2.698931	<s> DAMN	0
-2.698012	<s> DARN	0
-3.713729	<s> DEFINITELY	0.002426267
-1.929453	<s> DO	-0.2020142
-2.357651	<s> DON'T	-0.3933391
-2.89145	<s> DONE	-0.4408278
-4.666244	<s> DREADFUL	0.00722006
-3.637731	<s> DROP	0.02249727
-3.340109	<s> EIGHT	-0.1197353
-6.113403	<s> ELEVEN	-0.1163753
-3.161664	<s> END	-0.2727597
-4.441305	<s> ENTIRELY	0.02944326
-4.385049	<s> EVER	0.00377205
-3.484503	<s> EXACTLY	0.004927635
-5.636281	<s> EXCELLENT	0.004274577
-5.37304	<s> EXCEPTIONAL	-0.001126051
-5.37304	<s> EXCEPTIONALLY	-0.01381087
-2.906037	<s> EXCUSE	0
-5.46019	<s> EXTRAORDINARILY	-0.03229887
-5.335251	<s> EXTREMELY	-0.03920016
-5.268305	<s> FABULOUS	0.07668151
-3.884233	<s> FAIR	0.0006276667
-4.846231	<s> FAIRLY	-0.04172684
-4.385049	<s> FALSE	0.003932923
-5.300489	<s> FANTASTIC	0.0321469
-5.113403	<s> FARTHER	0.01991042
-4.450645	<s> FEWER	0.004315048
-2.773256	<s> FINALLY	0
-2.333129	<s> FINE	0.001743615
-2.168709	<s> FINISH	0.0009024739
-2.158129	<s> FIRST	-0.1719745
-3.195508	<s> FIVE	-0.2250129
-3.268413	<s> FOR	-0.2950329
-2.422817	<s> FORGET	0
-3.564399	<s> FORM	-0.1172832
-3.341209	<s> FOUR	-0.2150634
-5.210313	<s> FURTHER	0.02452683
-2.278004	<s> GOOD	-0.1733745
-2.857889	<s> GOODBYE	0
-3.205186	<s> GOT	0.0001480579
-2.698429	<s> GOTCHA	0
-2.290367	<s> GREAT	0.0349384
-2.689256	<s> GREETINGS	0
-2.911869	<s> HANG	0
-2.977793	<s> HELLO	0
-4.733191	<s> HERE	-0.02882922
-2.595496	<s> HERE'S	0
-2.959131	<s> HEY	0
-3.020682	<s> HI	0
-3.334889	<s> HMM	0.001103103
-4.014759	<s> HORIZONTAL	0.003367126
-4.64358	<s> HORRIBLE	0.006772459
-1.996219	<s> HOW	-0.09939124
-3.339616	<s> HUH	0.001169682
-1.018394	<s> I	-0.3008949
-2.309707	<s> I'D	4.500151e-06
-2.197502	<s> I'LL	5.689263e-05
-1.917855	<s> I'M	-0.1726206
-2.901348	<s> I'VE	0
-2.900549	<s> IGNORE	0
-3.946085	<s> IMPOSSIBLE	0.001575738
-3.053715	<s> IN	-0.1326566
-4.25607	<s> INACCURATE	0.002796113
-4.290581	<s> INCORRECT	0.003409237
-5.511342	<s> INCREDIBLY	-0.01148279
-2.697428	<s> INDEED	0
-4.284099	<s> INVALID	0.003020525
-2.112388	<s> IS	-0.2970685
-2.454705	<s> IT	-0.2907775
-3.983069	<s> IT'S	0.01260978
-3.381814	<s> JUST	-0.2307988
-4.164013	<s> KIND	0.001441002
-3.961114	<s> KINDA	-0.02509183
-3.452702	<s> LEFT	-0.2164552
-1.879696	<s> LET	8.165836e-06
-1.38558	<s> LET'S	0.02716923
-3.555895	<s> LIKELY	0.000644803
-3.285177	<s> LINE	-0.2130457
-4.909283	<s> LINES	0.04859972
-4.615092	<s> LOUSY	0.006272972
-5.300489	<s> MAGNIFICENT	-0.01999655
-1.62589	<s> MAKE	0.1599191
-3.249188	<s> MANY	-0.279779
-5.511342	<s> MARVELOUS	0.07141294
-4.594889	<s> MAXIMUM	-0.08607998
-2.36537	<s> MAY	-0.09105302
-2.807729	<s> MAYBE	2.986193e-05
-3.918888	<s> MEDIOCRE	0.000635922
-3.453177	<s> MINE	-0.259627
-4.021736	<s> MINIMUM	-0.127296
-5.07201	<s> MODERATELY	-0.06938984
-3.084698	<s> MORE	-0.2387036
-3.416609	<s> MOST	-0.1464961
-2.403676	<s> MOVE	0.0161196
-3.449866	<s> MY	-0.08361805
-2.740031	<s> NAH	0.0004055202
-4.601519	<s> NASTY	0.006140172
-5.034221	<s> NEAR	0.02468905
-3.749791	<s> NEARLY	0.003746659
-2.698346	<s> NEGATIVE	0
-2.879772	<s> NEVER	0
-2.289198	<s> NEXT	-0.8265009
-3.759294	<s> NICE	0.0008154809
-3.917503	<s> NINE	-0.1313223
-1.254343	<s> NO	0.0004439354
-2.741781	<s> NOPE	0.0004420578
-2.214622	<s> NOT	-0.1703176
-1.621696	<s> NOW	-0.4621268
-3.451282	<s> NUMBER	-0.06027228
-3.676445	<s> OBVIOUSLY	0.002100766
-2.189869	<s> OF	-0.2937529
-2.066951	<s> OH	0.0001021028
-2.14458	<s> OK	0.00203079
-1.702824	<s> OKAY	0
-2.136227	<s> ON	-0.2517763
-2.48652	<s> ONE	-0.3081743
-3.678834	<s> ONLY	-0.2487982
-3.327006	<s> OOH	0.001049966
-2.701026	<s> OOPS	0
-5.238341	<s> OUTSTANDING	0.08274263
-4.485013	<s> OVER	-0.06611665
-3.466509	<s> PERHAPS	0.0002243817
-2.399996	<s> PICK	0.001924962
-3.865429	<s> PILE	0.01847976
-1.548184	<s> PLACE	0.08653337
-1.87079	<s> PLEASE	0.001064479
-3.561343	<s> POSITIVE	-0.2753143
-3.657036	<s> POSITIVELY	0.001971543
-3.586418	<s> POSSIBLY	0.000688076
-3.472424	<s> PRACTICALLY	0.001220375
-3.479934	<s> PRECISELY	0.004889399
-3.497979	<s> PRETTY	-0.01178393
-3.535911	<s> PROBABLY	0.0005963147
-4.321011	<s> PROPER	0.003697664
-3.236708	<s> PUSH	0.04074973
-1.161878	<s> PUT	0.06182337
-3.462609	<s> QUITE	-0.145731
-4.909283	<s> RATHER	-0.03434427
-4.474913	<s> REAL	0.008749306
-4.349974	<s> REALLY	-0.2428158
-4.882953	<s> REASONABLY	-0.05755948
-4.999459	<s> RELATIVELY	-0.03635752
-5.268305	<s> REMARKABLY	-0.0158831
-2.860065	<s> REPEAT	0.0001628101
-3.140435	<s> RIGHT	-0.2706644
-3.468964	<s> ROUGHLY	0.001130521
-2.474031	<s> ROW	-0.2708687
-4.77098	<s> ROWS	0.03160164
-3.435796	<s> SAY	-0.2100298
-2.907657	<s> SCRATCH	0
-5.511342	<s> SERIOUSLY	-0.01708315
-3.894605	<s> SET	0.001321793
-4.608252	<s> SETS	0.004091978
-3.965726	<s> SEVEN	-0.127913
-2.442657	<s> SHALL	0.0004383326
-3.481452	<s> SHAPES	0.001836896
-2.961267	<s> SHOULD	-0.2285119
-3.643581	<s> SIT	0.03172603
-3.200522	<s> SIX	-0.1458563
-5.569334	<s> SLIGHTLY	-0.0326051
-2.964183	<s> SO	-0.1111925
-3.573699	<s> SOME	-0.1523879
-4.733191	<s> SOMEWHAT	-0.04081321
-2.9925	<s> SORRY	7.677078e-05
-4.147261	<s> SORT	0.001371622
-2.90834	<s> STACK	-0.1805018
-3.071221	<s> STACKS	4.87864e-05
-2.82119	<s> STAIRCASE	-0.1969944
-4.690157	<s> STAIRCASES	0.02454045
-3.158762	<s> START	0.0008906722
-5.238341	<s> STERLING	0.06902809
-4.361354	<s> STRAIGHT	0.007381648
-3.07004	<s> STRUCTURES	-0.2014924
-2.594969	<s> SUPER	-0.01010934
-5.569334	<s> SUPERB	0.04932991
-2.816518	<s> SURE	-0.228878
-3.706862	<s> SURELY	0.002317041
-2.145065	<s> TAKE	0.003162384
-3.04466	<s> TALK	0.0001011789
-5.937311	<s> TEN	-0.2005166
-4.658558	<s> TERRIBLE	0.006868303
-5.569334	<s> TERRIBLY	-0.01395409
-5.715463	<s> TERRIFIC	0.1522283
-2.531339	<s> THANK	1.972914e-05
-2.71183	<s> THANKS	0.0003071725
-2.202401	<s> THAT	-0.2401751
-2.150547	<s> THAT'S	0.005319178
-2.314863	<s> THE	-0.1758823
-3.390912	<s> THEM	-0.2796774
-3.427817	<s> THERE	-0.2711779
-4.16892	<s> THESE	-0.227092
-2.050242	<s> THIS	-0.176175
-4.479934	<s> THOROUGHLY	-0.01118372
-4.183984	<s> THOSE	-0.2282454
-2.876138	<s> THREE	-0.1802917
-2.201794	<s> TO	-0.303845
-2.560851	<s> TOP	-0.2499015
-4.505947	<s> TOTALLY	0.01930927
-2.899118	<s> TOWER	-0.2692018
-3.067493	<s> TOWERS	4.574656e-05
-3.260923	<s> TRUE	0.000263989
-4.601519	<s> TRULY	-0.04725766
-6.113403	<s> TWELVE	-0.114343
-3.011633	<s> TWO	-0.1892151
-3.339616	<s> UGH	0.001133829
-5.183984	<s> UNBELIEVABLY	0.009961173
-2.382871	<s> UNDO	0
-3.670139	<s> UNDOUBTEDLY	0.002000391
-3.921672	<s> UNLIKELY	0.001484454
-3.663153	<s> UNQUESTIONABLY	0.001983285
-2.868426	<s> UP	-0.2654316
-3.329856	<s> UPRIGHT	0.0006011724
-3.133934	<s> USE	-0.2357371
-4.533619	<s> UTTERLY	-0.07807717
-5.46019	<s> VAGUELY	-0.05648132
-4.280894	<s> VALID	0.003326565
-3.3496	<s> VERTICAL	0.000633955
-3.694273	<s> VERY	-0.2145219
-3.461156	<s> VIRTUALLY	0.001156569
-2.843656	<s> WAIT	0
-1.91978	<s> WE	-0.2372535
-2.764903	<s> WE'LL	0
-2.174414	<s> WE'RE	5.936623e-05
-2.498517	<s> WE'VE	0
-3.103103	<s> WELL	0.001137465
-1.392195	<s> WHAT	-0.1108487
-2.832028	<s> WHAT'S	0
-2.09133	<s> WHO	0
-3.731386	<s> WITHOUT	0.0009722412
-5.636281	<s> WONDERFUL	0.03125802
-2.448197	<s> WOULD	-0.2006984
-4.293859	<s> WRONG	0.003414124
-2.377923	<s> YEAH	0.0005720556
-1.736331	<s> YES	0.08006859
-1.619785	<s> YOU	-0.3958647
-2.89408	<s> YOU'RE	0
-5.135679	<s> YOUR	-0.1098793
-5.15916	<s> YOURS	-0.2716989
-2.38121	<s> YUP	0.0005918741
-2.26493	A BIT	-0.0001325011
-1.624283	A BLOCK	-0.5376408
-1.670984	A BLUE	-0.34088
-1.989876	A BUNCH	0
-2.253581	A CERTAIN	0
-1.692718	A COLUMN	-0.05171219
-2.068287	A COUPLE	0
-1.231091	A DIFFERENT	0
-2.949848	A EIGHT	-0.2570354
-2.240611	A FEW	0
-2.04804	A FIVE	-0.3184102
-2.94596	A FOUR	-0.2578693
-1.108834	A GREEN	-0.9212691
-1.681309	A HORIZONTAL	-0.005001128
-1.736284	A LINE	-0.2965877
-1.759691	A LITTLE	0
-2.007355	A LOT	0
-2.518792	A MATTER	0
-2.594944	A MAXIMUM	0.001927525
-2.282423	A MINIMUM	0.001212865
-2.324972	A MINUTE	0
-3.058898	A NINE	-0.2604759
-2.49391	A NUMBER	-0.2595127
-2.055606	A ONE	-0.2666749
-1.854344	A ORANGE	-0.2998049
-2.275341	A PARTICULAR	0
-1.815716	A POINT	0
-1.209045	A RED	-0.9012258
-0.9314167	A ROW	-0.09612381
-2.308885	A SECOND	-0.1677602
-1.828227	A SET	6.28531e-05
-3.035681	A SEVEN	-0.2615452
-3.842099	A SHADE	0
-2.16197	A SHAPE	-0.2367916
-1.303023	A SINGLE	0
-2.899751	A SIX	-0.2585703
-1.21468	A STACK	-0.3728616
-1.539844	A STAIRCASE	0.1062725
-1.994938	A STRAIGHT	-0.004989862
-1.324033	A STRUCTURE	-0.1938241
-1.767501	A THREE	-0.2907481
-3.805582	A TOUCH	0
-1.217709	A TOWER	-0.07477874
-2.048775	A TWO	-0.2880867
-1.988273	A UPRIGHT	-0.06246959
-1.980135	A VERTICAL	-0.05913331
-0.9917098	ABOUT </s>	0
-0.8320746	ABOUT I	-0.3021905
-0.9846638	ABOUT IT	-0.443734
-0.8279257	ABOUT THAT	-0.3732264
-1.309791	ABOUT THIS	-0.2716301
-2.074257	ABOUT WHAT	-0.2805252
-2.815201	ABOUT YEAH	-0.2480022
-2.378308	ABOUT YES	-0.3559317
-1.405917	ABOUT YOU	-0.3177545
-2.748743	ABOUT YUP	-0.2470388
-1.291993	ABOVE ANOTHER	-0.1535473
-2.517987	ABOVE B1	-0.1123456
-2.252343	ABOVE B10	-0.08725636
-2.29118	ABOVE B11	-0.1025208
-2.088717	ABOVE B12	-0.07242124
-2.435105	ABOVE B2	-0.09083202
-2.45439	ABOVE B3	-0.0522984
-2.33418	ABOVE B4	-0.009087443
-2.65114	ABOVE B5	-0.1084896
-2.365163	ABOVE B6	-0.1166433
-2.264907	ABOVE B7	-0.09813403
-2.319646	ABOVE B8	-0.1204432
-2.416223	ABOVE B9	-0.1572466
-1.071787	ABOVE BLOCK	-0.2701746
-2.892928	ABOVE EIGHT	0
-2.292118	ABOVE ELEVEN	-0.08636886
-2.716836	ABOVE FIVE	-0.2014006
-2.950742	ABOVE FOUR	0
-1.58462	ABOVE IT	-0.1989667
-1.644909	ABOVE MY	-0.1829285
-3.320146	ABOVE NINE	-0.09541664
-1.797168	ABOVE NUMBER	-0.06152871
-2.032633	ABOVE ONE	-0.05356725
-3.797268	ABOVE SEVEN	0
-2.2532	ABOVE TEN	-0.07203802
-1.196232	ABOVE THAT	-0.3252661
-0.8013796	ABOVE THE	-0.1622893
-1.207266	ABOVE THIS	-0.1712459
-2.434019	ABOVE THREE	-0.1745254
-2.566819	ABOVE TWELVE	-0.09078173
-2.540607	ABOVE TWO	-0.09075725
-1.644979	ABOVE YOUR	-0.1837103
-0.6508017	ABSOLUTELY </s>	0
-2.703414	ABSOLUTELY ACCEPTABLE	0.08014189
-2.507119	ABSOLUTELY ALRIGHT	-0.09611996
-2.344392	ABSOLUTELY AWESOME	0.08357692
-3.247482	ABSOLUTELY AWFUL	0.1412511
-3.247482	ABSOLUTELY BAD	0.02913444
-2.59427	ABSOLUTELY BRILLIANT	0.1025419
-2.849542	ABSOLUTELY EXCELLENT	0.08469166
-2.469331	ABSOLUTELY EXCEPTIONAL	0.06781849
-2.507119	ABSOLUTELY FABULOUS	0.06067796
-2.703414	ABSOLUTELY FANTASTIC	0.02107969
-2.742554	ABSOLUTELY FINE	-0.09255316
-2.046174	ABSOLUTELY FIRST	-0.2678344
-2.770361	ABSOLUTELY FUNNY	0.06666109
-2.544401	ABSOLUTELY GOOD	-0.1137564
-2.184993	ABSOLUTELY GREAT	0.1576908
-1.99221	ABSOLUTELY LIKELY	0.02521557
-3.247482	ABSOLUTELY LOUSY	0.1415154
-2.402384	ABSOLUTELY MAGNIFICENT	0.05782379
-2.770361	ABSOLUTELY MARVELOUS	0.099319
-2.946452	ABSOLUTELY NASTY	0.08988649
-1.029998	ABSOLUTELY NOT	-0.3135436
-2.507119	ABSOLUTELY ODD	0.03993207
-2.431403	ABSOLUTELY OK	-0.04679975
-2.770361	ABSOLUTELY OUTSTANDING	0.07522175
-1.333668	ABSOLUTELY POSITIVE	-0.04947251
-2.117148	ABSOLUTELY POSSIBLY	0.03291202
-1.915044	ABSOLUTELY PROBABLY	0.02129033
-2.703414	ABSOLUTELY STERLING	0.09921826
-2.703414	ABSOLUTELY STRANGE	0.05882981
-2.390248	ABSOLUTELY SUPER	0.1186898
-2.507119	ABSOLUTELY SUPERB	0.1264875
-1.320626	ABSOLUTELY SURE	-0.1306722
-2.946452	ABSOLUTELY TERRIBLE	0.0895716
-2.645422	ABSOLUTELY TERRIFIC	0.09712432
-2.122293	ABSOLUTELY TOP	-0.2542793
-2.372421	ABSOLUTELY WEIRD	0.03015643
-2.703414	ABSOLUTELY WONDERFUL	0.08658716
-1.832509	ABSOLUTELY YEAH	-0.2424664
-1.820225	ABSOLUTELY YES	-0.343239
-1.763182	ABSOLUTELY YUP	-0.2423126
-0.2955265	ACCEPTABLE </s>	0
-2.201991	ACCEPTABLE MANY	-0.2623468
-1.436614	ACCEPTABLE THANK	0.003210783
-1.64464	ACCEPTABLE THANKS	-0.1317507
-0.2421192	ACCURATE </s>	0
-0.4368873	ACTUALLY </s>	0
-0.936603	ACTUALLY NO	-0.3727324
-1.012099	ACTUALLY YES	-0.3556055
-0.8602558	ADD A	-0.3190972
-1.503225	ADD ALL	-0.1874242
-1.880424	ADD AN	-0.4797708
-0.5735367	ADD ANOTHER	-0.1326972
-2.787432	ADD B1	-0.08857355
-2.64924	ADD B10	-0.09245384
-2.675705	ADD B11	-0.07639003
-2.492352	ADD B12	-0.06788492
-2.761737	ADD B2	-0.1029986
-2.796347	ADD B3	-0.1377937
-2.81268	ADD B4	-0.03248766
-2.755299	ADD B5	-0.07311566
-2.631753	ADD B6	-0.1432423
-2.64924	ADD B7	-0.09412032
-2.677964	ADD B8	-0.07130236
-2.698248	ADD B9	-0.1076209
-1.587751	ADD BLOCK	-0.2804705
-1.552501	ADD BLOCKS	-0.2668208
-2.633113	ADD EIGHT	-0.1333217
-2.6535	ADD ELEVEN	-0.05854067
-2.620255	ADD FIVE	-0.1521003
-2.603241	ADD FOUR	-0.1669826
-2.130004	ADD IT	-0.2316406
-1.586924	ADD MANY	-0.08641735
-1.888266	ADD MINE	-0.1130996
-1.954245	ADD MY	-0.2258895
-2.716147	ADD NINE	-0.1104286
-2.051084	ADD NUMBER	-0.09127849
-1.345863	ADD ONE	-0.256951
-2.673395	ADD SEVEN	-0.1280911
-1.569485	ADD SEVERAL	-0.002538681
-2.574696	ADD SIX	-0.1396048
-1.39931	ADD SOME	-0.1742729
-2.6535	ADD TEN	-0.04890299
-1.679168	ADD THAT	-0.2882581
-1.213696	ADD THE	-0.2116018
-2.46581	ADD THEM	-0.2001893
-2.404028	ADD THESE	-0.1016302
-1.687576	ADD THIS	-0.2431765
-2.365632	ADD THOSE	-0.1129906
-2.484948	ADD THREE	-0.1271653
-2.701424	ADD TWELVE	-0.0434311
-2.508529	ADD TWO	-0.1469508
-1.943017	ADD YOUR	-0.1713239
-1.889626	ADD YOURS	-0.1160118
-0.2419889	AFFIRMATIVE </s>	0
-0.2418765	AGAIN </s>	0
-0.6633738	ALL </s>	0
-1.714769	ALL ANOTHER	-0.2702917
-1.761975	ALL BLOCKS	-0.2227976
-2.40351	ALL BLUE	-0.2219631
-1.354266	ALL DONE	-0.4443982
-2.049265	ALL GREEN	-0.2218207
-1.23224	ALL MEANS	0
-0.9096824	ALL MY	-0.09005111
-2.448008	ALL ORANGE	-0.2223575
-2.09697	ALL RED	-0.2447454
-1.7623	ALL THAT	-0.2910925
-1.009871	ALL THE	-0.2381626
-1.754399	ALL THIS	-0.2793499
-0.6017659	ALMOST </s>	0
-0.7208888	ALMOST WHAT	-0.2805312
-1.350308	ALMOST YEAH	-0.2480628
-1.353891	ALMOST YES	-0.3546605
-1.333793	ALMOST YUP	-0.2466878
-0.4969712	ALRIGHT </s>	0
-1.109223	ALRIGHT A	-0.3439552
-2.317615	ALRIGHT AN	-0.1132396
-2.137604	ALRIGHT ANOTHER	-0.09927405
-4.153388	ALRIGHT COLUMN	0
-3.852358	ALRIGHT COLUMNS	0
-3.30829	ALRIGHT HORIZONTAL	0.08724307
-1.364802	ALRIGHT I	-0.2988181
-2.10586	ALRIGHT IT	-0.1757134
-2.958172	ALRIGHT LINE	0
-2.70623	ALRIGHT MANY	-0.2653523
-2.026557	ALRIGHT ROW	-0.0659355
-3.852358	ALRIGHT ROWS	-0.1333393
-3.199145	ALRIGHT SET	0.04223174
-2.922939	ALRIGHT SHAPES	-0.04195449
-2.820687	ALRIGHT SIX	0
-2.454418	ALRIGHT SOME	-0.03676803
-2.50968	ALRIGHT STACK	-0.2036215
-4.153388	ALRIGHT STACKS	0
-2.377405	ALRIGHT STAIRCASE	-0.04622085
-4.153388	ALRIGHT STAIRCASES	0
-3.852358	ALRIGHT STRAIGHT	0.1200493
-2.463192	ALRIGHT STRUCTURES	-0.200145
-2.063483	ALRIGHT THANK	0.003497809
-2.1896	ALRIGHT THANKS	-0.1329304
-1.510737	ALRIGHT THAT	-0.2136482
-1.654595	ALRIGHT THAT'S	-0.287048
-1.386319	ALRIGHT THE	-0.1040007
-2.931314	ALRIGHT THEM	-0.09635395
-3.30829	ALRIGHT THESE	-0.07246587
-1.812249	ALRIGHT THIS	-0.1828422
-3.375237	ALRIGHT THOSE	-0.0953822
-2.455605	ALRIGHT TOWER	0
-3.454418	ALRIGHT VERTICAL	0.007828027
-1.562866	ALRIGHT WE	-0.3100719
-1.621254	ALRIGHT WE'RE	-0.4330171
-2.11227	ALTOGETHER ACCEPTABLE	0.03932714
-2.142939	ALTOGETHER ALRIGHT	-0.1490639
-2.551602	ALTOGETHER AWFUL	0.02706373
-2.852632	ALTOGETHER BAD	-0.06086206
-2.641779	ALTOGETHER DREADFUL	0.03327411
-2.137951	ALTOGETHER FINE	-0.214119
-2.175939	ALTOGETHER FUNNY	0.01233286
-2.234448	ALTOGETHER GOOD	-0.3461613
-2.275566	ALTOGETHER GREAT	0.1039878
-2.71433	ALTOGETHER HORRIBLE	0.03881508
-1.459057	ALTOGETHER LIKELY	0.00429821
-2.676541	ALTOGETHER LOUSY	0.0358552
-2.551602	ALTOGETHER NASTY	0.02743182
-2.224243	ALTOGETHER ODD	0.01378748
-1.903179	ALTOGETHER OK	-0.1793
-0.8087792	ALTOGETHER POSITIVE	-0.05441168
-1.461256	ALTOGETHER POSSIBLY	0.00426507
-1.467921	ALTOGETHER PROBABLY	0.004415095
-2.142939	ALTOGETHER STRANGE	0.01144671
-0.804871	ALTOGETHER SURE	-0.1354449
-2.676541	ALTOGETHER TERRIBLE	0.03564402
-2.308565	ALTOGETHER WEIRD	0.01667276
-1.109963	AM </s>	0
-1.624816	AM A	-0.2219223
-3.223489	AM ABSOLUTELY	-0.154741
-3.396733	AM ACCEPTABLE	0.03438491
-2.171322	AM ALL	-0.2829653
-3.340875	AM ALRIGHT	-0.1604378
-2.353024	AM ALTOGETHER	-0.09805039
-3.051224	AM AVERAGE	0.003516227
-1.449741	AM AWARE	6.905198e-05
-4.803273	AM AWESOME	-0.1507238
-4.06291	AM AWFUL	0.03857115
-4.502243	AM AWFULLY	-0.04892637
-3.958175	AM BAD	-0.08133724
-4.627181	AM BRILLIANT	-0.02645057
-3.84903	AM COMPARATIVELY	-0.04624647
-3.396733	AM COMPLETELY	-0.01953541
-1.463424	AM CONCERNED	0.0001773238
-1.811604	AM CONFUSED	0.000117451
-1.768776	AM DONE	-0.3787872
-4.104303	AM DREADFUL	0.04232135
-3.24098	AM ENTIRELY	-0.06549938
-2.715137	AM EVER	0.001531124
-4.627181	AM EXCELLENT	-0.1619223
-4.502243	AM EXCEPTIONAL	-0.04264427
-4.259205	AM EXCEPTIONALLY	-0.003099985
-4.405333	AM EXTRAORDINARILY	0
-4.627181	AM EXTREMELY	0
-4.326152	AM FABULOUS	0.09597159
-2.980451	AM FAIR	0.002913177
-3.803273	AM FAIRLY	-0.0553105
-4.502243	AM FANTASTIC	0.1052696
-2.863408	AM FINE	-0.2519445
-2.697292	AM FIRST	-0.2367207
-1.400227	AM GOING	0.0001243949
-1.431928	AM GONNA	-0.1057096
-2.727347	AM GOOD	-0.3861164
-2.720115	AM GREAT	0.07202971
-2.641905	AM GUESSING	0.001623958
-3.990359	AM HORRIBLE	0.03326383
-0.7868358	AM I	-0.286517
-4.259205	AM INCREDIBLY	-0.007450504
-2.744467	AM JUST	-0.2851455
-4.15006	AM KIND	0.04121369
-4.259205	AM KINDA	-0.1506223
-1.497814	AM LOOKING	5.418062e-05
-4.025122	AM LOUSY	0.0358552
-4.627181	AM MAGNIFICENT	-0.02542002
-4.502243	AM MARVELOUS	0.05704659
-3.066876	AM MEDIOCRE	0.003618091
-3.803273	AM MODERATELY	-0.04316625
-4.259205	AM NASTY	0.05782813
-1.232263	AM NOT	-0.2114527
-2.7403	AM OK	-0.1701598
-4.15006	AM OUTSTANDING	0.07759711
-2.033526	AM POSITIVE	-0.05469504
-3.825549	AM PRETTY	-0.1258893
-2.395882	AM QUITE	-0.182593
-3.900183	AM RATHER	-0.0929139
-2.755998	AM REAL	-0.1791711
-2.767843	AM REALLY	-0.2770746
-3.958175	AM REASONABLY	-0.07072776
-3.782083	AM RELATIVELY	-0.06961548
-4.201213	AM REMARKABLY	-0.02456021
-4.259205	AM SERIOUSLY	-0.003470503
-4.405333	AM SLIGHTLY	-0.008654296
-2.150543	AM SO	-0.2383856
-3.724091	AM SOMEWHAT	-0.07451337
-2.145739	AM SORRY	0.0004428923
-4.405333	AM SORT	0.06727703
-4.627181	AM STERLING	0.09685408
-2.983274	AM SUPER	0.1285981
-4.259205	AM SUPERB	0.1157263
-2.021517	AM SURE	-0.1357414
-3.990359	AM TERRIBLE	0.0330731
-4.259205	AM TERRIBLY	-0.03202936
-4.502243	AM TERRIFIC	-0.03521031
-2.658698	AM THINKING	-0.2796935
-3.405333	AM THOROUGHLY	-0.06467906
-2.275153	AM TOP	-0.2031267
-3.298123	AM TOTALLY	-0.05661786
-2.75212	AM TRULY	-0.1762007
-4.502243	AM UNBELIEVABLY	-0.1247753
-3.326151	AM UTTERLY	-0.07185313
-5.104303	AM VAGUELY	0
-2.677791	AM VERY	-0.2676757
-4.326152	AM WONDERFUL	0.03125808
-1.304578	AN BLOCK	-0.1977459
-1.502353	AN BLUE	-0.3377637
-2.404049	AN COLUMN	-0.1753287
-2.296088	AN EIGHT	-0.2569526
-1.013835	AN EXAMPLE	0
-2.300518	AN FIVE	-0.3180788
-2.282935	AN FOUR	-0.2578405
-1.45739	AN GREEN	-0.4220247
-2.232652	AN HORIZONTAL	-0.004006594
-2.499913	AN LINE	-0.294703
-2.294558	AN NINE	-0.2605694
-1.37775	AN ONE	-0.2666761
-0.4384317	AN ORANGE	-0.5490261
-1.481217	AN RED	-0.3088951
-2.075858	AN ROW	-0.307693
-1.458718	AN SET	0.0001677275
-2.304346	AN SEVEN	-0.2614477
-2.283678	AN SIX	-0.2584432
-2.283552	AN STACK	-0.4308805
-1.436361	AN STAIRCASE	-0.3473917
-2.52537	AN STRAIGHT	-0.003050685
-1.285136	AN STRUCTURE	-0.1113827
-2.181655	AN THREE	-0.2908126
-2.256829	AN TOWER	-0.2708201
-2.234919	AN TWO	-0.2881612
-2.682335	AN UPRIGHT	-0.05964629
-2.645533	AN VERTICAL	-0.05654387
-2.542044	AND ADD	0.07020432
-1.002792	AND ANOTHER	-0.2939093
-3.285405	AND ARRANGE	0.05537672
-2.451751	AND B1	-0.100391
-2.332087	AND B10	-0.1326244
-2.303021	AND B11	-0.1327577
-2.246345	AND B12	-0.09901786
-2.445767	AND B2	-0.09320927
-2.472015	AND B3	-0.09153634
-2.400246	AND B4	-0.07741076
-2.47703	AND B5	-0.06005031
-2.394927	AND B6	-0.08489478
-2.317943	AND B7	-0.1156528
-2.406998	AND B8	-0.07813141
-2.351141	AND B9	-0.09502137
-1.79874	AND BLOCK	-0.2899609
-2.254374	AND BLOCKS	-0.1104956
-2.296248	AND BUILD	0.1448961
-3.501424	AND COLUMN	-0.2462382
-2.754866	AND CREATE	0.07967681
-1.904705	AND DROP	-0.04362935
-2.455209	AND EIGHT	-0.2329698
-2.794802	AND EIGHTH	-0.219063
-1.553555	AND ELEVEN	-0.05790609
-2.925395	AND END	-0.2688798
-2.814193	AND FIFTH	-0.2280398
-2.821609	AND FINISH	-0.2114366
-2.60434	AND FIRST	-0.3287943
-2.426046	AND FIVE	-0.1435743
-3.154637	AND FORM	-0.08738035
-2.470216	AND FOUR	-0.2021513
-2.791025	AND FOURTH	-0.2262978
-3.552577	AND HORIZONTAL	0.005431503
-1.050816	AND I	-0.394441
-2.919108	AND I'D	0.002473533
-2.880479	AND I'LL	-0.1010333
-2.846516	AND I'M	-0.2847399
-2.278153	AND IT	-0.1579239
-1.782646	AND LET	-0.03012365
-1.698469	AND LET'S	-0.4756521
-2.890935	AND LINE	-0.1960481
-2.184076	AND MAKE	0.07393759
-3.282317	AND MINE	-0.1974791
-1.174631	AND MOVE	-0.02355903
-2.656978	AND MY	-0.1896434
-1.401217	AND NEXT	-0.2105134
-2.569176	AND NINE	-0.1331771
-2.791025	AND NINTH	-0.2142036
-1.396946	AND NOW	-0.4533694
-2.778922	AND NUMBER	-0.09872662
-0.9591386	AND ONE	-0.328045
-2.555847	AND PICK	0.01708171
-3.297304	AND PILE	0.02760935
-1.766234	AND PLACE	-0.02973196
-1.881282	AND PUSH	-0.08918327
-1.645833	AND PUT	-0.02295172
-2.290413	AND ROW	-0.2500171
-2.67101	AND SECOND	-0.2613965
-3.309539	AND SET	0.00619185
-2.55804	AND SEVEN	-0.1236749
-2.847141	AND SEVENTH	-0.2330916
-1.897919	AND SIT	-0.0498229
-2.435064	AND SIX	-0.1921544
-2.808284	AND SIXTH	-0.2192346
-2.679571	AND STACK	-0.1195472
-2.598199	AND STAIRCASE	-0.2588671
-3.812214	AND STRAIGHT	0.01341987
-2.478375	AND TAKE	0.06406724
-1.56547	AND TEN	-0.0589788
-2.225311	AND THAT	-0.3884507
-1.656023	AND THE	-0.1897502
-3.294131	AND THEM	0
-5.154637	AND THESE	0
-2.828301	AND THIRD	-0.2175667
-2.246122	AND THIS	-0.2109418
-4.552577	AND THOSE	-0.1182879
-2.360604	AND THREE	-0.1454792
-2.364771	AND TOP	-0.2425074
-2.688737	AND TOWER	-0.2428346
-1.565022	AND TWELVE	-0.05765787
-2.383917	AND TWO	-0.173674
-3.875883	AND UPRIGHT	-0.04134734
-2.719226	AND USE	-0.1606507
-4.008509	AND VERTICAL	-0.03115721
-2.763702	AND YOUR	-0.1901395
-4.677516	AND YOURS	-0.1970653
-1.661157	ANOTHER AVAILABLE	-0.05997235
-1.625536	ANOTHER BLOCK	-0.1529946
-1.80567	ANOTHER BLOCKS	-0.2326171
-1.519949	ANOTHER BLUE	-0.09171414
-2.483282	ANOTHER BOTTOM	0.07455796
-2.806768	ANOTHER COLUMN	-0.1000397
-4.408828	ANOTHER COLUMNS	0
-2.524044	ANOTHER EIGHT	-0.08222404
-2.492125	ANOTHER FIVE	-0.1636517
-2.55942	ANOTHER FOUR	-0.153171
-1.100961	ANOTHER GREEN	-0.1425079
-2.663232	ANOTHER HIGHEST	0.04333141
-2.709858	ANOTHER HORIZONTAL	0.005628914
-2.052105	ANOTHER LEFT	-0.2179387
-2.326042	ANOTHER LEFTMOST	0.02932203
-2.903251	ANOTHER LINE	-0.1977297
-4.283889	ANOTHER LINES	-0.02915825
-2.584919	ANOTHER LOWEST	0.02608445
-1.90048	ANOTHER MIDDLE	0.0250836
-2.543526	ANOTHER NINE	-0.1058526
-0.372718	ANOTHER ONE	-0.396405
-1.51337	ANOTHER ORANGE	-0.07836726
-1.096848	ANOTHER RED	-0.1149833
-2.034575	ANOTHER RIGHT	-0.172219
-2.366121	ANOTHER RIGHTMOST	0.02635956
-2.310304	ANOTHER ROW	-0.1351472
-4.584919	ANOTHER ROWS	0
-1.966871	ANOTHER SET	0.000521034
-3.982859	ANOTHER SETS	0.04401347
-2.559613	ANOTHER SEVEN	-0.09951635
-2.982859	ANOTHER SHAPE	-0.2496371
-3.040851	ANOTHER SHAPES	0.03193915
-2.513697	ANOTHER SIX	-0.08679479
-2.599756	ANOTHER STACK	-0.3320153
-4.408828	ANOTHER STACKS	0
-1.939802	ANOTHER STAIRCASE	-0.1696421
-4.107798	ANOTHER STAIRCASES	-0.06809723
-1.587055	ANOTHER STEP	-0.2044761
-2.462548	ANOTHER STEPS	-0.250203
-2.966871	ANOTHER STRAIGHT	0.009998918
-1.795658	ANOTHER STRUCTURE	-0.06699759
-2.633096	ANOTHER STRUCTURES	-0.163863
-2.372958	ANOTHER THREE	-0.1719938
-2.382133	ANOTHER TOP	-0.2707203
-2.595914	ANOTHER TOPMOST	0.02151549
-2.585288	ANOTHER TOWER	-0.1252892
-4.040851	ANOTHER TOWERS	-0.05676659
-2.474774	ANOTHER TWO	-0.1283002
-3.093557	ANOTHER UPRIGHT	-0.04264419
-3.145586	ANOTHER VERTICAL	0.01489186
-0.1249906	ANY NUMBER	-0.3944616
-0.3010641	ANYTHING ELSE	0
-2.875061	APPEARS ABSOLUTELY	0
-2.875061	APPEARS ACCEPTABLE	0
-1.971971	APPEARS ACCURATE	0.05274618
-2.875061	APPEARS ALRIGHT	0
-2.875061	APPEARS ALTOGETHER	0
-2.176091	APPEARS BAD	-0.03655511
-1.089731	APPEARS BEAUTIFUL	0.007813275
-2.273001	APPEARS COMPLETELY	-0.0640288
-1.119186	APPEARS COOL	0.00838691
-2.029963	APPEARS CORRECT	0.05906722
-2.176091	APPEARS ENTIRELY	0
-2.574031	APPEARS EXCEPTIONALLY	0
-2.574031	APPEARS FAIRLY	0
-1.971971	APPEARS FALSE	0.05236971
-2.574031	APPEARS FANTASTIC	-0.01558407
-2.440418	APPEARS FINE	-0.1028904
-1.830494	APPEARS GOOD	-0.3680429
-2.556853	APPEARS GREAT	0
-2.09691	APPEARS INACCURATE	0.06647903
-2.273001	APPEARS INCORRECT	0.09101462
-1.833669	APPEARS INVALID	0.03973401
-2.574031	APPEARS MAGNIFICENT	0.006183982
-2.875061	APPEARS MODERATELY	0
-1.104209	APPEARS NICE	0.008088499
-1.728933	APPEARS NOT	-0.1171876
-2.386413	APPEARS OK	-0.06524758
-1.971971	APPEARS PROPER	0.05276844
-2.574031	APPEARS QUITE	0
-2.875061	APPEARS REASONABLY	0
-1.875061	APPEARS SO	-0.03485977
-2.875061	APPEARS SOMEWHAT	0
-2.875061	APPEARS STERLING	0
-2.875061	APPEARS TERRIFIC	0
-2.574031	APPEARS THOROUGHLY	0
-2.875061	APPEARS TOTALLY	0
-1.670941	APPEARS TRUE	0.02883664
-2.875061	APPEARS UTTERLY	0
-2.09691	APPEARS VALID	0.06680635
-1.920819	APPEARS WRONG	0.04769841
-2.540575	ARE ABOVE	0.01135957
-2.558303	ARE AWAY	0.0008299947
-2.20967	ARE BESIDE	0.02310812
-2.540575	ARE CLOSE	0.0008178353
-2.244788	ARE CLOSER	-0.2593983
-0.9330874	ARE DONE	-0.3890733
-3.210161	ARE EVER	0.00377205
-2.845093	ARE FARTHER	0.001447707
-1.893738	ARE FINISHED	-0.2030577
-2.905091	ARE FURTHER	0.001699984
-2.053659	ARE GOING	0.0005484223
-2.101874	ARE GONNA	-0.2213444
-2.215383	ARE IN	-0.1738302
-3.135741	ARE JUST	-0.2845877
-2.698952	ARE LEFT	-0.2472867
-2.564684	ARE NEAR	0.01042917
-2.293119	ARE NEXT	-0.9311969
-2.259541	ARE NOT	-0.2881595
-1.384619	ARE ON	-0.3248041
-2.533681	ARE OVER	-0.1350562
-1.721821	ARE READY	-0.1508566
-3.087256	ARE REAL	-0.1930635
-3.194222	ARE REALLY	-0.2781596
-2.190164	ARE RIGHT	-0.2965537
-1.170395	ARE SITTING	-0.06466144
-1.600357	ARE STRUCTURES	-0.220507
-1.296881	ARE TALLER	5.024672e-05
-1.07915	ARE THE	0
-0.9504576	ARE THERE	-0.3482771
-1.992788	ARE TO	-0.3074371
-3.160364	ARE TRULY	-0.1896099
-3.178847	ARE VERY	-0.2695964
-1.556289	ARE WE	-0.2741143
-0.8629044	ARE YOU	-0.28059
-1.10674	ARRANGE A	-0.3163067
-1.523163	ARRANGE ALL	-0.178484
-1.83847	ARRANGE AN	-0.4598061
-1.768073	ARRANGE ANOTHER	-0.148272
-2.634526	ARRANGE B1	-0.07727948
-2.31468	ARRANGE B10	-0.08348922
-2.396358	ARRANGE B11	-0.05490839
-2.215606	ARRANGE B12	-0.09560937
-2.648898	ARRANGE B2	-0.08370403
-2.711675	ARRANGE B3	-0.09041393
-2.410645	ARRANGE B4	-0.09155001
-3.00801	ARRANGE B5	-0.06726452
-2.464507	ARRANGE B6	-0.06805536
-2.328433	ARRANGE B7	-0.07398662
-2.589445	ARRANGE B8	-0.05878234
-2.504524	ARRANGE B9	-0.09030066
-1.384945	ARRANGE BLOCK	-0.2613918
-1.453637	ARRANGE BLOCKS	-0.2488386
-2.491318	ARRANGE EIGHT	-0.09113377
-2.8432	ARRANGE ELEVEN	-0.03280635
-2.529991	ARRANGE FIVE	-0.1255379
-2.607134	ARRANGE FOUR	-0.07363942
-1.922189	ARRANGE IT	-0.2146912
-1.580374	ARRANGE MANY	-0.08208337
-1.834778	ARRANGE MINE	-0.1274108
-1.905206	ARRANGE MY	-0.2082877
-2.54217	ARRANGE NINE	-0.1134029
-2.026016	ARRANGE NUMBER	-0.08209941
-1.2978	ARRANGE ONE	-0.2453387
-2.644832	ARRANGE SEVEN	-0.09795511
-1.622266	ARRANGE SEVERAL	0.002712667
-2.529991	ARRANGE SIX	-0.08200232
-1.397678	ARRANGE SOME	-0.1707436
-2.616804	ARRANGE TEN	-0.05728133
-1.66589	ARRANGE THAT	-0.2337669
-1.104081	ARRANGE THE	-0.1950049
-2.452447	ARRANGE THEM	-0.1497005
-2.431758	ARRANGE THESE	-0.08507819
-1.63845	ARRANGE THIS	-0.2304415
-2.38956	ARRANGE THOSE	-0.09691892
-2.298991	ARRANGE THREE	-0.1062897
-2.760226	ARRANGE TWELVE	-0.09336509
-2.37531	ARRANGE TWO	-0.1329175
-1.994849	ARRANGE YOUR	-0.1593655
-1.8432	ARRANGE YOURS	-0.1380298
-1.397689	AS A	-0.2993513
-0.6166721	AS FAR	-0.09935038
-0.7173104	AS I	-0.2524786
-1.210941	AS I'M	-0.2723836
-0.2419051	ASKING </s>	0
-1.66706	AT A	-0.2967512
-1.170392	AT ALL	-0.2632233
-2.180127	AT LEAST	0.003336519
-2.500915	AT MOST	-0.1960743
-0.1781715	AT THE	-0.2655322
-0.8402625	AVAILABLE </s>	0
-0.6467319	AVAILABLE BLOCKS	-0.2633752
-1.25238	AVAILABLE BLUE	-0.2262748
-1.221247	AVAILABLE GREEN	-0.2256685
-1.254829	AVAILABLE ORANGE	-0.2264214
-1.224729	AVAILABLE RED	-0.2490399
-0.2425286	AVERAGE </s>	0
-0.2919754	AWARE OF	-0.276279
-0.301102	AWAY FROM	-0.1211058
-0.4225413	AWESOME </s>	0
-1.848189	AWESOME MANY	-0.2008944
-0.9588874	AWESOME THANK	0.01350543
-1.246129	AWESOME THANKS	-0.08820626
-0.2432358	AWFUL </s>	0
-1.514105	AWFULLY AWFUL	0.1096471
-1.514105	AWFULLY BAD	-0.002469569
-1.389166	AWFULLY DREADFUL	0.08977261
-1.140326	AWFULLY FINE	-0.1477162
-1.030222	AWFULLY GOOD	-0.1682156
-1.374099	AWFULLY GREAT	0.1916247
-1.514105	AWFULLY HORRIBLE	0.109891
-1.991226	AWFULLY LOUSY	0
-1.514105	AWFULLY NASTY	0.1100152
-1.690196	AWFULLY TERRIBLE	0.1413043
-0.9012404	B1 </s>	0
-3.281828	B1 ABOVE	0
-1.114942	B1 AND	-0.2049478
-2.586493	B1 ANOTHER	-0.03828126
-2.170328	B1 AT	-0.1116954
-3.406767	B1 AWAY	0.09683804
-3.127379	B1 B2	0
-2.909991	B1 B9	-0.145307
-1.966339	B1 BACK	-0.04610689
-2.176318	B1 BE	-0.2122455
-2.7798	B1 BESIDE	0.001217576
-1.939303	B1 BLOCK	-0.04984302
-2.598988	B1 BLUE	-0.2703477
-2.883889	B1 CLOSE	0.03875148
-1.842496	B1 CLOSER	0.02232668
-3.582858	B1 ELEVEN	0
-3.883889	B1 EVER	0
-3.883889	B1 FARTHER	0
-2.595714	B1 FIRST	-0.2348565
-2.343455	B1 FOR	-0.2479184
-3.184918	B1 FURTHER	0.06665003
-2.329854	B1 GREEN	-0.2511193
-3.582858	B1 HERE	0.104031
-1.62932	B1 IN	0.001244962
-2.530502	B1 INSTEAD	0.06674612
-3.406767	B1 JUST	-0.09055811
-2.854166	B1 LEFT	-0.1973031
-2.996928	B1 MY	-0.1337646
-2.980799	B1 NEAR	-0.01100555
-0.6002481	B1 NEXT	-0.6381035
-2.73776	B1 NOT	-0.2605849
-3.211021	B1 NUMBER	0
-1.698724	B1 ON	-0.2156707
-1.19636	B1 OR	-0.1428882
-2.553136	B1 ORANGE	-0.2328655
-2.65344	B1 OVER	0.01272504
-2.716325	B1 PLEASE	-0.2399348
-3.281828	B1 REAL	-0.06250896
-3.582858	B1 REALLY	0
-2.302916	B1 RED	-0.2201427
-2.533317	B1 RIGHT	-0.1918389
-1.997398	B1 SHOULD	-0.1940273
-1.600587	B1 SITTING	0.03822422
-3.582858	B1 TEN	0
-1.22849	B1 THAT	-0.2211443
-1.843649	B1 THE	-0.05996792
-3.057274	B1 THERE	-0.1744044
-2.668604	B1 THIS	-0.1117393
-1.629169	B1 TO	-0.2663221
-1.331575	B1 TOGETHER	0.01200598
-3.582858	B1 VERY	-0.160067
-3.281828	B1 YOUR	-0.08244358
-0.5233507	B10 </s>	0
-2.877487	B10 ABOVE	-0.04325306
-1.141827	B10 AND	-0.2232129
-2.697004	B10 ANOTHER	-0.0936989
-2.081342	B10 AT	-0.1150589
-2.877487	B10 AWAY	0.0377166
-2.894568	B10 B11	-0.1469742
-2.741066	B10 B12	0
-3.328715	B10 B3	0
-3.877487	B10 B5	0
-1.911166	B10 BACK	-0.03015022
-2.214729	B10 BE	-0.2112291
-2.470298	B10 BESIDE	0.0767623
-2.091934	B10 BLOCK	0
-2.590911	B10 BLUE	-0.2218931
-3.400365	B10 CLOSE	0.09931897
-1.813029	B10 CLOSER	0.02105379
-3.576457	B10 ELEVEN	0
-3.576457	B10 EVER	0.124708
-3.275426	B10 FARTHER	0.0788883
-2.671303	B10 FIRST	-0.2320722
-2.173867	B10 FOR	-0.2568732
-3.099335	B10 FURTHER	0.0576952
-2.308864	B10 GREEN	-0.277467
-3.877487	B10 HERE	0
-1.717504	B10 IN	0.007751763
-2.770033	B10 INSTEAD	0.1137427
-2.534357	B10 IT	-0.09580766
-3.275426	B10 JUST	-0.2154969
-3.220612	B10 LEFT	-0.1228727
-3.134125	B10 MY	-0.07277144
-2.836094	B10 NEAR	-0.02104157
-2.612161	B10 NEXT	-0.6117745
-2.763543	B10 NOT	-0.2586504
-3.328715	B10 NUMBER	0
-0.8121202	B10 ON	-0.3543087
-1.163157	B10 OR	-0.1528295
-2.444899	B10 ORANGE	-0.1983312
-2.974397	B10 OVER	-0.06247891
-2.779255	B10 PLEASE	-0.2366816
-3.877487	B10 REALLY	0
-2.454278	B10 RED	-0.2615354
-2.699194	B10 RIGHT	-0.1568097
-1.958408	B10 SHOULD	-0.1944201
-1.58302	B10 SITTING	0.04256395
-1.255952	B10 THAT	-0.2223121
-2.011478	B10 THE	-0.03479605
-3.134125	B10 THERE	-0.06132937
-2.671303	B10 THIS	-0.1335838
-1.668501	B10 TO	-0.2661717
-1.33899	B10 TOGETHER	0.01234913
-3.400365	B10 TRULY	-0.0647441
-3.576457	B10 VERY	-0.160067
-3.275426	B10 YOUR	0
-0.7869707	B11 </s>	0
-2.927599	B11 ABOVE	-0.1055024
-1.12816	B11 AND	-0.2459947
-2.830505	B11 ANOTHER	0
-2.161155	B11 AT	-0.1123638
-3.10369	B11 AWAY	0.05791999
-2.942769	B11 B11	0
-3.329942	B11 B2	0
-2.942769	B11 B7	0
-1.846156	B11 BACK	-0.0619186
-2.2006	B11 BE	-0.2116603
-2.901216	B11 BESIDE	0.007028669
-2.085575	B11 BLOCK	-0.04090445
-2.723201	B11 BLUE	-0.1817759
-2.881841	B11 CLOSE	0.03875148
-1.824936	B11 CLOSER	0.01404247
-3.881841	B11 EVER	0
-3.036743	B11 FARTHER	0.0508596
-2.674277	B11 FIRST	-0.2320722
-2.318791	B11 FOR	-0.2501136
-3.40472	B11 FURTHER	0.09661324
-2.360341	B11 GREEN	-0.2709962
-3.279781	B11 HERE	0.05229834
-1.644892	B11 IN	0.002216816
-2.773089	B11 INSTEAD	0.1137427
-2.534947	B11 IT	-0.2035862
-2.94918	B11 LEFT	-0.1903992
-3.222525	B11 MY	0
-3.036743	B11 NEAR	-0.0285247
-2.569313	B11 NEXT	-0.6603799
-2.626568	B11 NOT	-0.2663372
-3.222525	B11 NUMBER	0
-0.5285844	B11 ON	-0.2379841
-1.188114	B11 OR	-0.1449627
-2.517714	B11 ORANGE	-0.2310691
-2.927599	B11 OVER	-0.02510351
-2.749463	B11 PLEASE	-0.2399348
-3.881841	B11 REAL	0
-3.881841	B11 REALLY	0
-2.381276	B11 RED	-0.2246745
-2.499331	B11 RIGHT	-0.209436
-2.110989	B11 SHOULD	-0.1923812
-1.523906	B11 SITTING	0.02380535
-3.580811	B11 TEN	0
-1.26024	B11 THAT	-0.2223051
-2.000501	B11 THE	-0.1053758
-3.136478	B11 THERE	-0.06132937
-2.921495	B11 THIS	-0.04582742
-1.711071	B11 TO	-0.2638008
-1.3471	B11 TOGETHER	0.01245588
-3.881841	B11 TRULY	0
-3.580811	B11 VERY	-0.160067
-3.881841	B11 YOUR	0
-0.6903792	B12 </s>	0
-2.729859	B12 ABOVE	0.002805024
-1.135069	B12 AND	-0.2057123
-2.660978	B12 ANOTHER	-0.0936989
-2.064066	B12 AT	-0.1154968
-2.972897	B12 AWAY	0.04568553
-3.29035	B12 B1	0
-2.895771	B12 B11	0
-3.29035	B12 B3	0
-3.04971	B12 B4	0
-3.875987	B12 B5	0
-3.04971	B12 B9	0
-1.839152	B12 BACK	-0.03648561
-2.213229	B12 BE	-0.2112291
-2.734488	B12 BESIDE	-0.03053271
-2.034271	B12 BLOCK	-0.1199868
-2.594296	B12 BLUE	-0.2769699
-3.097836	B12 CLOSE	0.05947188
-1.819082	B12 CLOSER	0.02149072
-3.574957	B12 EVER	0.124708
-3.398866	B12 FARTHER	0.09661706
-2.539465	B12 FIRST	-0.2428158
-2.254275	B12 FOR	-0.253058
-3.574957	B12 FURTHER	0.124642
-2.20033	B12 GREEN	-0.2682765
-3.574957	B12 HERE	0.104031
-1.769281	B12 IN	-0.02251118
-2.752875	B12 INSTEAD	0.1137427
-2.507017	B12 IT	-0.1755574
-3.273927	B12 JUST	-0.1215796
-3.108716	B12 LEFT	-0.1511333
-3.29035	B12 MY	0
-2.699895	B12 NEAR	-0.01791472
-1.401658	B12 NEXT	-0.6603799
-2.533564	B12 NOT	-0.2701302
-3.040198	B12 NUMBER	-0.02586022
-0.7800131	B12 ON	-0.4540431
-1.174419	B12 OR	-0.1190332
-2.466001	B12 ORANGE	-0.2559581
-2.834594	B12 OVER	0.0375617
-2.734488	B12 PLEASE	-0.2399348
-3.273927	B12 REAL	-0.07411517
-3.574957	B12 REALLY	-0.1659771
-2.363634	B12 RED	-0.2725745
-2.559951	B12 RIGHT	-0.1570158
-2.120112	B12 SHOULD	-0.1921358
-1.553768	B12 SITTING	0.03099188
-1.27815	B12 THAT	-0.2233313
-1.915569	B12 THE	-0.03922253
-3.190106	B12 THERE	-0.1446918
-2.846477	B12 THIS	-0.171
-1.269522	B12 TO	-0.2645333
-1.34984	B12 TOGETHER	0.0127123
-3.574957	B12 TRULY	0
-3.875987	B12 TWELVE	0
-3.875987	B12 VERY	0
-0.8876673	B2 </s>	0
-2.879669	B2 ABOVE	0.003457043
-1.141228	B2 AND	-0.221886
-2.597617	B2 ANOTHER	-0.06151418
-2.054983	B2 AT	-0.1157056
-3.578639	B2 AWAY	0.1248668
-2.580139	B2 B12	0
-3.199677	B2 B2	0
-1.902924	B2 BACK	-0.0268006
-2.131481	B2 BE	-0.2130853
-2.583306	B2 BESIDE	0.01850137
-1.95221	B2 BLOCK	-0.0790134
-2.528152	B2 BLUE	-0.2795992
-3.034571	B2 CLOSE	0.05246019
-1.842243	B2 CLOSER	0.03132004
-3.578639	B2 ELEVEN	0
-3.879669	B2 EVER	0
-3.402548	B2 FARTHER	0.09661706
-2.471898	B2 FIRST	-0.2455725
-2.269156	B2 FOR	-0.251971
-3.578639	B2 FURTHER	0.124642
-2.232319	B2 GREEN	-0.2274878
-3.402548	B2 HERE	0.1920236
-1.695585	B2 IN	0.006187797
-2.712963	B2 INSTEAD	0.1137427
-3.879669	B2 JUST	0
-2.935867	B2 LEFT	-0.1813615
-3.199677	B2 MY	0
-3.034571	B2 NEAR	0.004563689
-2.447695	B2 NEXT	-0.6794962
-2.800488	B2 NOT	-0.2564289
-3.199677	B2 NUMBER	0
-0.5865277	B2 ON	-0.2647744
-2.440282	B2 ONE	0
-1.127621	B2 OR	-0.1277913
-2.471898	B2 ORANGE	-0.249679
-2.976579	B2 OVER	-0.03714935
-2.60583	B2 PLEASE	-0.2490089
-3.578639	B2 REAL	0
-3.402548	B2 REALLY	-0.1940058
-2.28186	B2 RED	-0.2246745
-2.439194	B2 RIGHT	-0.212964
-2.066756	B2 SHOULD	-0.1930289
-1.585203	B2 SITTING	0.03342998
-3.879669	B2 TEN	0
-1.293683	B2 THAT	-0.222083
-1.812765	B2 THE	-0.07991713
-3.117275	B2 THERE	0
-2.716137	B2 THIS	-0.08353636
-1.576689	B2 TO	-0.2689198
-1.388607	B2 TOGETHER	0.01380748
-3.578639	B2 TRULY	-0.1439253
-3.879669	B2 VERY	0
-3.277609	B2 YOUR	-0.02299028
-0.9128584	B3 </s>	0
-2.800029	B3 ABOVE	0.002020746
-1.112378	B3 AND	-0.2266209
-2.645482	B3 ANOTHER	0
-2.088347	B3 AT	-0.1145917
-2.976121	B3 AWAY	0.04568553
-3.199581	B3 B2	0
-3.879211	B3 B5	0
-2.855364	B3 B6	-0.06331462
-2.787662	B3 B7	0
-1.90709	B3 BACK	-0.02535963
-2.245742	B3 BE	-0.21051
-2.582936	B3 BESIDE	0.02345982
-1.942016	B3 BLOCK	-0.08616155
-2.44058	B3 BLUE	-0.2061704
-3.034113	B3 CLOSE	0.05246019
-1.822306	B3 CLOSER	0.0218772
-3.402089	B3 EVER	0.09667929
-3.277151	B3 FARTHER	0.0788883
-2.687078	B3 FIRST	-0.220209
-2.16503	B3 FOR	-0.2568732
-3.277151	B3 FURTHER	0.07888448
-2.318507	B3 GREEN	-0.2511193
-3.578181	B3 HERE	0.104031
-1.752812	B3 IN	-0.02330792
-2.5638	B3 INSTEAD	0.07443297
-2.396814	B3 IT	0
-3.578181	B3 JUST	0
-2.935607	B3 LEFT	-0.1813615
-2.935607	B3 MY	-0.0264613
-2.924968	B3 NEAR	0.01597337
-2.517105	B3 NEXT	-0.5801116
-2.733083	B3 NOT	-0.2605849
-3.199581	B3 NUMBER	0
-0.5840836	B3 ON	-0.2868355
-1.159879	B3 OR	-0.126551
-2.610529	B3 ORANGE	-0.2476846
-2.837818	B3 OVER	0.002496362
-2.582936	B3 PLEASE	-0.2506301
-3.879211	B3 REAL	0
-3.402089	B3 REALLY	-0.08679585
-2.230027	B3 RED	-0.2252353
-2.471574	B3 RIGHT	-0.2078415
-2.059667	B3 SHOULD	-0.1931257
-1.586955	B3 SITTING	0.03534177
-3.879211	B3 TEN	0
-1.243269	B3 THAT	-0.2160428
-1.83172	B3 THE	-0.05229715
-3.117116	B3 THERE	-0.1446918
-2.780068	B3 THIS	-0.02996584
-1.589528	B3 TO	-0.2682142
-1.366284	B3 TOGETHER	0.01313692
-3.402089	B3 TRULY	-0.03028861
-3.879211	B3 TWELVE	0
-3.402089	B3 VERY	-0.1880957
-3.402089	B3 YOUR	0
-0.7819943	B4 </s>	0
-3.022841	B4 ABOVE	-0.08415664
-1.117685	B4 AND	-0.2062642
-2.559597	B4 ANOTHER	-0.02012153
-2.052794	B4 AT	-0.1152813
-2.913696	B4 AWAY	0.04132071
-3.140813	B4 B2	0
-3.867939	B4 B5	0
-2.691712	B4 B7	0
-1.817424	B4 BACK	-0.0375704
-2.32387	B4 BE	-0.2080153
-2.654822	B4 BESIDE	0.00366877
-1.868523	B4 BLOCK	-0.09740531
-2.528741	B4 BLUE	-0.2091501
-3.089787	B4 CLOSE	0.05947188
-1.796057	B4 CLOSER	0.02819347
-3.390817	B4 ELEVEN	-0.1444878
-3.867939	B4 EVER	0
-3.168969	B4 FARTHER	0.06665385
-2.574139	B4 FIRST	-0.2320722
-2.27316	B4 FOR	-0.2507662
-3.089787	B4 FURTHER	0.0576952
-2.093336	B4 GREEN	-0.254482
-3.867939	B4 HERE	0
-1.65486	B4 IN	0.004175305
-2.650393	B4 INSTEAD	0.1045347
-2.329971	B4 IT	0
-3.867939	B4 JUST	0
-2.853632	B4 LEFT	-0.1903992
-2.947038	B4 MY	-0.04900399
-2.867939	B4 NEAR	-0.04614714
-1.07148	B4 NEXT	-0.6960954
-2.612666	B4 NOT	-0.2663372
-3.002544	B4 NUMBER	0
-1.620707	B4 ON	-0.2210836
-1.194918	B4 OR	-0.1476615
-2.475773	B4 ORANGE	-0.2934987
-2.913696	B4 OVER	-0.01692068
-2.682258	B4 PLEASE	-0.2399348
-3.566909	B4 REAL	0
-3.566909	B4 REALLY	-0.1659771
-2.263962	B4 RED	-0.2093298
-2.646008	B4 RIGHT	-0.1353222
-2.010606	B4 SHOULD	-0.1936509
-1.537525	B4 SITTING	0.0371159
-3.867939	B4 TEN	0
-1.225635	B4 THAT	-0.2227659
-1.752753	B4 THE	-0.04820243
-2.839783	B4 THIS	0
-1.002341	B4 TO	-0.2652196
-1.394693	B4 TOGETHER	0.01440448
-3.867939	B4 TRULY	0
-3.566909	B4 VERY	-0.1683371
-3.265879	B4 YOUR	-0.08244358
-0.7960868	B5 </s>	0
-3.042519	B5 ABOVE	0.01818242
-1.108864	B5 AND	-0.2234457
-2.360455	B5 ANOTHER	0
-2.128585	B5 AT	-0.1123638
-2.933375	B5 AWAY	0.04132071
-2.485394	B5 B11	-0.06367746
-2.306924	B5 B12	0
-2.962514	B5 B2	0
-2.962514	B5 B3	0
-2.688085	B5 B4	0
-3.586587	B5 B5	0
-2.661484	B5 B9	0
-1.792741	B5 BACK	-0.05669565
-2.197421	B5 BE	-0.211863
-2.465751	B5 BESIDE	0.05224636
-1.688886	B5 BLOCK	0
-2.349297	B5 BLUE	-0.2390094
-2.933375	B5 CLOSE	0.04244965
-1.842294	B5 CLOSER	0.01451504
-3.887617	B5 EVER	0
-3.285557	B5 FARTHER	0.0788883
-2.398617	B5 FIRST	-0.2428158
-2.17652	B5 FOR	-0.255362
-3.410496	B5 FURTHER	0.09661324
-2.044885	B5 GREEN	-0.2189473
-3.887617	B5 HERE	0
-1.693336	B5 IN	0.006187737
-2.583905	B5 INSTEAD	0.1137427
-2.13465	B5 IT	0
-2.913754	B5 LEFT	-0.1228727
-2.913754	B5 MY	-0.1586838
-2.984527	B5 NEAR	-0.02928992
-2.281539	B5 NEXT	-0.6117745
-2.632345	B5 NOT	-0.2663372
-2.913754	B5 NUMBER	-0.134476
-1.523406	B5 ON	-0.2763804
-1.186914	B5 OR	-0.1453527
-2.371322	B5 ORANGE	-0.2966412
-2.846225	B5 OVER	0.01222915
-2.577648	B5 PLEASE	-0.2450968
-3.586587	B5 REAL	0
-3.285557	B5 REALLY	-0.1148246
-2.10084	B5 RED	-0.2150632
-2.443075	B5 RIGHT	-0.1801416
-2.024294	B5 SHOULD	-0.1937302
-1.582266	B5 SITTING	0.03032169
-3.887617	B5 TEN	0
-1.233884	B5 THAT	-0.2196737
-1.570812	B5 THE	-0.1047712
-2.962514	B5 THERE	0
-2.492608	B5 THIS	-0.0642947
-1.511897	B5 TO	-0.2669018
-1.373846	B5 TOGETHER	0.01325768
-3.586587	B5 TRULY	-0.1094698
-3.887617	B5 TWELVE	0
-3.410496	B5 VERY	-0.1963659
-3.887617	B5 YOUR	0
-0.7244828	B6 </s>	0
-3.105056	B6 ABOVE	-0.04374403
-1.12188	B6 AND	-0.2232677
-2.495784	B6 ANOTHER	0.01292926
-2.072971	B6 AT	-0.1152813
-3.281147	B6 AWAY	0.07910928
-3.220405	B6 B1	0
-2.811274	B6 B10	0
-3.134983	B6 B3	-0.1449465
-2.969343	B6 B6	0
-1.835541	B6 BACK	-0.01690115
-2.292142	B6 BE	-0.2093855
-2.663087	B6 BESIDE	0.01708542
-1.986628	B6 BLOCK	-0.04909601
-2.391829	B6 BLUE	-0.2932273
-2.883207	B6 CLOSE	0.03875148
-1.830129	B6 CLOSER	0.03002521
-3.582177	B6 ELEVEN	0
-3.582177	B6 EVER	0.124708
-3.582177	B6 FARTHER	0.1246458
-2.623113	B6 FIRST	-0.2320722
-2.308014	B6 FOR	-0.2501136
-3.281147	B6 FURTHER	0.07888448
-2.22996	B6 GREEN	-0.255486
-3.582177	B6 HERE	0
-1.720044	B6 IN	0.007751822
-2.695666	B6 INSTEAD	0.1045347
-2.435994	B6 IT	0
-3.406086	B6 JUST	-0.2007609
-2.900915	B6 LEFT	-0.1903992
-3.002367	B6 MY	-0.04243973
-2.928964	B6 NEAR	-0.0104271
-2.57781	B6 NEXT	-0.4919754
-2.679087	B6 NOT	-0.26379
-3.220405	B6 NUMBER	0
-0.6770831	B6 ON	-0.3173094
-1.178199	B6 OR	-0.1474059
-2.46489	B6 ORANGE	-0.2349166
-2.707116	B6 OVER	0.05947209
-2.749653	B6 PLEASE	-0.2366816
-3.883207	B6 REAL	0
-3.582177	B6 REALLY	-0.1710733
-2.298841	B6 RED	-0.2745004
-2.556852	B6 RIGHT	-0.186295
-2.057132	B6 SHOULD	-0.1932196
-1.586542	B6 SITTING	0.03497121
-1.229029	B6 THAT	-0.2237268
-1.849736	B6 THE	-0.07960343
-2.673666	B6 THIS	-0.06439278
-1.601704	B6 TO	-0.268091
-1.382696	B6 TOGETHER	0.01350594
-3.883207	B6 TRULY	0
-3.883207	B6 VERY	0
-3.406086	B6 YOUR	0
-0.7931095	B7 </s>	0
-3.279439	B7 ABOVE	-0.03960559
-1.141039	B7 AND	-0.2220377
-2.727786	B7 ANOTHER	-0.06151418
-2.121365	B7 AT	-0.1138296
-2.978409	B7 AWAY	0.04568553
-3.329845	B7 B1	0
-2.942729	B7 B10	0
-3.222375	B7 B3	0
-3.028816	B7 B4	-0.147442
-3.196429	B7 B8	0
-1.870514	B7 BACK	-0.05538587
-2.238046	B7 BE	-0.2107602
-2.662395	B7 BESIDE	-0.02018206
-2.114238	B7 BLOCK	-0.04015416
-2.57178	B7 BLUE	-0.2818911
-2.927256	B7 CLOSE	0.04244965
-1.791594	B7 CLOSER	0.01959893
-3.881499	B7 ELEVEN	0
-3.580469	B7 EVER	0.124708
-3.182529	B7 FARTHER	0.06665385
-2.674044	B7 FIRST	-0.2320722
-2.262806	B7 FOR	-0.253058
-3.404378	B7 FURTHER	0.09661324
-2.347313	B7 GREEN	-0.2729071
-3.881499	B7 HERE	0
-1.67857	B7 IN	0.004558742
-2.583902	B7 INSTEAD	0.07038045
-3.881499	B7 JUST	0
-3.222375	B7 LEFT	-0.1228727
-3.136294	B7 MY	0
-3.182529	B7 NEAR	0.01159456
-2.613682	B7 NEXT	-0.6117745
-2.539076	B7 NOT	-0.2701302
-3.222375	B7 NUMBER	0
-0.525883	B7 ON	-0.07754433
-1.19397	B7 OR	-0.1149125
-2.517448	B7 ORANGE	-0.2966412
-2.881499	B7 OVER	-0.006226398
-2.857766	B7 PLEASE	-0.2281237
-3.580469	B7 REAL	0
-3.580469	B7 REALLY	0
-2.317415	B7 RED	-0.2415643
-2.674044	B7 RIGHT	-0.1655509
-1.983872	B7 SHOULD	-0.1941648
-1.584834	B7 SITTING	0.02803296
-1.255771	B7 THAT	-0.2271779
-1.97279	B7 THE	-0.03192311
-3.222375	B7 THERE	-0.1446918
-2.921345	B7 THIS	-0.04582742
-1.630727	B7 TO	-0.2683357
-1.359627	B7 TOGETHER	0.01282543
-3.881499	B7 TRULY	0
-3.404378	B7 VERY	-0.0891559
-3.580469	B7 YOUR	0
-0.6682677	B8 </s>	0
-3.043081	B8 ABOVE	-0.04174884
-1.115781	B8 AND	-0.2256466
-2.522511	B8 ANOTHER	0.04494113
-2.128116	B8 AT	-0.1132753
-2.98509	B8 AWAY	0.04568553
-2.722128	B8 B11	0
-3.143698	B8 B2	0
-3.888179	B8 B5	0
-2.994494	B8 B8	0
-1.810621	B8 BACK	-0.04768163
-2.396818	B8 BE	-0.2063085
-2.575316	B8 BESIDE	0.0524096
-1.86565	B8 BLOCK	-0.07287621
-2.391512	B8 BLUE	-0.2325467
-3.18921	B8 CLOSE	0.0686481
-1.835101	B8 CLOSER	0.02215081
-3.888179	B8 ELEVEN	0
-3.587149	B8 EVER	0.124708
-3.110028	B8 FARTHER	0.05769901
-2.471459	B8 FIRST	-0.2442686
-2.249167	B8 FOR	-0.253058
-3.411058	B8 FURTHER	0.09661324
-2.205645	B8 GREEN	-0.2189473
-3.411058	B8 HERE	0.072427
-1.696303	B8 IN	0.005765438
-2.613361	B8 INSTEAD	0.08997595
-2.342339	B8 IT	0
-3.411058	B8 JUST	-0.09055811
-2.956091	B8 LEFT	-0.1690166
-2.864828	B8 MY	-0.08516395
-2.846787	B8 NEAR	-0.02098204
-2.43355	B8 NEXT	-0.6381035
-2.774236	B8 NOT	-0.2586504
-3.143698	B8 NUMBER	0
-0.865648	B8 ON	-0.2151805
-2.371421	B8 ONE	0
-1.181462	B8 OR	-0.1516622
-2.381609	B8 ORANGE	-0.2307563
-3.043081	B8 OVER	-0.01774186
-2.669318	B8 PLEASE	-0.2427067
-3.28612	B8 REAL	-0.09090099
-3.888179	B8 REALLY	0
-2.279753	B8 RED	-0.2028071
-2.543692	B8 RIGHT	-0.1761746
-2.088839	B8 SHOULD	-0.1928264
-1.591514	B8 SITTING	0.01764143
-3.888179	B8 TEN	0
-1.250309	B8 THAT	-0.2266254
-1.788463	B8 THE	-0.1670088
-3.071778	B8 THERE	-0.1446918
-2.709064	B8 THIS	-0.07553039
-1.587128	B8 TO	-0.2674489
-1.358554	B8 TOGETHER	0.01267493
-3.587149	B8 TRULY	0
-3.888179	B8 TWELVE	0
-3.28612	B8 YOUR	-0.1107766
-0.5501874	B9 </s>	0
-2.835172	B9 ABOVE	0.02799916
-1.117583	B9 AND	-0.2051157
-2.667498	B9 ANOTHER	0
-2.199452	B9 AT	-0.1101842
-3.098413	B9 AWAY	0.05791999
-2.810707	B9 B10	0
-3.218952	B9 B3	0
-2.968528	B9 B6	0
-2.810707	B9 B7	0
-1.924519	B9 BACK	-0.04720242
-2.332496	B9 BE	-0.2080153
-2.469245	B9 BESIDE	0.01962192
-1.975164	B9 BLOCK	-0.1026282
-2.447385	B9 BLUE	-0.2434328
-3.098413	B9 CLOSE	0.05947188
-1.786659	B9 CLOSER	0.01201594
-3.876564	B9 ELEVEN	0
-3.098413	B9 FARTHER	0.05769901
-2.573549	B9 FIRST	-0.2372573
-2.279464	B9 FOR	-0.2513845
-3.177594	B9 FURTHER	0.06665003
-2.257537	B9 GREEN	-0.2729071
-3.575534	B9 HERE	0.104031
-1.67641	B9 IN	0.004951417
-2.613669	B9 INSTEAD	0.08412021
-2.435755	B9 IT	0
-3.575534	B9 JUST	-0.1697393
-3.218952	B9 LEFT	0
-3.0606	B9 MY	-0.07277144
-2.973474	B9 NEAR	0.004647255
-2.555252	B9 NEXT	-0.5411935
-2.575534	B9 NOT	-0.2684102
-3.0606	B9 NUMBER	0
-0.9535275	B9 ON	-0.2249179
-1.164757	B9 OR	-0.1495573
-2.794079	B9 ORANGE	-0.1380022
-2.621292	B9 OVER	0.1052415
-2.684951	B9 PLEASE	-0.2427067
-3.274504	B9 REAL	-0.06250896
-3.399443	B9 REALLY	-0.1940058
-2.284967	B9 RED	-0.2103259
-2.477036	B9 RIGHT	-0.2056048
-1.96275	B9 SHOULD	-0.1943586
-1.558501	B9 SITTING	0.03901285
-1.223482	B9 THAT	-0.2325786
-1.848622	B9 THE	-0.07298201
-3.218952	B9 THERE	0
-2.872603	B9 THIS	-0.09626852
-2.749124	B9 THREE	0
-1.655373	B9 TO	-0.2645333
-1.363952	B9 TOGETHER	0.01313704
-3.876564	B9 TRULY	0
-3.575534	B9 VERY	0
-3.399443	B9 YOUR	0
-0.4722049	BACK </s>	0
-2.342982	BACK ABOVE	0.005715281
-1.103823	BACK AT	-0.1288711
-2.319681	BACK AWAY	0.001539528
-2.044121	BACK BESIDE	-0.001073837
-2.367604	BACK CLOSE	0.001776814
-2.06748	BACK CLOSER	-0.25892
-2.915307	BACK EVER	0.006018251
-2.623964	BACK FARTHER	0.002936006
-2.65791	BACK FURTHER	0.003191561
-2.083174	BACK HERE	0.004630655
-1.378884	BACK IN	-0.1438449
-2.908967	BACK JUST	-0.2792048
-2.529099	BACK LEFT	-0.2457324
-2.365799	BACK NEAR	0.007420212
-2.169622	BACK NEXT	-0.9230135
-2.048846	BACK NOT	-0.2877476
-0.7190663	BACK ON	-0.2778427
-1.68939	BACK OVER	-0.0137147
-2.915307	BACK REAL	-0.1868194
-2.955424	BACK REALLY	-0.272415
-1.979223	BACK RIGHT	-0.294729
-2.043263	BACK THERE	-0.2700287
-1.893934	BACK TO	-0.3065943
-2.999628	BACK TRULY	-0.1819485
-2.902718	BACK VERY	-0.2650582
-0.3517776	BAD </s>	0
-1.764279	BAD MANY	-0.2765873
-1.171137	BAD THANK	0.0008725822
-1.367046	BAD THANKS	-0.1407637
-0.5402562	BE </s>	0
-2.187116	BE ACCEPTABLE	-0.06214872
-2.193529	BE ALRIGHT	-0.2022441
-1.457446	BE BLUE	-0.3135346
-1.922206	BE BUILDING	0.000985384
-1.954509	BE CREATING	0.00110212
-1.64609	BE DOING	0.0005685687
-1.940255	BE FORMING	0.001016945
-1.411139	BE GREEN	-0.3005352
-1.967964	BE MAKING	0.001178175
-1.344653	BE MOVING	0
-2.127637	BE OK	-0.2239319
-1.463603	BE ORANGE	-0.3228233
-1.418638	BE RED	-0.3026077
-1.617159	BE WORKING	0.0001387
-0.2420734	BEAUTIFUL </s>	0
-0.3002327	BEGIN WITH	-0.01311862
-0.8854759	BELIEVE </s>	0
-0.3539994	BELIEVE SO	-0.2070779
-1.305314	BESIDE ANOTHER	-0.1796098
-2.552331	BESIDE B1	-0.0532594
-2.422744	BESIDE B10	-0.09881859
-2.395117	BESIDE B11	-0.1374766
-2.300965	BESIDE B12	-0.1470031
-2.411329	BESIDE B2	-0.08837764
-2.440043	BESIDE B3	-0.1387448
-2.412332	BESIDE B4	-0.08476137
-2.480366	BESIDE B5	-0.0684416
-2.38534	BESIDE B6	-0.1048501
-2.386285	BESIDE B7	-0.09336783
-2.493172	BESIDE B8	-0.06779143
-2.421717	BESIDE B9	-0.1844111
-1.123012	BESIDE BLOCK	-0.2885194
-3.244093	BESIDE EIGHT	0
-2.366423	BESIDE ELEVEN	-0.07191376
-2.973938	BESIDE FIVE	-0.1176315
-3.045326	BESIDE FOUR	-0.08073252
-0.5696752	BESIDE IT	-0.2434825
-1.665966	BESIDE MY	-0.1900552
-4.082426	BESIDE NINE	0
-1.764589	BESIDE NUMBER	-0.08815023
-2.274602	BESIDE ONE	-0.1276247
-3.605305	BESIDE SEVEN	0
-3.009158	BESIDE SIX	-0.09826424
-2.290035	BESIDE TEN	-0.1713373
-1.208682	BESIDE THAT	-0.3702312
-0.8403086	BESIDE THE	-0.1765083
-1.204604	BESIDE THIS	-0.2056943
-2.709122	BESIDE THREE	-0.088101
-2.326552	BESIDE TWELVE	-0.08547467
-2.8099	BESIDE TWO	-0.1234689
-1.672493	BESIDE YOUR	-0.190524
-0.2419548	BET </s>	0
-1.484585	BETWEEN EIGHT	-0.2896364
-1.394993	BETWEEN FIVE	-0.2892558
-1.547792	BETWEEN FOUR	-0.2888381
-1.586909	BETWEEN NINE	-0.2887767
-0.5968347	BETWEEN ONE	-0.2912774
-1.454283	BETWEEN SEVEN	-0.289813
-1.47346	BETWEEN SIX	-0.2899456
-1.482172	BETWEEN THREE	-0.2891935
-1.495022	BETWEEN TWO	-0.2898258
-0.6227833	BIT ABOUT	-0.2087867
-3.969136	BIT AWFUL	0
-3.190985	BIT BAD	-0.04680625
-3.492015	BIT DREADFUL	0.1099013
-1.964815	BIT FUNNY	0.004442424
-3.270166	BIT HORRIBLE	0.07580546
-0.6516997	BIT LATER	0.0002029538
-3.367076	BIT LOUSY	0.08978277
-3.492015	BIT NASTY	0.1100152
-2.099904	BIT ODD	0.00622353
-2.094075	BIT STRANGE	0.006144553
-3.066046	BIT TERRIBLE	0.05130777
-2.143061	BIT WEIRD	0.006896377
-0.5690004	BLOCK </s>	0
-3.576866	BLOCK ABOVE	0.06533732
-1.789801	BLOCK AND	-0.2053965
-2.770014	BLOCK ANOTHER	-0.1339938
-1.371925	BLOCK AT	-0.1289921
-3.591758	BLOCK AWAY	0.004891485
-2.45167	BLOCK B1	0.01140812
-2.385713	BLOCK B10	0.04493493
-2.388234	BLOCK B11	0.03969193
-2.320551	BLOCK B12	0.0393694
-2.471502	BLOCK B2	0.02027071
-2.456452	BLOCK B3	0.02152652
-2.433978	BLOCK B4	0.02385974
-2.507556	BLOCK B5	0.02070644
-1.913689	BLOCK B6	0.03355467
-2.386657	BLOCK B7	0.04270893
-2.440055	BLOCK B8	0.01461911
-2.427356	BLOCK B9	0.01226938
-1.842636	BLOCK BACK	-0.07121259
-2.562941	BLOCK BE	-0.2213643
-2.015181	BLOCK BESIDE	0.01433665
-2.10852	BLOCK BLOCK	-0.236654
-2.848716	BLOCK BLUE	-0.3029843
-3.530621	BLOCK CLOSE	0.004371643
-1.831476	BLOCK CLOSER	0.0006302893
-2.735971	BLOCK COLUMN	-0.263761
-2.027813	BLOCK EIGHT	-0.1609052
-2.330634	BLOCK ELEVEN	0.01797968
-4.128316	BLOCK EVER	0.01615971
-3.778069	BLOCK FARTHER	0.007260203
-2.503522	BLOCK FIRST	-0.2691627
-3.092397	BLOCK FIVE	-0.1962562
-2.289375	BLOCK FOR	-0.2737075
-3.191058	BLOCK FOUR	-0.1868337
-3.785894	BLOCK FURTHER	0.007390052
-2.500631	BLOCK GREEN	-0.2901882
-3.612443	BLOCK HERE	0.003258765
-2.607702	BLOCK HORIZONTAL	-0.004529923
-1.69558	BLOCK IN	-0.02743846
-1.938438	BLOCK INSTEAD	0.001389205
-2.559279	BLOCK IT	-0.2787926
-4.322137	BLOCK JUST	-0.2455118
-3.30518	BLOCK LEFT	-0.2401049
-2.821788	BLOCK LINE	-0.2411795
-3.329333	BLOCK MY	-0.1501502
-3.480934	BLOCK NEAR	0.005177379
-1.559744	BLOCK NEXT	-0.5694014
-3.500951	BLOCK NINE	-0.2228884
-3.275837	BLOCK NOT	-0.2861941
-1.721615	BLOCK NUMBER	-0.1074823
-0.8419634	BLOCK ON	-0.276554
-1.527784	BLOCK ONE	-0.217467
-2.483287	BLOCK OR	-0.06100443
-2.013844	BLOCK ORANGE	-0.312962
-3.069891	BLOCK OVER	0.0002860725
-2.562294	BLOCK PLEASE	-0.2768424
-4.183834	BLOCK REAL	-0.1642918
-4.111283	BLOCK REALLY	-0.2558158
-2.021519	BLOCK RED	-0.2899258
-2.904311	BLOCK RIGHT	-0.2872046
-2.233221	BLOCK ROW	-0.3075172
-2.431087	BLOCK SET	0.0003434122
-3.477038	BLOCK SEVEN	-0.2149333
-2.674387	BLOCK SHOULD	-0.1989503
-2.250485	BLOCK SITTING	0.005404532
-1.73359	BLOCK SIX	-0.2279749
-2.538094	BLOCK STACK	-0.2810493
-2.296707	BLOCK STAIRCASE	-0.3151071
-2.929659	BLOCK STRAIGHT	-0.004000932
-1.645707	BLOCK STRUCTURE	-0.1732876
-2.349587	BLOCK TEN	0.01000082
-1.901054	BLOCK THAT	-0.2221349
-2.016884	BLOCK THE	-0.1575333
-3.189055	BLOCK THERE	-0.2488382
-2.949062	BLOCK THIS	-0.2330943
-2.029056	BLOCK THREE	-0.1850827
-1.755524	BLOCK TO	-0.2856902
-1.96523	BLOCK TOGETHER	0.001138687
-1.961122	BLOCK TOWER	-0.3962215
-4.204037	BLOCK TRULY	-0.1604596
-2.32568	BLOCK TWELVE	0.01571703
-2.028503	BLOCK TWO	-0.1738885
-3.014373	BLOCK UPRIGHT	-0.06124373
-3.018401	BLOCK VERTICAL	-0.05789308
-4.270984	BLOCK VERY	-0.2355648
-3.924197	BLOCK YOUR	-0.1501313
-0.2883325	BLOCKS </s>	0
-3.441435	BLOCKS ABOVE	0.03644848
-1.876377	BLOCKS AND	-0.245341
-1.899459	BLOCKS AT	-0.1288928
-1.965422	BLOCKS AVAILABLE	-0.301703
-3.509893	BLOCKS AWAY	0.003416359
-2.855671	BLOCKS B1	-0.2342655
-2.722218	BLOCKS B10	-0.2337482
-2.735665	BLOCKS B11	-0.2344146
-2.625776	BLOCKS B12	-0.2340477
-2.847144	BLOCKS B2	-0.2310893
-2.841047	BLOCKS B3	-0.2313114
-2.777908	BLOCKS B4	-0.2346022
-2.958324	BLOCKS B5	-0.2337797
-2.784502	BLOCKS B6	-0.2334622
-2.731528	BLOCKS B7	-0.2359811
-2.813983	BLOCKS B8	-0.233415
-2.777254	BLOCKS B9	-0.2320705
-1.821807	BLOCKS BACK	-0.07169488
-3.371911	BLOCKS BE	-0.2189355
-3.062246	BLOCKS BESIDE	0.02305621
-1.724799	BLOCKS BLUE	-0.2956348
-3.859435	BLOCKS BY	-0.1935841
-3.150203	BLOCKS CAN	-0.2757145
-3.506376	BLOCKS CLOSE	0.003486335
-1.811276	BLOCKS CLOSER	0.0004843473
-1.929167	BLOCKS DO	-0.2353011
-3.436077	BLOCKS EIGHT	-0.2735603
-2.794297	BLOCKS ELEVEN	-0.2173192
-4.122677	BLOCKS EVER	0.01355755
-3.85161	BLOCKS FARTHER	0.007260203
-2.566545	BLOCKS FIRST	-0.269199
-3.326376	BLOCKS FIVE	-0.266721
-1.577332	BLOCKS FOR	-0.2739728
-3.445107	BLOCKS FOUR	-0.2723669
-3.730566	BLOCKS FURTHER	0.005455583
-1.427725	BLOCKS GREEN	-0.676255
-2.818761	BLOCKS HAS	0.01689938
-3.463077	BLOCKS HERE	0.01691502
-2.017394	BLOCKS HIGH	0
-1.405175	BLOCKS IN	-0.02760249
-2.589633	BLOCKS INSTEAD	0.001296043
-3.93704	BLOCKS JUST	-0.2735406
-3.377634	BLOCKS LEFT	-0.2421668
-2.012087	BLOCKS LONG	0
-3.800457	BLOCKS MAY	-0.2351911
-3.730566	BLOCKS MUST	0.01101029
-3.517013	BLOCKS NEAR	0.04516405
-2.821614	BLOCKS NEXT	-0.9109022
-3.997738	BLOCKS NINE	-0.2730855
-3.186498	BLOCKS NOT	-0.2869464
-2.165582	BLOCKS NUMBER	-0.1063088
-3.307542	BLOCKS OFF	0.002101809
-1.799098	BLOCKS ON	-0.2630908
-2.592685	BLOCKS ONE	-0.2853117
-3.038011	BLOCKS ORANGE	-0.3101815
-3.041089	BLOCKS OVER	0.00757584
-2.621258	BLOCKS PLEASE	-0.2768741
-4.094648	BLOCKS REAL	-0.1742304
-4.108436	BLOCKS REALLY	-0.2602249
-1.72295	BLOCKS RED	-0.2914322
-2.915334	BLOCKS RIGHT	-0.2910947
-4.008733	BLOCKS SEVEN	-0.2721946
-2.769209	BLOCKS SHOULD	-0.1654104
-2.368328	BLOCKS SITTING	-0.05954385
-3.292983	BLOCKS SIX	-0.2754709
-1.988819	BLOCKS TALL	0
-2.790912	BLOCKS TEN	-0.2161621
-2.019161	BLOCKS THAT	-0.2724195
-3.225439	BLOCKS THERE	-0.2581625
-2.990997	BLOCKS THREE	-0.2736246
-1.851461	BLOCKS TO	-0.285677
-2.223443	BLOCKS TOGETHER	0.001817763
-4.1374	BLOCKS TRULY	-0.1695195
-2.806007	BLOCKS TWELVE	-0.2152468
-3.136698	BLOCKS TWO	-0.2681084
-4.068319	BLOCKS VERY	-0.2534764
-1.978829	BLOCKS WIDE	0
-1.575896	BLOCKS WITH	-0.1707671
-2.26434	BLOCKS WOULD	-0.278672
-3.883795	BLOCKS YOURSELF	0.009380907
-0.8576078	BLUE </s>	0
-0.4087757	BLUE BLOCK	-0.3091616
-0.7821215	BLUE BLOCKS	-0.1015182
-2.55162	BLUE COLUMN	-0.1621274
-2.650302	BLUE FIRST	-0.2672083
-2.407403	BLUE HORIZONTAL	-0.004184455
-2.749141	BLUE INSTEAD	0.008232534
-2.644429	BLUE LINE	-0.2589755
-1.280284	BLUE ONE	-0.2689295
-1.714392	BLUE ONES	0.001708806
-2.743555	BLUE PLEASE	-0.2748388
-2.125904	BLUE ROW	-0.2683187
-2.218449	BLUE SET	0.0005618334
-2.405361	BLUE STACK	-0.4190999
-2.135869	BLUE STAIRCASE	-0.1326025
-2.728926	BLUE STRAIGHT	-0.003281534
-1.454699	BLUE STRUCTURE	-0.09281054
-3.029956	BLUE STRUCTURES	-0.1647013
-2.376007	BLUE TOWER	-0.2067087
-2.85265	BLUE UPRIGHT	-0.06016578
-2.765059	BLUE VERTICAL	-0.05726479
-0.5648024	BOTHER </s>	0
-0.5209748	BOTHER WITH	-0.2888761
-0.9792491	BOTTOM BLOCK	-0.1084124
-1.613088	BOTTOM BLOCKS	-0.08982575
-1.478474	BOTTOM BLUE	-0.2411931
-2.298034	BOTTOM COLUMN	-0.06688059
-2.324859	BOTTOM EIGHT	-0.04802962
-2.257569	BOTTOM FIVE	-0.1000124
-2.22245	BOTTOM FOUR	-0.1281763
-1.539254	BOTTOM GREEN	-0.3033666
-2.039756	BOTTOM HORIZONTAL	0.02714378
-2.386822	BOTTOM LINE	-0.128214
-3.201124	BOTTOM LINES	0
-2.054996	BOTTOM NINE	-0.005437896
-2.534074	BOTTOM ONE	-0.1598579
-1.515009	BOTTOM ORANGE	-0.2089475
-1.544209	BOTTOM RED	-0.2590362
-0.5822917	BOTTOM ROW	-0.2910203
-1.777878	BOTTOM SET	0.008126855
-3.201124	BOTTOM SETS	0.1245959
-2.201124	BOTTOM SEVEN	-0.03975801
-1.911089	BOTTOM SHAPE	-0.2332718
-2.121943	BOTTOM SHAPES	0.07827672
-2.148768	BOTTOM SIX	-0.08149707
-2.157273	BOTTOM STACK	-0.1373773
-3.025033	BOTTOM STACKS	-0.09424911
-1.819409	BOTTOM STAIRCASE	0.05267018
-3.201124	BOTTOM STAIRCASES	0
-2.140426	BOTTOM STRAIGHT	0.04420924
-1.088784	BOTTOM STRUCTURE	-0.1441629
-1.858701	BOTTOM STRUCTURES	-0.1260128
-2.110413	BOTTOM THREE	-0.05328283
-2.045095	BOTTOM TOWER	-0.1545466
-3.502154	BOTTOM TOWERS	0
-1.052162	BOTTOM TWO	-0.004874766
-2.547911	BOTTOM UPRIGHT	-0.02110778
-2.460761	BOTTOM VERTICAL	0.03109522
-0.3836895	BRILLIANT </s>	0
-1.473487	BRILLIANT MANY	-0.2343181
-1.172457	BRILLIANT THANK	0.02511448
-1.376577	BRILLIANT THANKS	-0.06268892
-0.4509735	BUILD A	-0.4934279
-1.169498	BUILD AN	-0.2668028
-1.247424	BUILD ANOTHER	-0.0973441
-1.983977	BUILD IT	-0.3730208
-1.623141	BUILD ONE	0
-1.177248	BUILD SOME	-0.16152
-1.406391	BUILD THAT	-0.296485
-0.6052988	BUILD THE	-0.1864447
-1.388291	BUILD THIS	-0.1789874
-1.169054	BUILDING ANOTHER	-0.02027655
-1.686403	BUILDING IT	-0.4064394
-1.150589	BUILDING THAT	-0.2345953
-0.5195903	BUILDING THE	-0.1659404
-1.114019	BUILDING THIS	-0.1548475
-1.206311	BUILDS ANOTHER	0.0118202
-1.724154	BUILDS IT	-0.3457369
-1.12303	BUILDS THAT	-0.164201
-0.5039052	BUILDS THE	-0.1512687
-1.175991	BUILDS THIS	-0.1091768
-0.5874518	BUNCH </s>	0
-1.429656	BUNCH CABOT	-0.1726167
-1.483152	BUNCH COMPUTER	-0.1730244
-1.030107	BUNCH FOR	-0.2705767
-0.7904654	BUNCH OF	-0.3360161
-1.039781	BUT A	-0.2976571
-0.7865632	BUT AT	-0.1120809
-1.20505	BUT FEWER	0.002126575
-1.220201	BUT MAXIMUM	-0.1119723
-1.338087	BUT NO	-0.2966034
-1.410661	BUT NOT	-0.296817
-1.179286	BUT UP	-0.2632115
-0.5307548	BY ALL	-0.2746945
-0.6877569	BY YOURSELF	8.878112e-05
-0.7620729	BYE </s>	0
-0.7861376	BYE BYE	-0.1413233
-1.125174	BYE CABOT	-0.173681
-1.110276	BYE COMPUTER	-0.1743276
-1.056697	BYE NOW	-0.1861243
-0.4411015	CABOT </s>	0
-1.662673	CABOT AND	-0.2394297
-1.969365	CABOT BUILD	-0.2386396
-2.404744	CABOT CREATE	-0.2389205
-1.915034	CABOT DO	-0.3005805
-1.634737	CABOT FINISH	-0.2418046
-1.935853	CABOT FIRST	-0.2483913
-2.614559	CABOT FORM	-0.2630157
-1.235518	CABOT I	-0.3992453
-1.965004	CABOT I'D	0.0008856654
-1.94526	CABOT I'LL	-0.1117754
-2.188264	CABOT I'M	-0.2912138
-1.606441	CABOT LET	-0.02990639
-1.520136	CABOT LET'S	-0.4309292
-2.007008	CABOT MAKE	-0.3606923
-1.882745	CABOT NEXT	-0.2406321
-1.86053	CABOT NOW	-0.3780615
-2.23396	CAN ANOTHER	-0.04466379
-3.328931	CAN B1	-0.252369
-2.904745	CAN B10	-0.2472205
-2.891697	CAN B11	-0.2635228
-2.688227	CAN B12	-0.2569712
-3.263725	CAN B2	-0.272986
-3.35615	CAN B3	-0.2316099
-3.059827	CAN B4	-0.2575722
-3.98111	CAN B5	-0.2635026
-3.08416	CAN B6	-0.2196267
-2.908069	CAN B7	-0.2405204
-3.189524	CAN B8	-0.2412929
-3.059827	CAN B9	-0.2576129
-1.950865	CAN BLOCK	-0.2575413
-3.38519	CAN EIGHT	-0.1759199
-3.743749	CAN ELEVEN	-0.2779688
-1.806073	CAN HAVE	-0.1343949
-0.482053	CAN I	-0.2826539
-2.427704	CAN IT	-0.2953596
-2.848204	CAN MY	-0.1791184
-2.967957	CAN NUMBER	-0.06156024
-2.556115	CAN ONE	-0.2017261
-1.791288	CAN ONLY	-0.102587
-1	CAN REUSE	0
-3.215824	CAN SIX	-0.1758083
-3.846411	CAN TEN	-0.2724841
-2.231194	CAN THAT	-0.2466766
-1.580877	CAN THE	-0.1752978
-2.228179	CAN THIS	-0.2376109
-2.855664	CAN THREE	-0.1759019
-4.119413	CAN TWELVE	-0.2532314
-3.00357	CAN TWO	0
-0.9703063	CAN WE	-0.2435151
-0.708284	CAN YOU	-0.2819107
-2.993119	CAN YOUR	-0.1789238
-0.3642457	CAN'T DO	-0.3732872
-0.4981594	CAN'T THINK	-0.204768
-0.4727218	CANCEL </s>	0
-0.3470639	CANCEL THAT	-0.3727797
-0.7394781	CANNOT DO	-0.3732812
-0.4928244	CANNOT THINK	-0.2047711
-0.2991186	CATCH THAT	-0.3729575
-1.848629	CERTAIN COLUMN	-0.2796001
-1.734156	CERTAIN HORIZONTAL	0.0001572967
-1.992151	CERTAIN LINE	-0.2680923
-1.570334	CERTAIN ROW	-0.350764
-1.579784	CERTAIN SET	0.003731251
-0.8078634	CERTAIN SHAPE	-0.2362446
-1.791768	CERTAIN STACK	-0.2974487
-1.463041	CERTAIN STAIRCASE	-0.75772
-2.056905	CERTAIN STRAIGHT	0.005645901
-0.7652907	CERTAIN STRUCTURE	-0.2205719
-1.675081	CERTAIN TOWER	-0.3783063
-2.103901	CERTAIN UPRIGHT	-0.05065463
-2.185572	CERTAIN VERTICAL	-0.04497077
-0.4820964	CERTAINLY </s>	0
-0.7761303	CERTAINLY NOT	-0.3136669
-1.649984	CERTAINLY YEAH	-0.2417007
-1.497766	CERTAINLY YES	-0.3483584
-1.659127	CERTAINLY YUP	-0.239971
-0.3878241	CLASS </s>	0
-1.732394	CLASS MANY	-0.2220836
-1.112605	CLASS THANK	0.01657176
-1.255273	CLASS THANKS	-0.09349474
-0.4629666	CLEARLY </s>	0
-0.812578	CLEARLY NOT	-0.3133854
-1.675465	CLEARLY YEAH	-0.2400146
-1.512539	CLEARLY YES	-0.3464824
-1.644797	CLEARLY YUP	-0.239282
-0.2891659	CLOSE TO	-0.3447556
-0.5937886	CLOSER </s>	0
-2.229846	CLOSER FIRST	-0.2678007
-1.901686	CLOSER FOR	-0.2730205
-2.274758	CLOSER INSTEAD	0.005262256
-2.346454	CLOSER PLEASE	-0.2752672
-0.9362838	CLOSER TO	-0.3447996
-0.7117295	CLOSER TOGETHER	0.0002662539
-0.5227044	COLOR </s>	0
-0.9793321	COLOR CAN	-0.04710543
-0.6101637	COLOR DO	-0.2355493
-0.9874128	COLOR SHOULD	-0.2234581
-0.7638226	COLUMN </s>	0
-2.486456	COLUMN AND	-0.1967825
-1.899709	COLUMN AT	-0.126145
-2.591065	COLUMN BE	-0.214279
-2.559632	COLUMN BLUE	-0.1923546
-2.989005	COLUMN BY	-0.1854766
-2.348206	COLUMN CAN	-0.2742212
-2.235462	COLUMN DO	-0.2091187
-2.630546	COLUMN EIGHT	-0.125748
-2.599817	COLUMN FIRST	-0.2411872
-2.543475	COLUMN FIVE	-0.1554085
-2.259866	COLUMN FOR	-0.2668233
-2.569229	COLUMN FOUR	-0.2185642
-2.101567	COLUMN GREEN	-0.2555471
-2.205321	COLUMN HAS	0.02401865
-3.006038	COLUMN HAVE	-0.08280459
-2.675402	COLUMN INSTEAD	0.06674612
-0.7292955	COLUMN IS	-0.3630654
-1.857435	COLUMN LOOKS	-0.2313964
-2.671584	COLUMN MAY	-0.2331126
-2.705008	COLUMN MUST	0.01611969
-2.760525	COLUMN NINE	-0.13648
-0.9835489	COLUMN OF	-0.3545506
-2.663615	COLUMN OFF	0.007600129
-1.603927	COLUMN ON	-0.2226095
-1.702876	COLUMN ONE	-0.2761022
-2.847675	COLUMN ONLY	-0.09125994
-2.586392	COLUMN ORANGE	-0.2951544
-2.030419	COLUMN OUT	0.003896415
-2.757069	COLUMN PLEASE	-0.2556084
-2.157762	COLUMN RED	-0.2790962
-2.912616	COLUMN SEVEN	-0.1540509
-2.448042	COLUMN SHALL	0.03689331
-2.141527	COLUMN SHOULD	-0.04443306
-2.503461	COLUMN SIX	-0.1342217
-2.320366	COLUMN THREE	-0.1609502
-1.785828	COLUMN TO	-0.2788279
-2.422255	COLUMN TWO	-0.1572428
-1.913526	COLUMN WITH	-0.04910082
-3.173529	COLUMN YOURSELF	0.02726185
-0.3219155	COLUMNS ARE	-0.2669378
-2.229406	COLUMNS CAN	-0.2456029
-2.425458	COLUMNS HAVE	-0.06429207
-2.377153	COLUMNS MAY	-0.208844
-2.354876	COLUMNS MUST	0.03751785
-2.509778	COLUMNS ONLY	-0.07481308
-2.354876	COLUMNS SHOULD	-0.237921
-1.274158	COMPARATIVELY ACCEPTABLE	0.09459025
-1.496007	COMPARATIVELY ALRIGHT	-0.0558282
-1.973128	COMPARATIVELY AWFUL	0.1096471
-2.149219	COMPARATIVELY BAD	0.02913444
-1.848189	COMPARATIVELY DREADFUL	0.08977261
-1.327349	COMPARATIVELY FINE	-0.1727264
-1.672098	COMPARATIVELY FUNNY	0.06666109
-1.393102	COMPARATIVELY GOOD	-0.2019091
-1.476829	COMPARATIVELY GREAT	0.2134869
-2.450249	COMPARATIVELY HORRIBLE	0
-1.848189	COMPARATIVELY LOUSY	0.08978277
-1.672098	COMPARATIVELY NASTY	0.06567848
-1.450249	COMPARATIVELY ODD	0.04342806
-1.525642	COMPARATIVELY OK	-0.02201676
-1.496007	COMPARATIVELY STRANGE	0.04759535
-2.149219	COMPARATIVELY TERRIBLE	0.1413043
-1.371068	COMPARATIVELY WEIRD	0.03693786
-2.049218	COMPLETELY ACCEPTABLE	0.1279936
-2.429429	COMPLETELY ALRIGHT	0.07812387
-2.225309	COMPLETELY AWESOME	0.1446402
-2.526339	COMPLETELY AWFUL	0.0895184
-2.526339	COMPLETELY BAD	-0.02259824
-2.350248	COMPLETELY BRILLIANT	0.09686168
-2.526339	COMPLETELY DREADFUL	0.08977261
-2.526339	COMPLETELY EXCELLENT	-0.04382301
-2.174157	COMPLETELY EXCEPTIONAL	0.07005329
-2.087007	COMPLETELY FABULOUS	0.09749328
-2.128399	COMPLETELY FANTASTIC	0.05426921
-2.160333	COMPLETELY FINE	0.01105294
-1.883328	COMPLETELY FIRST	-0.2505639
-2.087007	COMPLETELY FUNNY	0.03992185
-2.228765	COMPLETELY GOOD	-0.2262076
-1.76787	COMPLETELY GREAT	0.1745688
-1.584331	COMPLETELY LIKELY	0.02589646
-2.651278	COMPLETELY LOUSY	0.1099114
-2.174157	COMPLETELY MAGNIFICENT	0.0601133
-2.225309	COMPLETELY MARVELOUS	0.1072558
-3.128399	COMPLETELY NASTY	0
-2.350248	COMPLETELY ODD	0.06667131
-1.954148	COMPLETELY OK	-0.1222082
-1.924279	COMPLETELY OUTSTANDING	0.03976291
-1.031489	COMPLETELY POSITIVE	-0.0476211
-1.584331	COMPLETELY POSSIBLY	0.02583808
-1.637038	COMPLETELY PROBABLY	0.02903321
-2.429429	COMPLETELY STERLING	0.1469511
-2.651278	COMPLETELY STRANGE	0.1110168
-2.209789	COMPLETELY SUPER	0.142318
-2.526339	COMPLETELY SUPERB	0.09200116
-0.9324996	COMPLETELY SURE	-0.1302296
-2.283301	COMPLETELY TERRIFIC	0.104269
-1.746366	COMPLETELY TOP	-0.2765556
-2.283301	COMPLETELY WEIRD	0.05880708
-2.174157	COMPLETELY WONDERFUL	0.06286201
-0.4422062	COMPUTER </s>	0
-1.647423	COMPUTER AND	-0.2398064
-1.962504	COMPUTER BUILD	-0.2391245
-2.393396	COMPUTER CREATE	-0.2392293
-1.919644	COMPUTER DO	-0.3005805
-1.643217	COMPUTER FINISH	-0.2417739
-1.939771	COMPUTER FIRST	-0.2484583
-2.668896	COMPUTER FORM	-0.2625322
-1.242633	COMPUTER I	-0.3992322
-1.936502	COMPUTER I'D	0.0008144975
-1.954654	COMPUTER I'LL	-0.1117336
-2.148496	COMPUTER I'M	-0.2918459
-1.629586	COMPUTER LET	-0.02989092
-1.508938	COMPUTER LET'S	-0.4316105
-2.024071	COMPUTER MAKE	-0.3597617
-1.837333	COMPUTER NEXT	-0.242587
-1.857325	COMPUTER NOW	-0.378626
-0.4917113	CONCERNED </s>	0
-0.891153	CONCERNED NO	-0.3763846
-0.887007	CONCERNED YES	-0.3613329
-0.2419458	CONFUSED </s>	0
-0.2420594	COOL </s>	0
-0.242033	CORRECT </s>	0
-1.275219	COULD BE	-0.2217721
-0.8070326	COULD WE	-0.2458612
-0.5241622	COULD YOU	-0.2822139
-0.9937582	COUPLE </s>	0
-0.8043841	COUPLE BLOCKS	-0.2861654
-1.388669	COUPLE BLUE	-0.2247416
-1.378463	COUPLE GREEN	-0.2239604
-0.7428734	COUPLE OF	-0.3358161
-1.323707	COUPLE ORANGE	-0.2251435
-1.380793	COUPLE RED	-0.2471394
-0.5119054	COURSE </s>	0
-0.5764532	COURSE NOT	-0.314937
-0.325506	CREATE A	-0.5904058
-1.032594	CREATE AN	-0.2767901
-1.617875	CREATE ANOTHER	-0.0919522
-2.124833	CREATE IT	-0.3446923
-1.023715	CREATE SOME	-0.1651439
-1.51062	CREATE THAT	-0.2997756
-0.871473	CREATE THE	-0.1863388
-1.545147	CREATE THIS	-0.1776323
-1.216397	CREATES ANOTHER	0.04162663
-1.739439	CREATES IT	-0.3365754
-1.149078	CREATES THAT	-0.1518102
-0.5123398	CREATES THE	-0.1426488
-1.102194	CREATES THIS	-0.1088032
-1.218891	CREATING ANOTHER	-0.02013314
-1.590727	CREATING IT	-0.4152993
-1.149024	CREATING THAT	-0.2449274
-0.5261555	CREATING THE	-0.1760829
-1.078746	CREATING THIS	-0.1505715
-0.2419132	DAMN </s>	0
-0.2419131	DARN </s>	0
-0.4770178	DEFINITELY </s>	0
-0.7707198	DEFINITELY NOT	-0.3135618
-1.762987	DEFINITELY YEAH	-0.237665
-1.548369	DEFINITELY YES	-0.345332
-1.613225	DEFINITELY YUP	-0.2401821
-0.9999397	DEMONSTRATE A	-0.2757973
-1.06617	DEMONSTRATE HOW	-0.3948142
-0.5755058	DEMONSTRATE TO	-0.2905825
-1.053601	DEMONSTRATE WHAT	-0.3274511
-0.9954731	DESCRIBE A	-0.2760245
-1.07427	DESCRIBE HOW	-0.3948054
-0.5675046	DESCRIBE TO	-0.2905861
-1.075707	DESCRIBE WHAT	-0.3274299
-0.1249553	DIAMETER </s>	0
-1.275772	DID </s>	0
-0.5187086	DID IT	-0.4428106
-0.6360153	DID NOT	-0.260676
-1.258099	DID THAT	-0.3728518
-0.826098	DID YOU	-0.2941075
-1.003334	DIDN'T </s>	0
-1.086924	DIDN'T CATCH	0.0001963675
-1.095429	DIDN'T GET	-0.2224379
-0.8293787	DIDN'T KNOW	-0.1944656
-0.787361	DIDN'T UNDERSTAND	-0.1618948
-0.3064699	DIFFERENT BLOCK	-0.2206404
-1.180764	DIFFERENT BLUE	-0.3869538
-1.174672	DIFFERENT GREEN	-0.4824135
-1.190888	DIFFERENT ORANGE	-0.3421226
-1.166995	DIFFERENT RED	-0.3579668
-0.8260821	DO </s>	0
-1.404078	DO I	-0.4243169
-0.6493874	DO IT	-0.3721825
-2.102224	DO NEXT	-0.2416555
-1.150976	DO NOT	-0.2402314
-2.085434	DO NOW	-0.1863905
-0.9142532	DO THAT	-0.3424606
-1.709226	DO THE	-0.2962217
-1.9894	DO THIS	-0.2715913
-1.530066	DO WE	-0.3115886
-0.8018521	DO YOU	-0.264965
-0.3011514	DOES NOT	-0.293532
-0.6137553	DOESN'T LOOK	0.002947658
-0.5913532	DOESN'T SEEM	0.002724767
-0.5111569	DOING </s>	0
-0.8608384	DOING NEXT	-0.2417204
-0.8679999	DOING NOW	-0.1864432
-1.358585	DON'T </s>	0
-1.538323	DON'T BELIEVE	-0.04687741
-1.066823	DON'T BOTHER	0
-0.5296879	DON'T DO	-0.2857717
-1.287011	DON'T GET	-0.1262641
-0.7292683	DON'T KNOW	-0.1449044
-1.601509	DON'T REALLY	-0.249327
-1.54461	DON'T THINK	-0.2617815
-1.386785	DON'T UNDERSTAND	-0.2156441
-0.3156375	DONE </s>	0
-2.094252	DONE BUILDING	0.003289104
-2.123865	DONE CREATING	0.003551006
-1.419181	DONE FOR	-0.2892628
-2.154705	DONE FORMING	0.003876209
-1.740165	DONE HERE	-0.03866249
-1.367052	DONE IT	-0.4200314
-2.077407	DONE MAKING	0.003089249
-1.609085	DONE NOW	-0.1863267
-1.387324	DONE THAT	-0.3709289
-0.6664212	DONE WITH	-0.3394917
-2.058171	DONE YET	0.0007277727
-0.5136176	DOUBT </s>	0
-0.7668071	DOUBT NOT	-0.312292
-1.456284	DOUBT YEAH	-0.2387764
-1.569019	DOUBT YES	-0.3306881
-1.505972	DOUBT YUP	-0.235733
-0.243045	DREADFUL </s>	0
-1.400679	DROP A	-0.3110213
-1.927334	DROP ALL	-0.1741366
-2.248249	DROP AN	-0.4293332
-1.740241	DROP ANOTHER	-0.1465286
-2.585699	DROP B1	-0.1785784
-2.34513	DROP B10	-0.1131482
-2.28249	DROP B11	-0.1729443
-2.157865	DROP B12	-0.1067216
-2.635331	DROP B2	-0.1236233
-2.56286	DROP B3	-0.1461939
-2.45471	DROP B4	-0.1191708
-2.774152	DROP B5	-0.12276
-2.448966	DROP B6	-0.1498868
-2.349646	DROP B7	-0.1461802
-2.450564	DROP B8	-0.07748467
-2.421336	DROP B9	-0.140484
-1.516566	DROP BLOCK	-0.241366
-1.115836	DROP BLOCKS	-0.2749411
-2.817782	DROP EIGHT	-0.06220658
-2.677242	DROP ELEVEN	-0.07708942
-2.669223	DROP FIVE	-0.1065791
-2.791892	DROP FOUR	-0.07604143
-1.325621	DROP IT	-0.3863295
-2.092408	DROP MANY	-0.07448742
-1.522541	DROP MINE	-0.0767321
-1.803393	DROP MY	-0.2254312
-3.216511	DROP NINE	-0.00799749
-1.945637	DROP NUMBER	-0.08617283
-1.702154	DROP ONE	-0.2601478
-3.184326	DROP SEVEN	-0.07666684
-2.094926	DROP SEVERAL	-0.007138789
-2.62426	DROP SIX	-0.05945197
-1.993995	DROP SOME	-0.162002
-2.677242	DROP TEN	-0.091498
-1.753655	DROP THAT	-0.2549889
-1.029212	DROP THE	-0.2105758
-1.324605	DROP THEM	-0.07287633
-2.000041	DROP THESE	-0.1128365
-1.745989	DROP THIS	-0.2370536
-2.068003	DROP THOSE	-0.1314062
-2.366871	DROP THREE	-0.07561998
-2.640258	DROP TWELVE	-0.1107917
-2.482896	DROP TWO	-0.0537146
-1.854783	DROP YOUR	-0.1701329
-1.561077	DROP YOURS	-0.08873785
-1.172407	EIGHT </s>	0
-3.659346	EIGHT ABOVE	-0.06236522
-1.778763	EIGHT AND	-0.1722058
-2.689982	EIGHT ANOTHER	0
-2.953506	EIGHT AT	-0.07471189
-3.881194	EIGHT AWAY	0.09683804
-2.936735	EIGHT BACK	0.02992441
-3.404073	EIGHT BE	-0.1738255
-3.070545	EIGHT BESIDE	-0.04733533
-1.293607	EIGHT BLOCK	-0.2786762
-0.891391	EIGHT BLOCKS	-0.09870636
-1.454956	EIGHT BLUE	-0.2260229
-2.371544	EIGHT BUT	0.02777731
-3.881194	EIGHT CLOSE	0.09931897
-2.790114	EIGHT CLOSER	0.06842119
-3.659346	EIGHT COLUMN	-0.1168027
-2.930226	EIGHT FIRST	-0.184288
-3.143509	EIGHT FOR	-0.1493086
-1.472113	EIGHT GREEN	-0.2151745
-3.881194	EIGHT HORIZONTAL	0.09202333
-2.74133	EIGHT IN	0.0287835
-3.055164	EIGHT INSTEAD	0.2428373
-2.421352	EIGHT IT	0
-4.358316	EIGHT JUST	0
-3.143509	EIGHT LINE	-0.04973399
-3.264943	EIGHT MY	0
-3.881194	EIGHT NEAR	-0.03550491
-4.057286	EIGHT NOT	-0.1636748
-0.6005402	EIGHT ON	-0.2557576
-2.349716	EIGHT ONES	0.04865107
-2.413833	EIGHT OR	-0.1350059
-1.455879	EIGHT ORANGE	-0.2332575
-3.659346	EIGHT OVER	-0.008763552
-3.231256	EIGHT PLEASE	-0.1436771
-1.442868	EIGHT RED	-0.2414554
-2.963913	EIGHT RIGHT	-0.1875678
-2.28538	EIGHT ROW	-0.0794889
-3.659346	EIGHT SET	0.06827168
-3.127867	EIGHT SHOULD	-0.1760787
-2.594888	EIGHT SITTING	0.01251902
-2.7763	EIGHT STACK	0
-2.605542	EIGHT STAIRCASE	-0.1162528
-1.217557	EIGHT STEP	-0.4270178
-1.219571	EIGHT STEPS	0.007726818
-3.580165	EIGHT STRAIGHT	0.05299807
-2.494993	EIGHT STRUCTURES	-0.1711012
-2.204512	EIGHT THAT	-0.2294476
-1.900487	EIGHT THE	-0.1595593
-2.083512	EIGHT TO	-0.1848309
-2.356588	EIGHT TOGETHER	0.04432184
-2.7159	EIGHT TOWER	-0.0667107
-4.358316	EIGHT UPRIGHT	0
-4.358316	EIGHT VERTICAL	0
-4.358316	EIGHT VERY	0
-1.111998	EIGHTH AND	-0.2785633
-1.80618	EIGHTH AVAILABLE	-0.01757967
-1.482975	EIGHTH BLOCK	-0.1024795
-1.570471	EIGHTH BLOCKS	-0.03418711
-1.62107	EIGHTH BLUE	0.008927166
-2.421312	EIGHTH BOTTOM	0
-2.857333	EIGHTH COLUMN	-0.06584436
-2.516563	EIGHTH EIGHT	-0.05317403
-2.452932	EIGHTH FIVE	-0.09690073
-2.698475	EIGHTH FOUR	0
-1.563146	EIGHTH GREEN	0.07204348
-2.681241	EIGHTH HIGHEST	-0.04092845
-2.760423	EIGHTH HORIZONTAL	0.1500988
-2.142028	EIGHTH LEFT	-0.02708533
-2.345449	EIGHTH LEFTMOST	-0.01079735
-2.781186	EIGHTH LINE	0
-2.760423	EIGHTH LOWEST	0
-2.000504	EIGHTH MIDDLE	-0.05863407
-2.556302	EIGHTH NINE	-0.04259184
-0.9661213	EIGHTH ONE	-0.1389172
-1.147639	EIGHTH ONES	0.04220772
-1.629876	EIGHTH ORANGE	0.005069405
-1.602164	EIGHTH RED	-0.001667619
-2.146937	EIGHTH RIGHT	0.004139654
-2.255272	EIGHTH RIGHTMOST	0.01006132
-1.992785	EIGHTH ROW	0
-2.255272	EIGHTH SET	0.02533165
-2.681241	EIGHTH SEVEN	-0.02476423
-3.459392	EIGHTH SHAPE	0
-3.459392	EIGHTH SHAPES	0
-2.548243	EIGHTH SIX	-0.1332062
-2.446568	EIGHTH STACK	0
-1.953344	EIGHTH STAIRCASE	0.06973052
-1.670283	EIGHTH STEP	-0.1073288
-2.320567	EIGHTH STEPS	-0.1578151
-2.857333	EIGHTH STRAIGHT	0.07422218
-1.918231	EIGHTH STRUCTURE	-0.001972318
-2.857333	EIGHTH STRUCTURES	0
-2.211837	EIGHTH THREE	-0.08641461
-2.223457	EIGHTH TOP	0
-3.459392	EIGHTH TOPMOST	0
-2.391838	EIGHTH TOWER	0
-2.463037	EIGHTH TWO	-0.07665262
-3.158362	EIGHTH UPRIGHT	0.06257126
-0.8231277	ELEVEN </s>	0
-2.94746	ELEVEN ABOVE	0.06199478
-0.8828014	ELEVEN AND	-0.2082607
-2.372737	ELEVEN ANOTHER	-0.120472
-2.204984	ELEVEN AT	-0.1241061
-2.913602	ELEVEN AWAY	0.01039347
-3.003875	ELEVEN B1	0
-2.522321	ELEVEN B10	-0.09403671
-3.003875	ELEVEN B3	0
-2.70958	ELEVEN B4	0
-4.515662	ELEVEN B5	0
-2.70958	ELEVEN B6	0
-2.531232	ELEVEN B7	0
-2.696213	ELEVEN B9	-0.06296168
-1.914153	ELEVEN BACK	-0.05078997
-2.366443	ELEVEN BE	-0.2183501
-2.51787	ELEVEN BESIDE	0.07922402
-1.681494	ELEVEN BLOCK	-0.1297969
-2.340348	ELEVEN BLUE	-0.2871626
-2.971594	ELEVEN CLOSE	0.01216251
-1.868279	ELEVEN CLOSER	0.002095968
-4.038541	ELEVEN ELEVEN	-0.184155
-3.401719	ELEVEN EVER	0.0297325
-3.515662	ELEVEN FARTHER	0.03749561
-2.478293	ELEVEN FIRST	-0.2598074
-2.318401	ELEVEN FOR	-0.2674613
-3.401719	ELEVEN FURTHER	0.02966645
-2.058998	ELEVEN GREEN	-0.2664748
-3.515662	ELEVEN HERE	0.072427
-1.736431	ELEVEN IN	-0.01872712
-2.54143	ELEVEN INSTEAD	0.02612829
-2.129705	ELEVEN IT	-0.2488434
-3.913602	ELEVEN JUST	-0.2154969
-2.829985	ELEVEN LEFT	-0.2252461
-2.887347	ELEVEN MY	-0.1137122
-2.924597	ELEVEN NEAR	-0.009584099
-2.261071	ELEVEN NEXT	-0.8489569
-2.730332	ELEVEN NOT	-0.2816648
-2.919144	ELEVEN NUMBER	-0.08040398
-1.541217	ELEVEN ON	-0.2939786
-2.168431	ELEVEN ONE	-0.1725245
-1.347459	ELEVEN OR	-0.1467514
-2.443833	ELEVEN ORANGE	-0.2719146
-2.816692	ELEVEN OVER	0.06321059
-2.649417	ELEVEN PLEASE	-0.2666346
-3.339571	ELEVEN REAL	-0.1507493
-3.436481	ELEVEN REALLY	-0.2277871
-2.079972	ELEVEN RED	-0.2836966
-2.398438	ELEVEN RIGHT	-0.2691294
-2.029941	ELEVEN SHOULD	-0.1981475
-1.56287	ELEVEN SITTING	0.01144236
-4.214632	ELEVEN TEN	0
-1.235145	ELEVEN THAT	-0.2264384
-1.597989	ELEVEN THE	-0.09739772
-2.977934	ELEVEN THERE	-0.1744044
-2.596659	ELEVEN THIS	-0.1503401
-1.563526	ELEVEN TO	-0.2803306
-1.363835	ELEVEN TOGETHER	0.003040969
-3.515662	ELEVEN TRULY	-0.129725
-4.214632	ELEVEN TWELVE	-0.1562189
-3.561419	ELEVEN VERY	-0.2044068
-3.515662	ELEVEN YOUR	-0.1390127
-0.4015454	ELSE </s>	0
-0.7208712	ELSE TO	-0.2680741
-0.3674394	END </s>	0
-3.260222	END ABOVE	0.1018563
-1.802251	END AND	-0.210422
-2.580784	END ANOTHER	-0.05849922
-2.318984	END AT	-0.1261251
-3.442066	END AWAY	0.01631847
-2.765433	END B10	-0.1451892
-2.769106	END B11	0
-2.544317	END B12	-0.06682707
-3.228164	END B2	0
-3.217676	END B3	-0.1729753
-2.943357	END B4	0
-2.943357	END B6	0
-3.066462	END B8	0
-2.943357	END B9	0
-1.843971	END BACK	-0.06246057
-2.33215	END BE	-0.2203452
-2.921393	END BESIDE	0.09190708
-1.716259	END BLOCK	-0.03854972
-2.10679	END BLOCKS	-0.03673959
-2.289438	END BLUE	-0.2383776
-3.124002	END BY	-0.193153
-2.754279	END CAN	-0.2685121
-3.377608	END CLOSE	0.01456878
-1.870124	END CLOSER	0.003834277
-3.260222	END COLUMN	-0.1416816
-4.237946	END COLUMNS	-0.06512062
-2.977212	END EIGHT	-0.09957989
-4.141036	END ELEVEN	-0.1091608
-4.061854	END EVER	0.05776124
-3.798613	END FARTHER	0.03446916
-2.379375	END FIRST	-0.2675179
-2.847157	END FIVE	-0.04989037
-1.983935	END FOR	-0.2729718
-3.001716	END FOUR	-0.1231356
-3.760825	END FURTHER	0.03188792
-2.101357	END GREEN	-0.2962224
-2.798613	END HAS	0.04773712
-3.308527	END HAVE	-0.07827792
-3.497583	END HERE	0.02023998
-3.054676	END HORIZONTAL	0.01353949
-1.692975	END IN	-0.0242337
-2.381569	END INSTEAD	0.00542742
-2.368958	END IT	-0.1744859
-4.141036	END JUST	-0.1821249
-3.108327	END LEFT	-0.2223695
-2.971296	END LINE	-0.1071209
-4.840006	END LINES	0
-3.158764	END MAY	-0.2313192
-3.107612	END MUST	0.01496926
-3.197431	END MY	-0.0264613
-3.497583	END NEAR	0.003661722
-2.536593	END NEXT	-0.8141947
-3.392848	END NINE	-0.03395469
-3.196553	END NOT	-0.2790683
-3.133193	END NUMBER	-0.0226308
-1.44889	END OF	-0.2706684
-2.579934	END OFF	0.002269894
-1.713478	END ON	-0.2266747
-2.401657	END ONE	0
-3.334856	END ONLY	-0.08987682
-2.541153	END OR	-0.1068645
-2.253618	END ORANGE	-0.2149047
-3.013931	END OVER	0.009595767
-2.421852	END PLEASE	-0.2753345
-3.936916	END REAL	-0.1198726
-4.061854	END REALLY	-0.188869
-2.115793	END RED	-0.2479788
-2.730015	END RIGHT	-0.2601776
-2.222318	END ROW	-0.1793797
-3.994908	END ROWS	-0.01623286
-2.942379	END SET	0.00549826
-3.994908	END SETS	0.04951248
-3.227222	END SEVEN	-0.1013114
-3.040665	END SHAPE	-0.2464771
-3.107612	END SHAPES	0.04036126
-2.113278	END SHOULD	-0.1648983
-2.077327	END SITTING	0.01411059
-2.869813	END SIX	-0.03478642
-2.656072	END STACK	-0.1530041
-2.47145	END STAIRCASE	0.00127399
-4.840006	END STAIRCASES	0
-3.348644	END STRAIGHT	0.02548122
-2.179225	END STRUCTURE	-0.1554825
-3.040665	END STRUCTURES	-0.1537053
-4.840006	END TEN	0
-1.685193	END THAT	-0.2246308
-1.830649	END THE	-0.09638945
-3.069808	END THERE	-0.1866079
-2.872354	END THIS	-0.1261882
-2.619404	END THREE	-0.102228
-1.658102	END TO	-0.283548
-1.819267	END TOGETHER	0.004204333
-2.567725	END TOWER	-0.2118351
-4.538976	END TOWERS	0
-3.936916	END TRULY	-0.1174905
-2.715248	END TWO	-0.124099
-3.760825	END UPRIGHT	-0.03033204
-3.609557	END VERTICAL	0.004544914
-3.798613	END VERY	-0.2148096
-1.200528	END WITH	-0.07530236
-3.885763	END YOUR	-0.0490194
-3.020462	END YOURSELF	0.007414818
-0.3190582	ENOUGH BLOCKS	-0.3286426
-1.163941	ENOUGH BLUE	-0.2259084
-1.150566	ENOUGH GREEN	-0.2253029
-1.159155	ENOUGH ORANGE	-0.2260612
-1.152158	ENOUGH RED	-0.2486246
-2.151063	ENTIRELY ACCEPTABLE	0.1443044
-2.196821	ENTIRELY ALRIGHT	-0.05442511
-2.196821	ENTIRELY AWESOME	0.06418324
-3.151063	ENTIRELY AWFUL	0
-2.673942	ENTIRELY BAD	-0.002469569
-2.305965	ENTIRELY BRILLIANT	0.0817357
-2.673942	ENTIRELY DREADFUL	0.1099013
-2.372912	ENTIRELY EXCELLENT	0.0293833
-2.372912	ENTIRELY EXCEPTIONAL	0.08335634
-2.151063	ENTIRELY FABULOUS	0.05825749
-2.196821	ENTIRELY FANTASTIC	0.06375089
-2.228845	ENTIRELY FINE	-0.06117859
-1.678007	ENTIRELY FIRST	-0.269905
-2.305965	ENTIRELY FUNNY	0.05881074
-2.194878	ENTIRELY GOOD	-0.1268229
-1.945849	ENTIRELY GREAT	0.2181578
-2.850033	ENTIRELY HORRIBLE	0.141495
-1.645913	ENTIRELY LIKELY	0.0281716
-2.850033	ENTIRELY LOUSY	0.1415154
-2.372912	ENTIRELY MAGNIFICENT	0.01658592
-2.151063	ENTIRELY MARVELOUS	0.1273252
-2.850033	ENTIRELY NASTY	0.1416192
-2.372912	ENTIRELY ODD	0.06667131
-2.149314	ENTIRELY OK	-0.0792037
-2.247973	ENTIRELY OUTSTANDING	0.04789172
-0.9692196	ENTIRELY POSITIVE	-0.04900199
-1.538279	ENTIRELY POSSIBLY	0.02221572
-1.606995	ENTIRELY PROBABLY	0.02591082
-2.305965	ENTIRELY STERLING	0.06898469
-2.151063	ENTIRELY STRANGE	0.04343691
-2.135694	ENTIRELY SUPER	0.1211786
-2.196821	ENTIRELY SUPERB	0.09200113
-0.9579386	ENTIRELY SURE	-0.1301897
-3.151063	ENTIRELY TERRIBLE	0
-2.372912	ENTIRELY TERRIFIC	0.109808
-1.839706	ENTIRELY TOP	-0.2700735
-2.247973	ENTIRELY WEIRD	0.05260161
-2.071882	ENTIRELY WONDERFUL	0.01578486
-0.3012608	EVER SO	-0.2701153
-0.8152257	EXACTLY A	-0.2785082
-1.760213	EXACTLY EIGHT	-0.1543689
-1.700273	EXACTLY FIVE	-0.1985737
-1.66445	EXACTLY FOUR	-0.2804716
-1.723143	EXACTLY NINE	-0.1703891
-1.323442	EXACTLY ONE	-0.3158325
-1.765977	EXACTLY SEVEN	-0.1705288
-1.702555	EXACTLY SIX	-0.186468
-1.632187	EXACTLY THREE	-0.2067801
-1.671238	EXACTLY TWO	-0.201872
-0.7409258	EXACTLY WHAT	-0.2810809
-0.5933062	EXAMPLE </s>	0
-0.4836796	EXAMPLE OF	-0.2921295
-0.4072402	EXCELLENT </s>	0
-1.653213	EXCELLENT MANY	-0.2220836
-1.033424	EXCELLENT THANK	0.01657176
-1.285236	EXCELLENT THANKS	-0.08168504
-0.3874901	EXCEPTIONAL </s>	0
-1.991226	EXCEPTIONAL MANY	-0.1831656
-1.070407	EXCEPTIONAL THANK	0.01657176
-1.264227	EXCEPTIONAL THANKS	-0.0882062
-1.447158	EXCEPTIONALLY AWFUL	0.0895184
-1.447158	EXCEPTIONALLY BAD	-0.02259824
-1.748188	EXCEPTIONALLY DREADFUL	0.1415053
-1.003598	EXCEPTIONALLY FINE	-0.1561272
-1.25954	EXCEPTIONALLY GOOD	-0.2277163
-1.194221	EXCEPTIONALLY GREAT	0.257442
-1.572097	EXCEPTIONALLY HORRIBLE	0.109891
-1.447158	EXCEPTIONALLY LOUSY	0.08978277
-1.572097	EXCEPTIONALLY NASTY	0.1100152
-1.748188	EXCEPTIONALLY TERRIBLE	0.1413043
-0.3003308	EXCUSE ME	-0.1893805
-0.5128654	EXTENT </s>	0
-1.06132	EXTENT YEAH	-0.2513375
-1.033266	EXTENT YES	-0.3607042
-1.052917	EXTENT YUP	-0.2498307
-1.414973	EXTRAORDINARILY AWFUL	0.1096471
-1.414973	EXTRAORDINARILY BAD	-0.002469569
-1.892095	EXTRAORDINARILY DREADFUL	0
-1.575092	EXTRAORDINARILY FINE	0
-1.278	EXTRAORDINARILY GOOD	-0.1682156
-0.9829456	EXTRAORDINARILY GREAT	0.2183887
-1.414973	EXTRAORDINARILY HORRIBLE	0.109891
-1.591065	EXTRAORDINARILY LOUSY	0.1415154
-1.290035	EXTRAORDINARILY NASTY	0.08988649
-1.548185	EXTREMELY AWFUL	0.1096471
-1.548185	EXTREMELY BAD	-0.002469569
-1.724276	EXTREMELY DREADFUL	0.1415053
-1.020906	EXTREMELY FINE	-0.1915123
-1.236237	EXTREMELY GOOD	-0.04680952
-1.236237	EXTREMELY GREAT	0.2196535
-1.548185	EXTREMELY HORRIBLE	0.109891
-1.548185	EXTREMELY LOUSY	0.1099114
-1.247155	EXTREMELY NASTY	0.06567848
-2.025306	EXTREMELY TERRIBLE	0
-0.4235886	FABULOUS </s>	0
-1.471292	FABULOUS MANY	-0.242287
-1.109564	FABULOUS THANK	0.01792765
-1.149072	FABULOUS THANKS	-0.09978616
-0.5612397	FACT </s>	0
-0.8351357	FACT NO	-0.3753908
-0.7984985	FACT YES	-0.3601685
-0.2424864	FAIR </s>	0
-1.173451	FAIRLY ACCEPTABLE	0.08076769
-1.311754	FAIRLY ALRIGHT	-0.1018419
-2.214844	FAIRLY AWFUL	0.1412511
-2.038753	FAIRLY BAD	-0.002469569
-1.816904	FAIRLY DREADFUL	0.07581574
-1.425437	FAIRLY FINE	-0.2073066
-1.816904	FAIRLY FUNNY	0.07691222
-1.456211	FAIRLY GOOD	-0.2004003
-1.539403	FAIRLY GREAT	0.1990836
-2.038753	FAIRLY HORRIBLE	0.109891
-2.038753	FAIRLY LOUSY	0.1099114
-2.038753	FAIRLY NASTY	0.1100152
-1.285425	FAIRLY ODD	0.02686703
-1.419917	FAIRLY OK	-0.08636457
-1.474481	FAIRLY STRANGE	0.03994092
-1.816904	FAIRLY TERRIBLE	0.07561472
-1.612784	FAIRLY WEIRD	0.05260161
-0.2424004	FALSE </s>	0
-0.4149337	FANTASTIC </s>	0
-1.988262	FANTASTIC MANY	-0.1831656
-0.9882616	FANTASTIC THANK	0.01393536
-1.21011	FANTASTIC THANKS	-0.09349471
-0.4301085	FAR AS	-0.1842811
-0.8910451	FAR FROM	-0.1217887
-0.3013231	FARTHER AWAY	0.0002209842
-0.9491233	FEW </s>	0
-0.6316777	FEW BLOCKS	-0.285095
-1.218681	FEW BLUE	-0.2247667
-1.191342	FEW GREEN	-0.2241431
-1.19898	FEW ORANGE	-0.2249979
-1.180234	FEW RED	-0.2473863
-0.3005341	FEWER THAN	-0.2630011
-1.099468	FIFTH AND	-0.2797955
-1.75688	FIFTH AVAILABLE	-0.02335945
-1.496047	FIFTH BLOCK	-0.05751291
-1.703032	FIFTH BLOCKS	0.06110647
-1.686864	FIFTH BLUE	0.02929869
-2.358225	FIFTH BOTTOM	-0.04760091
-3.004035	FIFTH COLUMN	0
-2.641757	FIFTH EIGHT	-0.04949564
-2.558788	FIFTH FIVE	-0.01110462
-2.443381	FIFTH FOUR	-0.1795727
-1.54759	FIFTH GREEN	0.02323401
-2.636058	FIFTH HIGHEST	-0.005070584
-2.782186	FIFTH HORIZONTAL	0.06201236
-2.121155	FIFTH LEFT	-0.1198573
-2.367213	FIFTH LEFTMOST	0.01004994
-2.790186	FIFTH LINE	0
-3.004035	FIFTH LOWEST	0
-2.067709	FIFTH MIDDLE	-0.03273985
-2.526913	FIFTH NINE	-0.01281014
